FANN_FLO_2.1
num_layers=3
learning_rate=0.700000
connection_rate=1.000000
network_type=0
learning_momentum=0.000000
training_algorithm=2
train_error_function=1
train_stop_function=0
cascade_output_change_fraction=0.010000
quickprop_decay=-0.000100
quickprop_mu=1.750000
rprop_increase_factor=1.200000
rprop_decrease_factor=0.500000
rprop_delta_min=0.000000
rprop_delta_max=50.000000
rprop_delta_zero=0.100000
cascade_output_stagnation_epochs=12
cascade_candidate_change_fraction=0.010000
cascade_candidate_stagnation_epochs=12
cascade_max_out_epochs=150
cascade_max_cand_epochs=150
cascade_num_candidate_groups=2
bit_fail_limit=3.49999994039535522461e-01
cascade_candidate_limit=1.00000000000000000000e+03
cascade_weight_multiplier=4.00000005960464477539e-01
cascade_activation_functions_count=10
cascade_activation_functions=3 5 7 8 10 11 14 15 16 17 
cascade_activation_steepnesses_count=4
cascade_activation_steepnesses=2.50000000000000000000e-01 5.00000000000000000000e-01 7.50000000000000000000e-01 1.00000000000000000000e+00 
layer_sizes=257 129 4 
scale_included=0
neurons (num_inputs, activation_function, activation_steepness)=(0, 0, 0.00000000000000000000e+00) (0, 0, 0.00000000000000000000e+00) (0, 0, 0.00000000000000000000e+00) (0, 0, 0.00000000000000000000e+00) (0, 0, 0.00000000000000000000e+00) (0, 0, 0.00000000000000000000e+00) (0, 0, 0.00000000000000000000e+00) (0, 0, 0.00000000000000000000e+00) (0, 0, 0.00000000000000000000e+00) (0, 0, 0.00000000000000000000e+00) (0, 0, 0.00000000000000000000e+00) (0, 0, 0.00000000000000000000e+00) (0, 0, 0.00000000000000000000e+00) (0, 0, 0.00000000000000000000e+00) (0, 0, 0.00000000000000000000e+00) (0, 0, 0.00000000000000000000e+00) (0, 0, 0.00000000000000000000e+00) (0, 0, 0.00000000000000000000e+00) (0, 0, 0.00000000000000000000e+00) (0, 0, 0.00000000000000000000e+00) (0, 0, 0.00000000000000000000e+00) (0, 0, 0.00000000000000000000e+00) (0, 0, 0.00000000000000000000e+00) (0, 0, 0.00000000000000000000e+00) (0, 0, 0.00000000000000000000e+00) (0, 0, 0.00000000000000000000e+00) (0, 0, 0.00000000000000000000e+00) (0, 0, 0.00000000000000000000e+00) (0, 0, 0.00000000000000000000e+00) (0, 0, 0.00000000000000000000e+00) (0, 0, 0.00000000000000000000e+00) (0, 0, 0.00000000000000000000e+00) (0, 0, 0.00000000000000000000e+00) (0, 0, 0.00000000000000000000e+00) (0, 0, 0.00000000000000000000e+00) (0, 0, 0.00000000000000000000e+00) (0, 0, 0.00000000000000000000e+00) (0, 0, 0.00000000000000000000e+00) (0, 0, 0.00000000000000000000e+00) (0, 0, 0.00000000000000000000e+00) (0, 0, 0.00000000000000000000e+00) (0, 0, 0.00000000000000000000e+00) (0, 0, 0.00000000000000000000e+00) (0, 0, 0.00000000000000000000e+00) (0, 0, 0.00000000000000000000e+00) (0, 0, 0.00000000000000000000e+00) (0, 0, 0.00000000000000000000e+00) (0, 0, 0.00000000000000000000e+00) (0, 0, 0.00000000000000000000e+00) (0, 0, 0.00000000000000000000e+00) (0, 0, 0.00000000000000000000e+00) (0, 0, 0.00000000000000000000e+00) (0, 0, 0.00000000000000000000e+00) (0, 0, 0.00000000000000000000e+00) (0, 0, 0.00000000000000000000e+00) (0, 0, 0.00000000000000000000e+00) (0, 0, 0.00000000000000000000e+00) (0, 0, 0.00000000000000000000e+00) (0, 0, 0.00000000000000000000e+00) (0, 0, 0.00000000000000000000e+00) (0, 0, 0.00000000000000000000e+00) (0, 0, 0.00000000000000000000e+00) (0, 0, 0.00000000000000000000e+00) (0, 0, 0.00000000000000000000e+00) (0, 0, 0.00000000000000000000e+00) (0, 0, 0.00000000000000000000e+00) (0, 0, 0.00000000000000000000e+00) (0, 0, 0.00000000000000000000e+00) (0, 0, 0.00000000000000000000e+00) (0, 0, 0.00000000000000000000e+00) (0, 0, 0.00000000000000000000e+00) (0, 0, 0.00000000000000000000e+00) (0, 0, 0.00000000000000000000e+00) (0, 0, 0.00000000000000000000e+00) (0, 0, 0.00000000000000000000e+00) (0, 0, 0.00000000000000000000e+00) (0, 0, 0.00000000000000000000e+00) (0, 0, 0.00000000000000000000e+00) (0, 0, 0.00000000000000000000e+00) (0, 0, 0.00000000000000000000e+00) (0, 0, 0.00000000000000000000e+00) (0, 0, 0.00000000000000000000e+00) (0, 0, 0.00000000000000000000e+00) (0, 0, 0.00000000000000000000e+00) (0, 0, 0.00000000000000000000e+00) (0, 0, 0.00000000000000000000e+00) (0, 0, 0.00000000000000000000e+00) (0, 0, 0.00000000000000000000e+00) (0, 0, 0.00000000000000000000e+00) (0, 0, 0.00000000000000000000e+00) (0, 0, 0.00000000000000000000e+00) (0, 0, 0.00000000000000000000e+00) (0, 0, 0.00000000000000000000e+00) (0, 0, 0.00000000000000000000e+00) (0, 0, 0.00000000000000000000e+00) (0, 0, 0.00000000000000000000e+00) (0, 0, 0.00000000000000000000e+00) (0, 0, 0.00000000000000000000e+00) (0, 0, 0.00000000000000000000e+00) (0, 0, 0.00000000000000000000e+00) (0, 0, 0.00000000000000000000e+00) (0, 0, 0.00000000000000000000e+00) (0, 0, 0.00000000000000000000e+00) (0, 0, 0.00000000000000000000e+00) (0, 0, 0.00000000000000000000e+00) (0, 0, 0.00000000000000000000e+00) (0, 0, 0.00000000000000000000e+00) (0, 0, 0.00000000000000000000e+00) (0, 0, 0.00000000000000000000e+00) (0, 0, 0.00000000000000000000e+00) (0, 0, 0.00000000000000000000e+00) (0, 0, 0.00000000000000000000e+00) (0, 0, 0.00000000000000000000e+00) (0, 0, 0.00000000000000000000e+00) (0, 0, 0.00000000000000000000e+00) (0, 0, 0.00000000000000000000e+00) (0, 0, 0.00000000000000000000e+00) (0, 0, 0.00000000000000000000e+00) (0, 0, 0.00000000000000000000e+00) (0, 0, 0.00000000000000000000e+00) (0, 0, 0.00000000000000000000e+00) (0, 0, 0.00000000000000000000e+00) (0, 0, 0.00000000000000000000e+00) (0, 0, 0.00000000000000000000e+00) (0, 0, 0.00000000000000000000e+00) (0, 0, 0.00000000000000000000e+00) (0, 0, 0.00000000000000000000e+00) (0, 0, 0.00000000000000000000e+00) (0, 0, 0.00000000000000000000e+00) (0, 0, 0.00000000000000000000e+00) (0, 0, 0.00000000000000000000e+00) (0, 0, 0.00000000000000000000e+00) (0, 0, 0.00000000000000000000e+00) (0, 0, 0.00000000000000000000e+00) (0, 0, 0.00000000000000000000e+00) (0, 0, 0.00000000000000000000e+00) (0, 0, 0.00000000000000000000e+00) (0, 0, 0.00000000000000000000e+00) (0, 0, 0.00000000000000000000e+00) (0, 0, 0.00000000000000000000e+00) (0, 0, 0.00000000000000000000e+00) (0, 0, 0.00000000000000000000e+00) (0, 0, 0.00000000000000000000e+00) (0, 0, 0.00000000000000000000e+00) (0, 0, 0.00000000000000000000e+00) (0, 0, 0.00000000000000000000e+00) (0, 0, 0.00000000000000000000e+00) (0, 0, 0.00000000000000000000e+00) (0, 0, 0.00000000000000000000e+00) (0, 0, 0.00000000000000000000e+00) (0, 0, 0.00000000000000000000e+00) (0, 0, 0.00000000000000000000e+00) (0, 0, 0.00000000000000000000e+00) (0, 0, 0.00000000000000000000e+00) (0, 0, 0.00000000000000000000e+00) (0, 0, 0.00000000000000000000e+00) (0, 0, 0.00000000000000000000e+00) (0, 0, 0.00000000000000000000e+00) (0, 0, 0.00000000000000000000e+00) (0, 0, 0.00000000000000000000e+00) (0, 0, 0.00000000000000000000e+00) (0, 0, 0.00000000000000000000e+00) (0, 0, 0.00000000000000000000e+00) (0, 0, 0.00000000000000000000e+00) (0, 0, 0.00000000000000000000e+00) (0, 0, 0.00000000000000000000e+00) (0, 0, 0.00000000000000000000e+00) (0, 0, 0.00000000000000000000e+00) (0, 0, 0.00000000000000000000e+00) (0, 0, 0.00000000000000000000e+00) (0, 0, 0.00000000000000000000e+00) (0, 0, 0.00000000000000000000e+00) (0, 0, 0.00000000000000000000e+00) (0, 0, 0.00000000000000000000e+00) (0, 0, 0.00000000000000000000e+00) (0, 0, 0.00000000000000000000e+00) (0, 0, 0.00000000000000000000e+00) (0, 0, 0.00000000000000000000e+00) (0, 0, 0.00000000000000000000e+00) (0, 0, 0.00000000000000000000e+00) (0, 0, 0.00000000000000000000e+00) (0, 0, 0.00000000000000000000e+00) (0, 0, 0.00000000000000000000e+00) (0, 0, 0.00000000000000000000e+00) (0, 0, 0.00000000000000000000e+00) (0, 0, 0.00000000000000000000e+00) (0, 0, 0.00000000000000000000e+00) (0, 0, 0.00000000000000000000e+00) (0, 0, 0.00000000000000000000e+00) (0, 0, 0.00000000000000000000e+00) (0, 0, 0.00000000000000000000e+00) (0, 0, 0.00000000000000000000e+00) (0, 0, 0.00000000000000000000e+00) (0, 0, 0.00000000000000000000e+00) (0, 0, 0.00000000000000000000e+00) (0, 0, 0.00000000000000000000e+00) (0, 0, 0.00000000000000000000e+00) (0, 0, 0.00000000000000000000e+00) (0, 0, 0.00000000000000000000e+00) (0, 0, 0.00000000000000000000e+00) (0, 0, 0.00000000000000000000e+00) (0, 0, 0.00000000000000000000e+00) (0, 0, 0.00000000000000000000e+00) (0, 0, 0.00000000000000000000e+00) (0, 0, 0.00000000000000000000e+00) (0, 0, 0.00000000000000000000e+00) (0, 0, 0.00000000000000000000e+00) (0, 0, 0.00000000000000000000e+00) (0, 0, 0.00000000000000000000e+00) (0, 0, 0.00000000000000000000e+00) (0, 0, 0.00000000000000000000e+00) (0, 0, 0.00000000000000000000e+00) (0, 0, 0.00000000000000000000e+00) (0, 0, 0.00000000000000000000e+00) (0, 0, 0.00000000000000000000e+00) (0, 0, 0.00000000000000000000e+00) (0, 0, 0.00000000000000000000e+00) (0, 0, 0.00000000000000000000e+00) (0, 0, 0.00000000000000000000e+00) (0, 0, 0.00000000000000000000e+00) (0, 0, 0.00000000000000000000e+00) (0, 0, 0.00000000000000000000e+00) (0, 0, 0.00000000000000000000e+00) (0, 0, 0.00000000000000000000e+00) (0, 0, 0.00000000000000000000e+00) (0, 0, 0.00000000000000000000e+00) (0, 0, 0.00000000000000000000e+00) (0, 0, 0.00000000000000000000e+00) (0, 0, 0.00000000000000000000e+00) (0, 0, 0.00000000000000000000e+00) (0, 0, 0.00000000000000000000e+00) (0, 0, 0.00000000000000000000e+00) (0, 0, 0.00000000000000000000e+00) (0, 0, 0.00000000000000000000e+00) (0, 0, 0.00000000000000000000e+00) (0, 0, 0.00000000000000000000e+00) (0, 0, 0.00000000000000000000e+00) (0, 0, 0.00000000000000000000e+00) (0, 0, 0.00000000000000000000e+00) (0, 0, 0.00000000000000000000e+00) (0, 0, 0.00000000000000000000e+00) (0, 0, 0.00000000000000000000e+00) (0, 0, 0.00000000000000000000e+00) (0, 0, 0.00000000000000000000e+00) (0, 0, 0.00000000000000000000e+00) (0, 0, 0.00000000000000000000e+00) (0, 0, 0.00000000000000000000e+00) (0, 0, 0.00000000000000000000e+00) (0, 0, 0.00000000000000000000e+00) (0, 0, 0.00000000000000000000e+00) (0, 0, 0.00000000000000000000e+00) (0, 0, 0.00000000000000000000e+00) (0, 0, 0.00000000000000000000e+00) (0, 0, 0.00000000000000000000e+00) (0, 0, 0.00000000000000000000e+00) (0, 0, 0.00000000000000000000e+00) (0, 0, 0.00000000000000000000e+00) (257, 4, 5.00000000000000000000e-01) (257, 4, 5.00000000000000000000e-01) (257, 4, 5.00000000000000000000e-01) (257, 4, 5.00000000000000000000e-01) (257, 4, 5.00000000000000000000e-01) (257, 4, 5.00000000000000000000e-01) (257, 4, 5.00000000000000000000e-01) (257, 4, 5.00000000000000000000e-01) (257, 4, 5.00000000000000000000e-01) (257, 4, 5.00000000000000000000e-01) (257, 4, 5.00000000000000000000e-01) (257, 4, 5.00000000000000000000e-01) (257, 4, 5.00000000000000000000e-01) (257, 4, 5.00000000000000000000e-01) (257, 4, 5.00000000000000000000e-01) (257, 4, 5.00000000000000000000e-01) (257, 4, 5.00000000000000000000e-01) (257, 4, 5.00000000000000000000e-01) (257, 4, 5.00000000000000000000e-01) (257, 4, 5.00000000000000000000e-01) (257, 4, 5.00000000000000000000e-01) (257, 4, 5.00000000000000000000e-01) (257, 4, 5.00000000000000000000e-01) (257, 4, 5.00000000000000000000e-01) (257, 4, 5.00000000000000000000e-01) (257, 4, 5.00000000000000000000e-01) (257, 4, 5.00000000000000000000e-01) (257, 4, 5.00000000000000000000e-01) (257, 4, 5.00000000000000000000e-01) (257, 4, 5.00000000000000000000e-01) (257, 4, 5.00000000000000000000e-01) (257, 4, 5.00000000000000000000e-01) (257, 4, 5.00000000000000000000e-01) (257, 4, 5.00000000000000000000e-01) (257, 4, 5.00000000000000000000e-01) (257, 4, 5.00000000000000000000e-01) (257, 4, 5.00000000000000000000e-01) (257, 4, 5.00000000000000000000e-01) (257, 4, 5.00000000000000000000e-01) (257, 4, 5.00000000000000000000e-01) (257, 4, 5.00000000000000000000e-01) (257, 4, 5.00000000000000000000e-01) (257, 4, 5.00000000000000000000e-01) (257, 4, 5.00000000000000000000e-01) (257, 4, 5.00000000000000000000e-01) (257, 4, 5.00000000000000000000e-01) (257, 4, 5.00000000000000000000e-01) (257, 4, 5.00000000000000000000e-01) (257, 4, 5.00000000000000000000e-01) (257, 4, 5.00000000000000000000e-01) (257, 4, 5.00000000000000000000e-01) (257, 4, 5.00000000000000000000e-01) (257, 4, 5.00000000000000000000e-01) (257, 4, 5.00000000000000000000e-01) (257, 4, 5.00000000000000000000e-01) (257, 4, 5.00000000000000000000e-01) (257, 4, 5.00000000000000000000e-01) (257, 4, 5.00000000000000000000e-01) (257, 4, 5.00000000000000000000e-01) (257, 4, 5.00000000000000000000e-01) (257, 4, 5.00000000000000000000e-01) (257, 4, 5.00000000000000000000e-01) (257, 4, 5.00000000000000000000e-01) (257, 4, 5.00000000000000000000e-01) (257, 4, 5.00000000000000000000e-01) (257, 4, 5.00000000000000000000e-01) (257, 4, 5.00000000000000000000e-01) (257, 4, 5.00000000000000000000e-01) (257, 4, 5.00000000000000000000e-01) (257, 4, 5.00000000000000000000e-01) (257, 4, 5.00000000000000000000e-01) (257, 4, 5.00000000000000000000e-01) (257, 4, 5.00000000000000000000e-01) (257, 4, 5.00000000000000000000e-01) (257, 4, 5.00000000000000000000e-01) (257, 4, 5.00000000000000000000e-01) (257, 4, 5.00000000000000000000e-01) (257, 4, 5.00000000000000000000e-01) (257, 4, 5.00000000000000000000e-01) (257, 4, 5.00000000000000000000e-01) (257, 4, 5.00000000000000000000e-01) (257, 4, 5.00000000000000000000e-01) (257, 4, 5.00000000000000000000e-01) (257, 4, 5.00000000000000000000e-01) (257, 4, 5.00000000000000000000e-01) (257, 4, 5.00000000000000000000e-01) (257, 4, 5.00000000000000000000e-01) (257, 4, 5.00000000000000000000e-01) (257, 4, 5.00000000000000000000e-01) (257, 4, 5.00000000000000000000e-01) (257, 4, 5.00000000000000000000e-01) (257, 4, 5.00000000000000000000e-01) (257, 4, 5.00000000000000000000e-01) (257, 4, 5.00000000000000000000e-01) (257, 4, 5.00000000000000000000e-01) (257, 4, 5.00000000000000000000e-01) (257, 4, 5.00000000000000000000e-01) (257, 4, 5.00000000000000000000e-01) (257, 4, 5.00000000000000000000e-01) (257, 4, 5.00000000000000000000e-01) (257, 4, 5.00000000000000000000e-01) (257, 4, 5.00000000000000000000e-01) (257, 4, 5.00000000000000000000e-01) (257, 4, 5.00000000000000000000e-01) (257, 4, 5.00000000000000000000e-01) (257, 4, 5.00000000000000000000e-01) (257, 4, 5.00000000000000000000e-01) (257, 4, 5.00000000000000000000e-01) (257, 4, 5.00000000000000000000e-01) (257, 4, 5.00000000000000000000e-01) (257, 4, 5.00000000000000000000e-01) (257, 4, 5.00000000000000000000e-01) (257, 4, 5.00000000000000000000e-01) (257, 4, 5.00000000000000000000e-01) (257, 4, 5.00000000000000000000e-01) (257, 4, 5.00000000000000000000e-01) (257, 4, 5.00000000000000000000e-01) (257, 4, 5.00000000000000000000e-01) (257, 4, 5.00000000000000000000e-01) (257, 4, 5.00000000000000000000e-01) (257, 4, 5.00000000000000000000e-01) (257, 4, 5.00000000000000000000e-01) (257, 4, 5.00000000000000000000e-01) (257, 4, 5.00000000000000000000e-01) (257, 4, 5.00000000000000000000e-01) (257, 4, 5.00000000000000000000e-01) (257, 4, 5.00000000000000000000e-01) (257, 4, 5.00000000000000000000e-01) (0, 0, 0.00000000000000000000e+00) (129, 4, 5.00000000000000000000e-01) (129, 4, 5.00000000000000000000e-01) (129, 4, 5.00000000000000000000e-01) (0, 0, 0.00000000000000000000e+00) 
connections (connected_to_neuron, weight)=(0, -5.21570555865764617920e-02) (1, 3.90117242932319641113e-02) (2, -9.14812088012695312500e-04) (3, -5.01339100301265716553e-02) (4, -2.89496034383773803711e-02) (5, -3.47405523061752319336e-02) (6, 4.44321706891059875488e-02) (7, 8.76648351550102233887e-02) (8, 2.79999002814292907715e-02) (9, 4.66692969202995300293e-02) (10, 3.76883521676063537598e-02) (11, -5.92329576611518859863e-02) (12, -4.79047074913978576660e-02) (13, -1.34002417325973510742e-02) (14, 6.27699568867683410645e-02) (15, 6.73179998993873596191e-02) (16, -1.04351341724395751953e-03) (17, -8.65367203950881958008e-02) (18, 3.00039276480674743652e-02) (19, -5.63777349889278411865e-02) (20, 3.68985012173652648926e-02) (21, -3.11925411224365234375e-02) (22, -1.34284645318984985352e-02) (23, -3.55029776692390441895e-02) (24, -4.80517931282520294189e-02) (25, 7.10348859429359436035e-02) (26, -1.52742415666580200195e-02) (27, 7.24169984459877014160e-02) (28, 6.49318024516105651855e-02) (29, 5.53920343518257141113e-02) (30, 5.77352270483970642090e-02) (31, -8.72252583503723144531e-02) (32, -5.59625774621963500977e-03) (33, -4.31795828044414520264e-02) (34, -3.73591631650924682617e-02) (35, 6.54541328549385070801e-02) (36, 2.20798626542091369629e-02) (37, -9.29269939661026000977e-02) (38, 5.31189516186714172363e-02) (39, -4.99202311038970947266e-02) (40, 5.37422969937324523926e-02) (41, -9.19269025325775146484e-03) (42, -9.15318727493286132812e-03) (43, -9.41624119877815246582e-02) (44, 7.74070695042610168457e-02) (45, -4.63832207024097442627e-02) (46, 7.31555894017219543457e-02) (47, -2.36364454030990600586e-02) (48, -3.29199358820915222168e-02) (49, 3.15950810909271240234e-03) (50, 1.99858173727989196777e-02) (51, -9.60214287042617797852e-02) (52, 7.19669684767723083496e-02) (53, -9.34426411986351013184e-02) (54, -3.15244048833847045898e-02) (55, -7.60848298668861389160e-02) (56, 7.75922462344169616699e-02) (57, 5.32013550400733947754e-02) (58, 9.63321700692176818848e-02) (59, 4.25240471959114074707e-02) (60, 8.59338045120239257812e-03) (61, 5.40673956274986267090e-02) (62, 5.52987679839134216309e-02) (63, -9.70028862357139587402e-02) (64, -8.91121849417686462402e-02) (65, -8.20603966712951660156e-02) (66, 6.84512481093406677246e-02) (67, 3.29676941037178039551e-02) (68, -7.49873891472816467285e-02) (69, 2.15702205896377563477e-02) (70, 8.30474570393562316895e-02) (71, 7.87549093365669250488e-02) (72, -8.76224711537361145020e-02) (73, -2.61057317256927490234e-02) (74, 8.45924988389015197754e-02) (75, 8.97845998406410217285e-02) (76, 2.75110527873039245605e-02) (77, 5.77480867505073547363e-02) (78, -3.38518470525741577148e-02) (79, 9.45911183953285217285e-02) (80, -3.90924103558063507080e-02) (81, 8.61339792609214782715e-02) (82, 9.85696837306022644043e-02) (83, -6.71254470944404602051e-02) (84, 9.26913395524024963379e-02) (85, -3.29547226428985595703e-02) (86, -4.32102754712104797363e-02) (87, 7.02835842967033386230e-02) (88, -7.97533765435218811035e-02) (89, -4.68780994415283203125e-02) (90, 1.28076225519180297852e-02) (91, 2.88400128483772277832e-02) (92, -9.28107053041458129883e-02) (93, -3.18936109542846679688e-02) (94, 3.18371132016181945801e-02) (95, -8.19228887557983398438e-02) (96, -1.39540061354637145996e-02) (97, 2.88382172584533691406e-04) (98, 5.10447993874549865723e-02) (99, 1.10586062073707580566e-02) (100, -7.81414136290550231934e-02) (101, 3.40922549366950988770e-02) (102, -1.01864859461784362793e-02) (103, -6.57638832926750183105e-02) (104, -9.20134782791137695312e-02) (105, -2.55939885973930358887e-02) (106, -7.59792849421501159668e-02) (107, 3.54975685477256774902e-02) (108, -6.78459107875823974609e-02) (109, -9.83112305402755737305e-03) (110, 3.00886854529380798340e-02) (111, -6.93831592798233032227e-03) (112, -2.36971452832221984863e-02) (113, 2.86583676934242248535e-02) (114, 2.59362384676933288574e-02) (115, -3.10058072209358215332e-02) (116, 9.57036390900611877441e-02) (117, 8.27259644865989685059e-02) (118, -6.07222281396389007568e-02) (119, -8.40497314929962158203e-02) (120, -6.41521364450454711914e-02) (121, 5.20853921771049499512e-02) (122, 4.47902753949165344238e-02) (123, -5.69628365337848663330e-02) (124, -7.98082277178764343262e-02) (125, -2.33726054430007934570e-02) (126, -3.88857200741767883301e-02) (127, 6.23776763677597045898e-03) (128, 7.69157633185386657715e-02) (129, -8.78409221768379211426e-02) (130, -8.27036276459693908691e-02) (131, 9.87743511795997619629e-02) (132, 4.62513342499732971191e-02) (133, 7.10989534854888916016e-03) (134, -6.69895261526107788086e-02) (135, 5.42378500103950500488e-02) (136, 8.15159007906913757324e-02) (137, -4.29688096046447753906e-02) (138, -1.02645754814147949219e-02) (139, -8.63300040364265441895e-02) (140, 4.72000613808631896973e-02) (141, -8.01758915185928344727e-02) (142, 6.73167407512664794922e-03) (143, -7.64970779418945312500e-02) (144, 4.84824851155281066895e-02) (145, -6.73320814967155456543e-02) (146, -7.50289112329483032227e-03) (147, 4.41861227154731750488e-02) (148, -8.46061110496520996094e-02) (149, 3.17748859524726867676e-02) (150, 6.01363852620124816895e-02) (151, -4.87582460045814514160e-02) (152, -1.61397308111190795898e-02) (153, 4.92665916681289672852e-03) (154, -5.72107732295989990234e-03) (155, 4.05204296112060546875e-03) (156, 8.15540477633476257324e-02) (157, 5.53932115435600280762e-02) (158, -8.97101908922195434570e-02) (159, 5.84698095917701721191e-02) (160, 6.75522759556770324707e-02) (161, -7.24138170480728149414e-02) (162, 5.72441741824150085449e-02) (163, 1.38036161661148071289e-02) (164, 3.46960648894309997559e-02) (165, 9.02546420693397521973e-02) (166, -3.19585353136062622070e-02) (167, 1.62119716405868530273e-02) (168, -5.27141653001308441162e-02) (169, 5.77768906950950622559e-02) (170, 2.98819616436958312988e-02) (171, 9.44859012961387634277e-02) (172, 7.76010081171989440918e-02) (173, -6.33863508701324462891e-02) (174, -8.20111781358718872070e-02) (175, 2.60834768414497375488e-02) (176, -3.07184308767318725586e-02) (177, 1.04859322309494018555e-02) (178, -2.97304168343544006348e-02) (179, -1.53245404362678527832e-02) (180, -5.77391870319843292236e-02) (181, -6.95940256118774414062e-02) (182, 3.59172150492668151855e-02) (183, 2.61210873723030090332e-02) (184, 3.53326275944709777832e-02) (185, -6.98038637638092041016e-02) (186, -6.98268711566925048828e-02) (187, 1.68866738677024841309e-02) (188, 8.55893418192863464355e-02) (189, -5.95370642840862274170e-02) (190, -2.46435105800628662109e-02) (191, 5.31416162848472595215e-02) (192, -3.19508835673332214355e-02) (193, -6.73993453383445739746e-02) (194, -3.30547615885734558105e-02) (195, -9.72548127174377441406e-02) (196, -7.71446973085403442383e-02) (197, 3.49866971373558044434e-02) (198, 1.89571604132652282715e-02) (199, -2.98588648438453674316e-02) (200, -7.23640620708465576172e-03) (201, -5.11608682572841644287e-02) (202, -3.53729650378227233887e-02) (203, -2.96354070305824279785e-02) (204, -1.45472139120101928711e-02) (205, -1.73841491341590881348e-02) (206, 9.64480713009834289551e-02) (207, 5.47343567013740539551e-02) (208, 9.31017920374870300293e-02) (209, -3.32823544740676879883e-02) (210, -6.05901889503002166748e-02) (211, -6.46374002099037170410e-02) (212, -2.87637859582901000977e-03) (213, 7.53270313143730163574e-02) (214, 6.14836886525154113770e-02) (215, -6.75437524914741516113e-02) (216, -9.44768413901329040527e-02) (217, 9.16568115353584289551e-02) (218, 4.93429377675056457520e-02) (219, 9.11125019192695617676e-02) (220, -6.78802579641342163086e-02) (221, -7.53005892038345336914e-02) (222, 4.42541167140007019043e-02) (223, 1.68859958648681640625e-04) (224, -4.26999293267726898193e-02) (225, -8.88006463646888732910e-02) (226, 2.91404873132705688477e-03) (227, -1.98446288704872131348e-02) (228, 4.61860522627830505371e-02) (229, -7.81287923455238342285e-02) (230, 5.02965077757835388184e-02) (231, -6.10503517091274261475e-02) (232, -2.92896553874015808105e-02) (233, -8.50764587521553039551e-02) (234, 9.31423902511596679688e-03) (235, 5.61631247401237487793e-02) (236, -2.46060639619827270508e-03) (237, 5.76230138540267944336e-03) (238, 1.08974725008010864258e-02) (239, -9.35881584882736206055e-03) (240, 7.24799707531929016113e-02) (241, 5.03072813153266906738e-02) (242, 2.60037854313850402832e-02) (243, -3.03964167833328247070e-02) (244, 2.56343111395835876465e-02) (245, -1.25125348567962646484e-02) (246, 2.05983221530914306641e-03) (247, 3.11574712395668029785e-02) (248, -2.08557248115539550781e-02) (249, -4.85972464084625244141e-02) (250, 2.22699642181396484375e-02) (251, 1.12640112638473510742e-02) (252, -2.38978341221809387207e-02) (253, -3.34759131073951721191e-02) (254, -8.85671228170394897461e-02) (255, 3.34022417664527893066e-02) (256, -2.22765654325485229492e-02) (0, 1.43469199538230895996e-02) (1, -8.64423885941505432129e-02) (2, -7.60905072093009948730e-02) (3, 3.62181290984153747559e-02) (4, 6.38541206717491149902e-02) (5, -3.71408537030220031738e-02) (6, -9.30715277791023254395e-02) (7, 7.87776783108711242676e-02) (8, 7.21733942627906799316e-02) (9, 6.30915984511375427246e-02) (10, -2.36829370260238647461e-02) (11, -2.20642983913421630859e-02) (12, -2.60109230875968933105e-02) (13, 6.69582411646842956543e-02) (14, -4.95843403041362762451e-02) (15, -7.57036432623863220215e-02) (16, -7.03797489404678344727e-03) (17, 2.00192332267761230469e-02) (18, 4.99306693673133850098e-02) (19, 8.04494842886924743652e-02) (20, -7.79209360480308532715e-02) (21, -1.89118608832359313965e-02) (22, -4.04062345623970031738e-02) (23, -2.65181809663772583008e-02) (24, -9.66418981552124023438e-02) (25, 7.08577707409858703613e-02) (26, 4.95839938521385192871e-02) (27, -3.01178097724914550781e-02) (28, 8.22906568646430969238e-02) (29, -1.70137658715248107910e-02) (30, 4.76056411862373352051e-02) (31, -3.36242467164993286133e-03) (32, -3.45615297555923461914e-03) (33, 7.15151205658912658691e-02) (34, -6.71442896127700805664e-02) (35, -3.96020300686359405518e-02) (36, -6.56257271766662597656e-02) (37, -6.02158159017562866211e-02) (38, -6.08243606984615325928e-02) (39, -9.34523344039916992188e-02) (40, -9.71242189407348632812e-02) (41, 1.54927000403404235840e-02) (42, -1.55166313052177429199e-02) (43, -2.31351405382156372070e-02) (44, -1.75490528345108032227e-02) (45, 3.48990187048912048340e-02) (46, 1.16121768951416015625e-03) (47, 7.54129663109779357910e-02) (48, -4.50817421078681945801e-02) (49, -4.89081218838691711426e-02) (50, 5.58624491095542907715e-02) (51, -2.30026692152023315430e-02) (52, 3.21800187230110168457e-02) (53, -8.45437794923782348633e-02) (54, 5.04791513085365295410e-02) (55, 3.55381295084953308105e-02) (56, 8.63140001893043518066e-02) (57, 6.31362199783325195312e-05) (58, -9.45796892046928405762e-02) (59, 6.86046555638313293457e-02) (60, 8.30493643879890441895e-02) (61, 5.30259385704994201660e-02) (62, -3.47577631473541259766e-02) (63, -2.04067751765251159668e-02) (64, 2.45410650968551635742e-02) (65, -1.90205872058868408203e-03) (66, 3.99911925196647644043e-02) (67, 5.89153394103050231934e-02) (68, 3.78821417689323425293e-02) (69, 7.91668370366096496582e-02) (70, 6.54630139470100402832e-02) (71, 4.07579168677330017090e-02) (72, -5.34047186374664306641e-03) (73, -5.00536337494850158691e-02) (74, -8.23772326111793518066e-02) (75, 7.71104767918586730957e-02) (76, 8.48453864455223083496e-02) (77, 1.87839865684509277344e-02) (78, 5.25234416127204895020e-02) (79, -6.02363534271717071533e-02) (80, 6.98758587241172790527e-02) (81, 8.38589668273925781250e-03) (82, 1.67609676718711853027e-02) (83, 2.05588340759277343750e-03) (84, 2.38421112298965454102e-02) (85, -3.27598825097084045410e-02) (86, -6.24059997498989105225e-02) (87, 1.01561173796653747559e-02) (88, 6.73032477498054504395e-02) (89, -5.69856874644756317139e-02) (90, -2.12392285466194152832e-02) (91, 5.03526404500007629395e-02) (92, 9.60402563214302062988e-02) (93, 4.40030172467231750488e-02) (94, -7.00541511178016662598e-02) (95, 2.05813199281692504883e-02) (96, -5.78990429639816284180e-02) (97, 6.99370428919792175293e-02) (98, -2.05033421516418457031e-02) (99, 7.99830928444862365723e-02) (100, 4.91038635373115539551e-02) (101, -5.50403408706188201904e-02) (102, 2.07410007715225219727e-02) (103, -5.62365986406803131104e-02) (104, -5.09397685527801513672e-03) (105, 3.83637621998786926270e-02) (106, -7.91261270642280578613e-02) (107, -2.02485769987106323242e-02) (108, -4.28522489964962005615e-02) (109, 7.33973160386085510254e-02) (110, 1.95150598883628845215e-02) (111, -7.29763880372047424316e-02) (112, -1.82167962193489074707e-02) (113, -6.37239664793014526367e-02) (114, 2.90795043110847473145e-02) (115, -9.43746864795684814453e-02) (116, 3.51615995168685913086e-03) (117, 6.66734948754310607910e-02) (118, 1.57814398407936096191e-02) (119, -2.91805863380432128906e-02) (120, -9.03121903538703918457e-02) (121, 9.45422127842903137207e-02) (122, -7.88279622793197631836e-02) (123, -9.42719355225563049316e-02) (124, 3.85452136397361755371e-02) (125, -4.88821081817150115967e-02) (126, 2.63093784451484680176e-02) (127, 8.06461647152900695801e-02) (128, -7.89450705051422119141e-02) (129, -9.41939502954483032227e-02) (130, 6.06292560696601867676e-02) (131, 7.01588019728660583496e-02) (132, -4.92342896759510040283e-02) (133, -1.86297446489334106445e-02) (134, -8.60777944326400756836e-02) (135, 4.56717386841773986816e-02) (136, -8.02659690380096435547e-02) (137, -6.52039200067520141602e-02) (138, -7.45768398046493530273e-02) (139, -2.31182128190994262695e-02) (140, -9.18066129088401794434e-02) (141, 4.49382141232490539551e-02) (142, 3.90539318323135375977e-03) (143, -1.00234076380729675293e-02) (144, 8.12142565846443176270e-02) (145, -6.70151114463806152344e-02) (146, -4.39809262752532958984e-03) (147, -1.52695775032043457031e-02) (148, 9.96583774685859680176e-02) (149, -8.86166617274284362793e-02) (150, 5.55498376488685607910e-02) (151, -9.06538069248199462891e-02) (152, -9.40744504332542419434e-02) (153, 7.67218694090843200684e-02) (154, -8.49257409572601318359e-02) (155, 4.44707646965980529785e-02) (156, -7.21602365374565124512e-02) (157, 4.13836464285850524902e-02) (158, 2.51169279217720031738e-02) (159, -5.11053018271923065186e-02) (160, 4.71897050738334655762e-02) (161, -1.42538100481033325195e-02) (162, -8.09464976191520690918e-02) (163, 9.79554131627082824707e-02) (164, 6.71164467930793762207e-02) (165, -6.70242905616760253906e-02) (166, 4.36271503567695617676e-02) (167, 8.68504866957664489746e-02) (168, -3.22282165288925170898e-02) (169, 6.90503045916557312012e-02) (170, -3.62677276134490966797e-02) (171, -2.40348279476165771484e-02) (172, 1.39885172247886657715e-02) (173, 6.76376745104789733887e-02) (174, 6.59417584538459777832e-02) (175, -4.79721277952194213867e-03) (176, -9.93774458765983581543e-02) (177, -3.84563282132148742676e-02) (178, 7.99332037568092346191e-02) (179, -9.97190624475479125977e-02) (180, -2.70729809999465942383e-02) (181, 3.54830399155616760254e-02) (182, -9.03728678822517395020e-02) (183, -2.11474373936653137207e-02) (184, 1.22049227356910705566e-02) (185, -7.52986073493957519531e-02) (186, -7.66766741871833801270e-02) (187, 4.00446727871894836426e-02) (188, 6.60850480198860168457e-02) (189, 4.84402701258659362793e-02) (190, 8.89393761754035949707e-02) (191, 1.32747441530227661133e-02) (192, -6.58135414123535156250e-02) (193, -9.20071229338645935059e-02) (194, 1.12301483750343322754e-02) (195, -9.86970886588096618652e-02) (196, -5.90314120054244995117e-02) (197, -4.51427064836025238037e-02) (198, 8.81533995270729064941e-02) (199, 8.74038040637969970703e-03) (200, -7.60924071073532104492e-02) (201, -4.81143295764923095703e-02) (202, 8.47055390477180480957e-02) (203, 3.78961190581321716309e-02) (204, -8.04766640067100524902e-02) (205, 5.06473258137702941895e-02) (206, -6.69010952115058898926e-02) (207, -7.98541083931922912598e-02) (208, -8.78090113401412963867e-02) (209, -8.69678854942321777344e-02) (210, -7.95731693506240844727e-02) (211, -1.48819908499717712402e-02) (212, 4.85151484608650207520e-02) (213, -6.99460357427597045898e-02) (214, 6.39705732464790344238e-02) (215, -3.92799340188503265381e-02) (216, -4.52446453273296356201e-02) (217, 8.72939005494117736816e-02) (218, -9.92352515459060668945e-02) (219, -7.91596025228500366211e-02) (220, 3.57341691851615905762e-02) (221, 8.97041335701942443848e-02) (222, 3.41151431202888488770e-02) (223, 6.99206218123435974121e-02) (224, 9.76970121264457702637e-02) (225, -5.46547137200832366943e-02) (226, 7.12235346436500549316e-02) (227, -6.13343976438045501709e-02) (228, 2.02581286430358886719e-04) (229, 5.93769475817680358887e-02) (230, 4.74059656262397766113e-02) (231, 2.41101756691932678223e-02) (232, -8.87373909354209899902e-02) (233, 3.21115329861640930176e-02) (234, -3.79936993122100830078e-02) (235, -6.92140460014343261719e-02) (236, -1.72411650419235229492e-02) (237, -4.89479303359985351562e-03) (238, -4.90681603550910949707e-02) (239, -5.05017489194869995117e-03) (240, 8.13732296228408813477e-03) (241, -2.86413282155990600586e-02) (242, 8.00678208470344543457e-02) (243, -4.33475263416767120361e-02) (244, 1.41263008117675781250e-03) (245, 4.40384075045585632324e-02) (246, 1.73725336790084838867e-02) (247, 5.61679825186729431152e-02) (248, 3.13323065638542175293e-02) (249, 1.81372910737991333008e-02) (250, 7.70083740353584289551e-02) (251, -3.29335480928421020508e-02) (252, 7.84142315387725830078e-03) (253, 1.11235156655311584473e-02) (254, -6.30129277706146240234e-02) (255, 5.53844124078750610352e-03) (256, 5.64687922596931457520e-02) (0, -9.17893871665000915527e-02) (1, 4.42040339112281799316e-02) (2, -4.33286242187023162842e-02) (3, 6.75875619053840637207e-02) (4, -8.38999450206756591797e-03) (5, 8.07815566658973693848e-02) (6, 7.88501575589179992676e-02) (7, -7.62784704566001892090e-02) (8, -5.72121478617191314697e-02) (9, -9.03638899326324462891e-02) (10, 6.48037344217300415039e-03) (11, 3.78930643200874328613e-02) (12, -3.94320487976074218750e-02) (13, -9.85698103904724121094e-02) (14, -5.39696216583251953125e-02) (15, 3.19266244769096374512e-02) (16, 8.14980342984199523926e-02) (17, 2.68284976482391357422e-03) (18, -6.66607469320297241211e-02) (19, 2.55364254117012023926e-02) (20, -7.99446105957031250000e-02) (21, 8.95072296261787414551e-02) (22, -4.31312806904315948486e-02) (23, 3.81926819682121276855e-02) (24, 6.65156170725822448730e-02) (25, 2.39351764321327209473e-02) (26, -5.39658926427364349365e-02) (27, -2.23608762025833129883e-02) (28, 6.09222576022148132324e-02) (29, 5.15725389122962951660e-02) (30, -6.58920854330062866211e-02) (31, 6.91328719258308410645e-02) (32, -4.22342121601104736328e-03) (33, -9.22070443630218505859e-03) (34, 3.67204174399375915527e-02) (35, 8.73865857720375061035e-02) (36, -2.84391492605209350586e-02) (37, 1.55705809593200683594e-02) (38, -8.88918861746788024902e-02) (39, 1.43487080931663513184e-02) (40, 2.52066925168037414551e-02) (41, 1.75884813070297241211e-02) (42, -4.77582402527332305908e-02) (43, 8.57746526598930358887e-02) (44, 1.90186724066734313965e-02) (45, -1.72786414623260498047e-03) (46, 1.77012681961059570312e-02) (47, 5.16697764396667480469e-04) (48, -9.90450084209442138672e-02) (49, 5.10405227541923522949e-02) (50, -7.39468783140182495117e-02) (51, -7.89896175265312194824e-02) (52, 4.05477508902549743652e-02) (53, -1.70781612396240234375e-02) (54, 5.92030659317970275879e-02) (55, 7.06336647272109985352e-03) (56, -9.31429862976074218750e-02) (57, -9.47628319263458251953e-02) (58, 8.47024843096733093262e-02) (59, 6.77792802453041076660e-02) (60, 5.68097159266471862793e-02) (61, -8.11895951628684997559e-02) (62, 3.69121506810188293457e-02) (63, -4.74137142300605773926e-02) (64, 9.58970934152603149414e-03) (65, -2.63674408197402954102e-02) (66, -6.00271299481391906738e-02) (67, 8.11505541205406188965e-02) (68, 8.92031416296958923340e-02) (69, -4.89190183579921722412e-02) (70, -4.50073927640914916992e-03) (71, 1.44098252058029174805e-02) (72, 6.86694756150245666504e-02) (73, 4.77410182356834411621e-02) (74, 1.84476375579833984375e-04) (75, -1.23118609189987182617e-02) (76, -5.39868399500846862793e-02) (77, -8.21142569184303283691e-02) (78, 8.82048383355140686035e-02) (79, -5.30318468809127807617e-02) (80, 6.89262673258781433105e-02) (81, -8.57420414686203002930e-02) (82, -3.20214629173278808594e-02) (83, 9.47400182485580444336e-03) (84, -2.82019376754760742188e-03) (85, -7.28183984756469726562e-02) (86, -8.34626331925392150879e-02) (87, 4.03682142496109008789e-03) (88, -6.75812214612960815430e-02) (89, -9.87601503729820251465e-02) (90, -2.81838998198509216309e-02) (91, 8.92284885048866271973e-02) (92, -7.99497440457344055176e-02) (93, -9.12717580795288085938e-02) (94, -5.81852272152900695801e-02) (95, 2.96399667859077453613e-02) (96, -1.76392048597335815430e-02) (97, -1.82123556733131408691e-02) (98, 1.07905119657516479492e-02) (99, -2.84360572695732116699e-02) (100, 3.28686311841011047363e-02) (101, -9.37102288007736206055e-02) (102, 8.59737619757652282715e-02) (103, 1.53809785842895507812e-03) (104, 5.40307834744453430176e-02) (105, -1.38417556881904602051e-02) (106, 8.92262533307075500488e-02) (107, -9.99560505151748657227e-02) (108, 4.04398143291473388672e-03) (109, 7.74310901761054992676e-02) (110, -5.29878921806812286377e-02) (111, -2.70297601819038391113e-02) (112, 9.16890576481819152832e-02) (113, 1.49906426668167114258e-02) (114, 8.24442580342292785645e-02) (115, -1.11311450600624084473e-02) (116, 4.21722605824470520020e-02) (117, 9.89816263318061828613e-02) (118, 9.29056778550148010254e-02) (119, 7.45910331606864929199e-02) (120, -9.97785329818725585938e-02) (121, -3.52782234549522399902e-02) (122, 6.38195201754570007324e-02) (123, -7.97282755374908447266e-02) (124, -2.65499800443649291992e-02) (125, -9.43657159805297851562e-02) (126, 4.99116852879524230957e-02) (127, 5.58108165860176086426e-02) (128, -1.25780701637268066406e-02) (129, -3.92978005111217498779e-02) (130, -7.26252496242523193359e-02) (131, -7.97094404697418212891e-02) (132, -3.30080315470695495605e-02) (133, -8.66514816880226135254e-02) (134, 2.18286663293838500977e-02) (135, -7.89772421121597290039e-02) (136, -4.93235886096954345703e-04) (137, 1.10549107193946838379e-02) (138, -7.89332836866378784180e-02) (139, -9.64492484927177429199e-02) (140, -1.15140005946159362793e-02) (141, -3.19211781024932861328e-02) (142, -2.34789997339248657227e-02) (143, -1.98249518871307373047e-02) (144, 8.30694660544395446777e-02) (145, -4.10347543656826019287e-02) (146, 6.90438970923423767090e-02) (147, 2.52417102456092834473e-02) (148, -4.20531332492828369141e-02) (149, 6.19495734572410583496e-02) (150, -1.67265534400939941406e-04) (151, -4.18316684663295745850e-02) (152, -7.33286440372467041016e-02) (153, -3.63477542996406555176e-02) (154, -2.15599387884140014648e-02) (155, 1.21369957923889160156e-04) (156, -3.07134687900543212891e-02) (157, -7.16482549905776977539e-02) (158, -4.40678186714649200439e-02) (159, 5.67084625363349914551e-02) (160, -1.09460502862930297852e-02) (161, -1.66930705308914184570e-02) (162, 7.69990161061286926270e-02) (163, 5.60459122061729431152e-02) (164, -3.34455072879791259766e-03) (165, -1.17231905460357666016e-03) (166, 7.70686790347099304199e-02) (167, 9.61622223258018493652e-02) (168, -9.01174098253250122070e-02) (169, 9.81353893876075744629e-02) (170, 9.97129753232002258301e-02) (171, -1.63140892982482910156e-03) (172, -3.37857976555824279785e-02) (173, -2.37660333514213562012e-02) (174, 7.85436406731605529785e-02) (175, -5.07163293659687042236e-02) (176, 3.51992174983024597168e-02) (177, 4.75875362753868103027e-02) (178, 7.45253786444664001465e-02) (179, 9.31460782885551452637e-02) (180, 9.53711569309234619141e-03) (181, -2.56418734788894653320e-02) (182, -4.86855879426002502441e-02) (183, 3.62084731459617614746e-02) (184, 3.80103662610054016113e-02) (185, 2.97544673085212707520e-02) (186, -6.36701658368110656738e-02) (187, -9.27031040191650390625e-02) (188, 5.81062212586402893066e-02) (189, -7.73797929286956787109e-03) (190, 6.40053674578666687012e-02) (191, -5.28398305177688598633e-02) (192, 7.55689516663551330566e-02) (193, 4.10043820738792419434e-02) (194, -9.67939198017120361328e-02) (195, -2.77755931019783020020e-02) (196, -6.01679310202598571777e-02) (197, 8.02747532725334167480e-02) (198, -3.16133722662925720215e-02) (199, -5.02853356301784515381e-02) (200, 7.84101411700248718262e-02) (201, -3.19003984332084655762e-02) (202, 4.80832532048225402832e-02) (203, -5.53756579756736755371e-02) (204, 4.43335697054862976074e-02) (205, 2.66268923878669738770e-02) (206, -6.09198957681655883789e-03) (207, -2.04672217369079589844e-02) (208, -2.57855728268623352051e-02) (209, -3.15666049718856811523e-02) (210, -2.73211449384689331055e-02) (211, 8.37515518069267272949e-02) (212, 4.27915230393409729004e-02) (213, 2.39932760596275329590e-02) (214, 1.99600085616111755371e-02) (215, -1.91981047391891479492e-02) (216, -4.62522506713867187500e-02) (217, 5.62898591160774230957e-02) (218, -1.19012147188186645508e-02) (219, -8.81460234522819519043e-02) (220, -5.14481328427791595459e-02) (221, -4.78958487510681152344e-02) (222, -4.09858599305152893066e-02) (223, -7.58791789412498474121e-02) (224, 9.31085422635078430176e-02) (225, -3.77797745168209075928e-02) (226, -3.65477055311203002930e-03) (227, -6.70593976974487304688e-02) (228, -5.75050227344036102295e-02) (229, 6.47318437695503234863e-02) (230, -1.73447281122207641602e-02) (231, -7.90948867797851562500e-02) (232, -6.71685487031936645508e-02) (233, -6.92614763975143432617e-02) (234, -3.44705432653427124023e-02) (235, 7.71650150418281555176e-02) (236, 5.73654249310493469238e-02) (237, 5.94374760985374450684e-02) (238, -4.33022044599056243896e-02) (239, -6.84201568365097045898e-02) (240, -7.21291303634643554688e-02) (241, 2.93766632676124572754e-02) (242, -8.46686139702796936035e-02) (243, 7.06623867154121398926e-02) (244, -4.66300658881664276123e-02) (245, 3.52913960814476013184e-02) (246, -4.85357157886028289795e-02) (247, 7.11767375469207763672e-03) (248, -8.41875374317169189453e-03) (249, 3.95630672574043273926e-02) (250, 1.89716592431068420410e-02) (251, 4.01331260800361633301e-02) (252, 9.16672274470329284668e-02) (253, 7.79858008027076721191e-02) (254, 6.42539337277412414551e-02) (255, 8.47757533192634582520e-02) (256, -5.97939752042293548584e-02) (0, -3.94008420407772064209e-02) (1, -8.22836309671401977539e-02) (2, -1.72989964485168457031e-02) (3, -7.46689885854721069336e-02) (4, 3.71649861335754394531e-04) (5, 3.60611826181411743164e-03) (6, -4.18375320732593536377e-02) (7, 3.11101749539375305176e-02) (8, 6.91355690360069274902e-02) (9, -6.46725147962570190430e-02) (10, -1.15244165062904357910e-02) (11, 2.85730436444282531738e-02) (12, -7.97471404075622558594e-03) (13, 2.00554281473159790039e-02) (14, 5.64439222216606140137e-02) (15, -7.85980522632598876953e-02) (16, 3.53868082165718078613e-02) (17, 2.71063074469566345215e-02) (18, -2.52281278371810913086e-02) (19, -2.93217822909355163574e-02) (20, 7.85705968737602233887e-02) (21, 8.18895623087882995605e-02) (22, 6.22594729065895080566e-02) (23, 1.81336626410484313965e-02) (24, 8.61212611198425292969e-04) (25, 2.39257514476776123047e-03) (26, 9.80089604854583740234e-03) (27, -2.11529806256294250488e-02) (28, -3.33534851670265197754e-02) (29, -5.42334467172622680664e-03) (30, 1.90530419349670410156e-02) (31, 2.72456780076026916504e-02) (32, 1.22930258512496948242e-02) (33, -9.82459485530853271484e-02) (34, 5.25766983628273010254e-02) (35, -8.73353332281112670898e-02) (36, 5.36017119884490966797e-03) (37, -8.92608389258384704590e-02) (38, 4.37748357653617858887e-02) (39, -2.55042538046836853027e-02) (40, -5.39333485066890716553e-02) (41, -6.77495822310447692871e-02) (42, -9.69312041997909545898e-02) (43, 3.80919352173805236816e-02) (44, 5.23058548569679260254e-02) (45, 5.95127120614051818848e-02) (46, 5.94938918948173522949e-02) (47, -1.23073309659957885742e-02) (48, -1.33809745311737060547e-02) (49, -6.57342374324798583984e-02) (50, 5.83708956837654113770e-02) (51, -3.48103791475296020508e-02) (52, -8.38446840643882751465e-02) (53, 2.06303596496582031250e-02) (54, 8.33232924342155456543e-02) (55, 1.70165300369262695312e-02) (56, -7.69770592451095581055e-02) (57, -6.87581300735473632812e-03) (58, 9.58635583519935607910e-02) (59, -1.03305429220199584961e-02) (60, 8.77008512616157531738e-02) (61, 1.49165987968444824219e-02) (62, -8.30848664045333862305e-02) (63, -6.13182783126831054688e-06) (64, 1.66706591844558715820e-02) (65, 6.94918259978294372559e-02) (66, 1.26585364341735839844e-02) (67, -7.79691785573959350586e-02) (68, 8.02310034632682800293e-02) (69, -4.35666330158710479736e-02) (70, -3.47343087196350097656e-03) (71, -7.37023502588272094727e-02) (72, -1.13162100315093994141e-02) (73, -4.04641032218933105469e-04) (74, 6.43895938992500305176e-02) (75, -5.90103603899478912354e-02) (76, -4.08919230103492736816e-02) (77, 2.38834768533706665039e-02) (78, 2.86822989583015441895e-02) (79, 4.57270964980125427246e-02) (80, 5.81492260098457336426e-02) (81, -1.29468068480491638184e-02) (82, -8.90832766890525817871e-02) (83, 7.43045434355735778809e-02) (84, -9.23164561390876770020e-02) (85, 9.42400172352790832520e-02) (86, -8.67892056703567504883e-03) (87, -6.92935138940811157227e-02) (88, -1.26357972621917724609e-02) (89, -1.28153711557388305664e-02) (90, 2.03759446740150451660e-02) (91, -2.49349623918533325195e-02) (92, -9.78987663984298706055e-02) (93, 3.72910723090171813965e-02) (94, 7.50589147210121154785e-02) (95, 1.87718868255615234375e-02) (96, 6.78291171789169311523e-03) (97, -1.22825577855110168457e-02) (98, 4.08027097582817077637e-02) (99, -1.29860937595367431641e-02) (100, 4.41508218646049499512e-02) (101, -6.26707226037979125977e-02) (102, 1.33115500211715698242e-02) (103, -6.71654045581817626953e-02) (104, 3.69246378540992736816e-02) (105, -2.22988575696945190430e-02) (106, -2.61757597327232360840e-02) (107, 9.60327163338661193848e-02) (108, -9.84153896570205688477e-02) (109, -9.74934548139572143555e-02) (110, 4.17598262429237365723e-02) (111, 5.97338303923606872559e-02) (112, -1.04402601718902587891e-02) (113, 5.26765510439872741699e-02) (114, 3.40383872389793395996e-02) (115, -2.75670737028121948242e-03) (116, 4.69165667891502380371e-02) (117, -7.46405348181724548340e-02) (118, 2.79497727751731872559e-02) (119, -6.57192319631576538086e-02) (120, 1.25440955162048339844e-02) (121, -5.16742877662181854248e-02) (122, 9.34580713510513305664e-03) (123, 1.46453231573104858398e-02) (124, 8.56167897582054138184e-02) (125, -1.55952870845794677734e-02) (126, -6.65827840566635131836e-02) (127, -7.60030001401901245117e-03) (128, 7.21221640706062316895e-02) (129, 7.42199346423149108887e-02) (130, 7.94136002659797668457e-02) (131, 1.62729769945144653320e-02) (132, -8.84507969021797180176e-02) (133, -7.27484375238418579102e-03) (134, 4.91075590252876281738e-02) (135, 4.84738424420356750488e-02) (136, 7.04262927174568176270e-02) (137, -7.70681947469711303711e-02) (138, 4.45065572857856750488e-02) (139, 7.20109120011329650879e-02) (140, -7.45616406202316284180e-02) (141, -1.37336105108261108398e-02) (142, 3.17447409033775329590e-02) (143, 1.49980932474136352539e-02) (144, -6.10570609569549560547e-02) (145, -3.42168733477592468262e-02) (146, -8.77586156129837036133e-02) (147, 8.58594998717308044434e-02) (148, -8.85741412639617919922e-03) (149, 4.01911661028861999512e-02) (150, -7.98597335815429687500e-02) (151, -9.63133126497268676758e-02) (152, 8.85168835520744323730e-02) (153, 2.94860675930976867676e-02) (154, 1.83320194482803344727e-02) (155, 7.41336718201637268066e-02) (156, -8.61092135310173034668e-02) (157, 5.17492368817329406738e-02) (158, -3.34666296839714050293e-02) (159, 8.60129520297050476074e-02) (160, 2.59691551327705383301e-02) (161, -5.40530271828174591064e-02) (162, 2.28591263294219970703e-03) (163, 3.75183746218681335449e-02) (164, 3.86721417307853698730e-02) (165, -4.86065223813056945801e-02) (166, -1.40077918767929077148e-02) (167, 9.09843295812606811523e-03) (168, -2.56747156381607055664e-02) (169, -6.95012211799621582031e-02) (170, -1.88906639814376831055e-02) (171, -2.36354768276214599609e-04) (172, 1.67651623487472534180e-02) (173, -8.71459171175956726074e-02) (174, -8.52382630109786987305e-02) (175, 5.57081177830696105957e-02) (176, -2.13627889752388000488e-02) (177, -7.29968771338462829590e-02) (178, 4.15676161646842956543e-02) (179, 6.97798058390617370605e-02) (180, 6.71942904591560363770e-02) (181, 6.17078766226768493652e-02) (182, 7.34664872288703918457e-02) (183, 5.57111576199531555176e-02) (184, -8.80605727434158325195e-03) (185, -8.20149481296539306641e-03) (186, 2.98448279500007629395e-02) (187, 5.08473068475723266602e-03) (188, -5.64522556960582733154e-02) (189, 9.63781848549842834473e-02) (190, -8.90232622623443603516e-03) (191, 6.95169046521186828613e-02) (192, -5.76748400926589965820e-02) (193, 9.33835878968238830566e-02) (194, 7.03527778387069702148e-03) (195, 8.09972956776618957520e-02) (196, -5.52229396998882293701e-02) (197, 9.30274948477745056152e-02) (198, -9.90428030490875244141e-03) (199, 1.91023498773574829102e-02) (200, -7.64737278223037719727e-02) (201, 7.12050572037696838379e-02) (202, -8.11340063810348510742e-02) (203, 4.02914360165596008301e-02) (204, 8.40591415762901306152e-02) (205, -6.63722753524780273438e-02) (206, -4.00045514106750488281e-03) (207, -3.73036488890647888184e-02) (208, -3.93691435456275939941e-02) (209, -6.24328479170799255371e-02) (210, -6.75238519906997680664e-02) (211, -7.21748620271682739258e-02) (212, 9.92750301957130432129e-02) (213, -9.40573588013648986816e-02) (214, 8.35362896323204040527e-02) (215, -9.53102856874465942383e-03) (216, -2.25885212421417236328e-03) (217, 1.33811086416244506836e-02) (218, 9.55537036061286926270e-02) (219, 4.12889048457145690918e-02) (220, 9.75929200649261474609e-03) (221, -1.33486241102218627930e-02) (222, 1.08058080077171325684e-02) (223, 5.20844534039497375488e-02) (224, -1.99650377035140991211e-02) (225, -8.21589156985282897949e-02) (226, 3.30817475914955139160e-02) (227, 2.48120278120040893555e-02) (228, -8.91314223408699035645e-02) (229, -7.68225342035293579102e-02) (230, -5.60856275260448455811e-02) (231, -6.56051561236381530762e-02) (232, 9.43825319409370422363e-02) (233, -3.72196286916732788086e-02) (234, 7.46862962841987609863e-02) (235, 7.84416720271110534668e-02) (236, -3.59190255403518676758e-03) (237, -2.93141752481460571289e-02) (238, -5.88619783520698547363e-02) (239, 5.70389553904533386230e-02) (240, 8.25297832489013671875e-03) (241, -2.63858288526535034180e-02) (242, 8.48640874028205871582e-02) (243, 7.52800703048706054688e-03) (244, -2.04431861639022827148e-02) (245, 6.84003904461860656738e-02) (246, 9.79969874024391174316e-02) (247, 7.72979632019996643066e-02) (248, -1.82185024023056030273e-02) (249, 9.35506895184516906738e-02) (250, 1.85868591070175170898e-02) (251, 9.15408059954643249512e-02) (252, -1.97979360818862915039e-02) (253, -7.06073269248008728027e-02) (254, 4.36252579092979431152e-02) (255, 6.02370277047157287598e-02) (256, -5.27662448585033416748e-02) (0, -2.32929959893226623535e-02) (1, -1.49509459733963012695e-02) (2, -4.18976657092571258545e-02) (3, -1.15528702735900878906e-04) (4, 2.89634391665458679199e-02) (5, -7.50281661748886108398e-03) (6, -5.73299825191497802734e-03) (7, 9.17438045144081115723e-02) (8, -3.28165367245674133301e-02) (9, -2.72913277149200439453e-02) (10, -1.18481069803237915039e-02) (11, 3.78692969679832458496e-02) (12, 1.38466954231262207031e-02) (13, -5.48091456294059753418e-02) (14, -5.38777224719524383545e-02) (15, 8.74608829617500305176e-02) (16, -6.99450522661209106445e-02) (17, 5.36502823233604431152e-02) (18, -3.29823121428489685059e-02) (19, 9.84553322196006774902e-02) (20, 5.16472682356834411621e-02) (21, -5.56843467056751251221e-02) (22, -1.97631716728210449219e-02) (23, 4.51979711651802062988e-02) (24, 6.29025176167488098145e-02) (25, -2.82223746180534362793e-02) (26, -7.45999738574028015137e-02) (27, 9.22951921820640563965e-02) (28, -8.45971181988716125488e-02) (29, 8.56370404362678527832e-02) (30, -6.04710504412651062012e-02) (31, -7.89012014865875244141e-03) (32, -2.93138995766639709473e-02) (33, -2.36871093511581420898e-03) (34, 9.19943526387214660645e-02) (35, 9.96495410799980163574e-02) (36, 9.01284739375114440918e-02) (37, -1.37386396527290344238e-02) (38, 9.13933292031288146973e-02) (39, -4.26880717277526855469e-02) (40, 5.89700415730476379395e-02) (41, -2.04547718167304992676e-02) (42, 9.51812341809272766113e-02) (43, -2.71832644939422607422e-02) (44, 2.47360840439796447754e-02) (45, -5.86964972317218780518e-02) (46, -3.97223941981792449951e-02) (47, 5.47910407185554504395e-02) (48, 9.49537828564643859863e-02) (49, 2.72952988743782043457e-02) (50, 5.32463714480400085449e-02) (51, 4.66010645031929016113e-02) (52, 7.16109499335289001465e-02) (53, -6.65168017148971557617e-02) (54, -8.20098072290420532227e-03) (55, 3.45134809613227844238e-02) (56, 5.26082515716552734375e-03) (57, 1.71990543603897094727e-02) (58, 2.68086567521095275879e-02) (59, 2.06637009978294372559e-02) (60, 2.83609330654144287109e-03) (61, 6.63376078009605407715e-02) (62, -8.72264131903648376465e-02) (63, 7.35222026705741882324e-02) (64, -3.60311046242713928223e-02) (65, -9.52320545911788940430e-02) (66, 7.31717422604560852051e-02) (67, -4.59026396274566650391e-02) (68, -8.97069275379180908203e-03) (69, 6.45650699734687805176e-02) (70, 1.14092975854873657227e-02) (71, -5.00006563961505889893e-02) (72, -5.58897070586681365967e-02) (73, 6.59052282571792602539e-03) (74, 2.28160768747329711914e-02) (75, 6.88463822007179260254e-02) (76, 4.78940233588218688965e-02) (77, 8.30936953425407409668e-02) (78, 2.36374139785766601562e-02) (79, 4.28478196263313293457e-02) (80, 1.03889852762222290039e-02) (81, -2.31162235140800476074e-02) (82, -1.05511173605918884277e-02) (83, -1.80000737309455871582e-02) (84, 1.03669613599777221680e-02) (85, 8.12479034066200256348e-02) (86, -8.34866091609001159668e-02) (87, -8.43722075223922729492e-02) (88, -1.55305117368698120117e-03) (89, 4.33220490813255310059e-02) (90, 3.62914875149726867676e-02) (91, -9.87169593572616577148e-02) (92, 9.65966284275054931641e-03) (93, 4.90650758147239685059e-02) (94, 7.48052522540092468262e-02) (95, 7.36285522580146789551e-02) (96, 5.38330152630805969238e-02) (97, 4.79769781231880187988e-02) (98, -7.22740739583969116211e-02) (99, -5.51376678049564361572e-02) (100, 1.25420466065406799316e-02) (101, 3.91352251172065734863e-02) (102, -5.13832271099090576172e-03) (103, 5.66523298621177673340e-02) (104, -5.42742721736431121826e-02) (105, -8.23222398757934570312e-02) (106, 2.54987105727195739746e-02) (107, 9.36197564005851745605e-02) (108, -9.92285609245300292969e-02) (109, -5.08638732135295867920e-02) (110, 3.64675596356391906738e-02) (111, 1.11604183912277221680e-02) (112, 2.60199084877967834473e-02) (113, -7.40835517644882202148e-02) (114, 9.31603386998176574707e-02) (115, -6.36131316423416137695e-02) (116, -9.28356498479843139648e-02) (117, -9.03262645006179809570e-02) (118, -4.79853413999080657959e-02) (119, 5.61130046844482421875e-03) (120, 5.29957935214042663574e-02) (121, 8.83061513304710388184e-02) (122, 6.89433515071868896484e-03) (123, -3.73445451259613037109e-02) (124, 3.73712405562400817871e-02) (125, -1.83004140853881835938e-02) (126, -6.37159794569015502930e-02) (127, -8.79573822021484375000e-03) (128, -7.03234374523162841797e-02) (129, -3.59900593757629394531e-02) (130, 3.60665991902351379395e-02) (131, 4.22186180949211120605e-02) (132, -9.68548506498336791992e-02) (133, -6.90717250108718872070e-02) (134, -1.12905353307723999023e-03) (135, -5.11291176080703735352e-02) (136, -5.13939708471298217773e-02) (137, -7.56303369998931884766e-02) (138, -5.75093664228916168213e-02) (139, -5.06225265562534332275e-02) (140, -2.64942124485969543457e-02) (141, 7.89582058787345886230e-02) (142, 6.05378970503807067871e-02) (143, 9.95256975293159484863e-02) (144, -9.51253473758697509766e-02) (145, 5.36982491612434387207e-02) (146, -6.40874356031417846680e-02) (147, -8.79610031843185424805e-02) (148, 6.33719787001609802246e-02) (149, -1.20727792382240295410e-02) (150, 1.76502913236618041992e-02) (151, 1.63677707314491271973e-02) (152, -2.37666219472885131836e-02) (153, -7.54553601145744323730e-02) (154, 7.90232345461845397949e-02) (155, -8.63953828811645507812e-02) (156, 6.24422729015350341797e-03) (157, -8.46927613019943237305e-02) (158, 4.80888038873672485352e-03) (159, 3.59208062291145324707e-02) (160, -2.06828266382217407227e-02) (161, -5.91245256364345550537e-02) (162, -2.18605995178222656250e-02) (163, -1.75376683473587036133e-02) (164, -2.81962528824806213379e-02) (165, 7.70103409886360168457e-02) (166, 3.13332155346870422363e-02) (167, 2.04097777605056762695e-02) (168, -9.86199900507926940918e-02) (169, 7.38238468766212463379e-02) (170, 6.97872564196586608887e-02) (171, -2.51142010092735290527e-02) (172, 5.27820512652397155762e-02) (173, 3.03251370787620544434e-02) (174, -2.55885124206542968750e-02) (175, 5.76567128300666809082e-02) (176, -1.59766227006912231445e-02) (177, 1.03240460157394409180e-02) (178, 6.96957036852836608887e-02) (179, -5.26046417653560638428e-02) (180, 9.82512757182121276855e-02) (181, -1.26539990305900573730e-02) (182, 6.37631341814994812012e-02) (183, -2.55153477191925048828e-02) (184, 1.18906348943710327148e-02) (185, 4.27863523364067077637e-02) (186, -1.19107291102409362793e-02) (187, -8.18651318550109863281e-02) (188, 5.80935999751091003418e-02) (189, 9.28981527686119079590e-02) (190, 5.40556684136390686035e-02) (191, -6.25892281532287597656e-02) (192, -6.62263780832290649414e-02) (193, -6.78049325942993164062e-02) (194, 1.98731049895286560059e-02) (195, 5.57737052440643310547e-03) (196, -9.07945856451988220215e-02) (197, -4.87936846911907196045e-02) (198, -7.40128532052040100098e-02) (199, -8.94145742058753967285e-02) (200, -7.49698355793952941895e-02) (201, 9.57744047045707702637e-02) (202, -1.45287737250328063965e-02) (203, 7.78122022747993469238e-02) (204, 2.60995402932167053223e-02) (205, 5.98827078938484191895e-02) (206, 3.54689136147499084473e-02) (207, -8.98770764470100402832e-02) (208, -2.97932475805282592773e-02) (209, 5.16460835933685302734e-03) (210, -4.24817204475402832031e-02) (211, -3.15419659018516540527e-02) (212, 9.25106182694435119629e-02) (213, -7.87185877561569213867e-02) (214, 4.29426804184913635254e-02) (215, 4.40125167369842529297e-03) (216, 6.40677735209465026855e-02) (217, -6.89680427312850952148e-02) (218, 2.25361213088035583496e-02) (219, 2.21613496541976928711e-02) (220, -7.60698914527893066406e-02) (221, -2.34082117676734924316e-02) (222, 5.95721378922462463379e-02) (223, -4.22962680459022521973e-02) (224, 8.78685712814331054688e-03) (225, -2.05547660589218139648e-02) (226, 6.32811114192008972168e-02) (227, 1.79922804236412048340e-02) (228, 3.06515470147132873535e-02) (229, 8.92682597041130065918e-02) (230, 2.85777077078819274902e-02) (231, 5.56817129254341125488e-02) (232, 8.50426480174064636230e-02) (233, -8.59510749578475952148e-02) (234, 3.34939286112785339355e-02) (235, 1.11421793699264526367e-02) (236, 7.39316418766975402832e-02) (237, -3.10371667146682739258e-02) (238, 2.12651118636131286621e-02) (239, -5.58616034686565399170e-02) (240, 7.41274431347846984863e-02) (241, 7.87834003567695617676e-02) (242, 1.25964283943176269531e-02) (243, 6.66380599141120910645e-02) (244, -9.99352037906646728516e-02) (245, -4.44608889520168304443e-02) (246, -2.89606899023056030273e-02) (247, 6.41325637698173522949e-02) (248, -1.34289339184761047363e-02) (249, 9.35754403471946716309e-02) (250, -1.37060731649398803711e-02) (251, 1.05011686682701110840e-02) (252, -2.98327654600143432617e-02) (253, -5.41339479386806488037e-02) (254, 6.82049021124839782715e-02) (255, 7.89540931582450866699e-02) (256, 2.53112986683845520020e-02) (0, 3.14860120415687561035e-02) (1, -3.05363535881042480469e-03) (2, -4.40371632575988769531e-02) (3, 2.07542553544044494629e-02) (4, -7.44759291410446166992e-02) (5, -8.83554518222808837891e-02) (6, 5.79689443111419677734e-03) (7, -6.04270063340663909912e-02) (8, 4.51384857296943664551e-02) (9, -8.30609127879142761230e-02) (10, -8.64953622221946716309e-02) (11, -8.58986899256706237793e-02) (12, 3.82042005658149719238e-02) (13, -4.23569679260253906250e-02) (14, 8.82287696003913879395e-02) (15, 1.69875845313072204590e-02) (16, 7.02394619584083557129e-02) (17, 5.48668280243873596191e-02) (18, 1.70523896813392639160e-02) (19, -7.42214322090148925781e-02) (20, -7.40938633680343627930e-02) (21, -1.88150480389595031738e-02) (22, 1.23496428132057189941e-02) (23, -8.05184245109558105469e-02) (24, 6.74788728356361389160e-02) (25, -7.71491900086402893066e-02) (26, -1.03511959314346313477e-02) (27, -8.66550728678703308105e-02) (28, 9.10557135939598083496e-02) (29, -3.13971042633056640625e-02) (30, 3.86562123894691467285e-02) (31, 2.25417166948318481445e-02) (32, 6.55492618680000305176e-02) (33, 9.46190431714057922363e-02) (34, -5.67040294408798217773e-02) (35, 9.10733416676521301270e-02) (36, -9.37363952398300170898e-02) (37, 4.90928813815116882324e-02) (38, -6.93536773324012756348e-02) (39, 5.14020845293998718262e-02) (40, 6.60319551825523376465e-02) (41, -5.58490417897701263428e-02) (42, 6.55033960938453674316e-02) (43, 4.23614680767059326172e-03) (44, 1.79399549961090087891e-03) (45, 5.37321642041206359863e-02) (46, -7.87762627005577087402e-02) (47, -2.79665440320968627930e-02) (48, 8.59896838665008544922e-03) (49, 3.82761284708976745605e-02) (50, -2.18797475099563598633e-03) (51, 3.45051214098930358887e-02) (52, -8.05389285087585449219e-02) (53, -8.98383408784866333008e-02) (54, 5.39866909384727478027e-02) (55, 8.69399383664131164551e-02) (56, -6.69875293970108032227e-02) (57, -5.63644990324974060059e-02) (58, -9.97151285409927368164e-02) (59, -7.59318172931671142578e-02) (60, 1.22383981943130493164e-02) (61, 3.89410927891731262207e-02) (62, 4.66099008917808532715e-02) (63, -2.22123414278030395508e-02) (64, 3.35601493716239929199e-02) (65, 8.99058654904365539551e-02) (66, -3.11390087008476257324e-02) (67, 3.98237481713294982910e-02) (68, 3.89987304806709289551e-02) (69, -4.92684543132781982422e-04) (70, -8.77417623996734619141e-03) (71, 5.03069162368774414062e-03) (72, 4.36582788825035095215e-02) (73, -4.32707779109477996826e-02) (74, -9.07331556081771850586e-02) (75, -5.45477308332920074463e-02) (76, -8.95386338233947753906e-02) (77, -6.95094168186187744141e-02) (78, 1.74857228994369506836e-02) (79, 1.90603509545326232910e-02) (80, 6.87667056918144226074e-02) (81, -8.47022533416748046875e-02) (82, -4.64345403015613555908e-02) (83, 8.82277712225914001465e-02) (84, -7.45405852794647216797e-02) (85, -9.24478471279144287109e-02) (86, 7.51677230000495910645e-02) (87, -4.15281169116497039795e-02) (88, -4.88123409450054168701e-02) (89, 7.54526033997535705566e-02) (90, -1.74599364399909973145e-02) (91, 6.34260550141334533691e-02) (92, 1.43936872482299804688e-02) (93, -7.08500370383262634277e-02) (94, -5.87862841784954071045e-02) (95, -5.20461723208427429199e-02) (96, -8.09441730380058288574e-02) (97, 1.00747123360633850098e-02) (98, 8.77775773406028747559e-02) (99, 5.80545738339424133301e-02) (100, -9.04179811477661132812e-02) (101, -2.09966003894805908203e-02) (102, -3.69147360324859619141e-02) (103, 5.32403066754341125488e-02) (104, 3.57326194643974304199e-02) (105, -2.76478901505470275879e-02) (106, 9.86925736069679260254e-02) (107, 4.61939945816993713379e-02) (108, 2.84270197153091430664e-03) (109, 1.61782950162887573242e-02) (110, -3.47456634044647216797e-02) (111, -2.83906012773513793945e-02) (112, 3.14760431647300720215e-02) (113, 1.88197940587997436523e-02) (114, -4.01628278195858001709e-02) (115, 5.69354519248008728027e-02) (116, 2.63719633221626281738e-02) (117, -6.49951025843620300293e-02) (118, -8.45926627516746520996e-02) (119, 7.75596126914024353027e-02) (120, -8.95425081253051757812e-02) (121, -2.05259770154953002930e-03) (122, 4.09856662154197692871e-02) (123, 2.48511806130409240723e-02) (124, 2.70973667502403259277e-02) (125, 8.21993872523307800293e-02) (126, 7.28050097823143005371e-02) (127, 4.61531952023506164551e-02) (128, -7.72590935230255126953e-03) (129, 6.05825856328010559082e-02) (130, 4.20776754617691040039e-03) (131, 1.85612589120864868164e-03) (132, -6.04140125215053558350e-02) (133, 6.72930255532264709473e-02) (134, -4.49035763740539550781e-02) (135, 7.53186121582984924316e-02) (136, -6.03548623621463775635e-02) (137, -4.62110117077827453613e-02) (138, 2.15126052498817443848e-02) (139, 4.24878373742103576660e-02) (140, 6.99672922492027282715e-02) (141, 8.67669358849525451660e-02) (142, -8.59027653932571411133e-02) (143, 1.44334137439727783203e-03) (144, 5.58674335479736328125e-03) (145, -2.60655879974365234375e-02) (146, -4.16212044656276702881e-02) (147, -6.80413097143173217773e-02) (148, 8.93931090831756591797e-03) (149, -2.62138694524765014648e-02) (150, -9.04816985130310058594e-02) (151, 1.93968042731285095215e-02) (152, 7.17335417866706848145e-02) (153, 5.05039766430854797363e-02) (154, -5.57520128786563873291e-02) (155, -1.16910040378570556641e-03) (156, 3.27033624053001403809e-02) (157, -8.29470008611679077148e-02) (158, -5.50159029662609100342e-02) (159, -7.50225409865379333496e-02) (160, 7.76355937123298645020e-02) (161, 4.91918548941612243652e-02) (162, 2.68335863947868347168e-02) (163, -8.27784314751625061035e-02) (164, 1.64848789572715759277e-02) (165, 8.19299891591072082520e-02) (166, 9.25401821732521057129e-02) (167, 5.61300143599510192871e-02) (168, -6.42810091376304626465e-02) (169, 1.40527859330177307129e-02) (170, -1.38214975595474243164e-03) (171, -9.43137183785438537598e-02) (172, 8.19720327854156494141e-04) (173, 1.27150863409042358398e-02) (174, 7.12962448596954345703e-03) (175, -9.35935378074645996094e-02) (176, 8.66494998335838317871e-02) (177, 6.55084177851676940918e-02) (178, -6.16348460316658020020e-02) (179, -4.41119819879531860352e-03) (180, -6.07054531574249267578e-02) (181, -5.21165393292903900146e-02) (182, -8.50143879652023315430e-02) (183, -8.89719128608703613281e-02) (184, 9.83874276280403137207e-02) (185, -4.07663993537425994873e-02) (186, 9.85898822546005249023e-03) (187, 3.10908034443855285645e-02) (188, -2.37134024500846862793e-02) (189, 5.48430755734443664551e-02) (190, 5.60682490468025207520e-02) (191, -4.60778251290321350098e-02) (192, 4.03493642807006835938e-03) (193, -1.70981660485267639160e-02) (194, -2.88562476634979248047e-02) (195, -7.94801786541938781738e-02) (196, -3.51681634783744812012e-02) (197, -3.63160669803619384766e-02) (198, 7.66498520970344543457e-02) (199, 5.50828874111175537109e-04) (200, 7.77367129921913146973e-02) (201, -2.47323065996170043945e-02) (202, 6.23711198568344116211e-03) (203, -2.14435681700706481934e-02) (204, 8.79827812314033508301e-02) (205, -8.66332724690437316895e-02) (206, -1.50371044874191284180e-02) (207, 7.46322795748710632324e-02) (208, 7.88751319050788879395e-02) (209, 2.33280435204505920410e-02) (210, -2.97789126634597778320e-02) (211, -8.18303078413009643555e-02) (212, 7.12115094065666198730e-02) (213, -1.47933065891265869141e-02) (214, -7.08022266626358032227e-02) (215, 6.95989355444908142090e-02) (216, 4.44402918219566345215e-02) (217, 3.90567705035209655762e-02) (218, 6.89744949340820312500e-04) (219, -7.92731121182441711426e-02) (220, -6.10014796257019042969e-03) (221, -4.32420037686824798584e-02) (222, -2.53509283065795898438e-02) (223, 9.79347899556159973145e-02) (224, 3.96598353981971740723e-02) (225, 4.57928255200386047363e-02) (226, -8.15453901886940002441e-02) (227, -9.55083295702934265137e-02) (228, -9.05232504010200500488e-02) (229, 9.51044633984565734863e-02) (230, 5.04250824451446533203e-03) (231, 8.72134640812873840332e-02) (232, -2.96278521418571472168e-02) (233, -8.87203887104988098145e-02) (234, -3.42301055788993835449e-02) (235, -4.16450761258602142334e-02) (236, -7.53536596894264221191e-02) (237, 5.07327839732170104980e-02) (238, -6.70128017663955688477e-02) (239, -9.64785218238830566406e-02) (240, -2.59391739964485168457e-02) (241, 3.20829451084136962891e-03) (242, -7.83088356256484985352e-02) (243, -5.47276698052883148193e-02) (244, 8.84149745106697082520e-02) (245, -4.91110570728778839111e-02) (246, -8.51287245750427246094e-02) (247, 3.28552797436714172363e-02) (248, 8.99457111954689025879e-02) (249, 1.55610218644142150879e-02) (250, 5.35821691155433654785e-02) (251, -1.61544382572174072266e-02) (252, 7.23190233111381530762e-02) (253, -7.17687606811523437500e-02) (254, -1.82196497917175292969e-02) (255, 1.19788497686386108398e-02) (256, 7.40240588784217834473e-02) (0, 2.34961509704589843750e-04) (1, 1.64705142378807067871e-02) (2, 8.35008099675178527832e-02) (3, -4.66059148311614990234e-03) (4, -7.84869790077209472656e-02) (5, 7.07142725586891174316e-02) (6, 6.57115653157234191895e-02) (7, -6.72073662281036376953e-02) (8, -6.35158419609069824219e-02) (9, -7.59335160255432128906e-02) (10, -4.25610318779945373535e-02) (11, 8.72169360518455505371e-02) (12, -4.29463163018226623535e-02) (13, -3.90395522117614746094e-02) (14, -3.87222357094287872314e-02) (15, 6.02619722485542297363e-02) (16, -1.73483788967132568359e-02) (17, 6.55009597539901733398e-03) (18, 4.86769601702690124512e-02) (19, 3.35405543446540832520e-02) (20, 2.14213728904724121094e-02) (21, -1.84677615761756896973e-02) (22, 2.34862715005874633789e-02) (23, -6.30176141858100891113e-02) (24, -6.48855939507484436035e-02) (25, -9.26681682467460632324e-02) (26, -9.06985998153686523438e-02) (27, -3.66543605923652648926e-02) (28, -1.08878165483474731445e-02) (29, 2.12802514433860778809e-02) (30, -6.26303032040596008301e-02) (31, 8.93471315503120422363e-02) (32, -6.22492283582687377930e-02) (33, -7.91294947266578674316e-02) (34, -1.53134465217590332031e-02) (35, -4.07362096011638641357e-02) (36, 9.15847644209861755371e-02) (37, -4.96018938720226287842e-02) (38, -7.94357806444168090820e-03) (39, -7.19310715794563293457e-02) (40, -2.55354121327400207520e-02) (41, 4.94954064488410949707e-02) (42, -8.47141370177268981934e-02) (43, 3.15182879567146301270e-02) (44, -8.95441547036170959473e-02) (45, -2.34363675117492675781e-02) (46, -8.21974873542785644531e-03) (47, -6.89253956079483032227e-03) (48, 8.31137374043464660645e-02) (49, -5.95427863299846649170e-02) (50, -7.33519718050956726074e-02) (51, 4.53510135412216186523e-03) (52, 2.19894498586654663086e-02) (53, 5.01343086361885070801e-02) (54, 4.15175035595893859863e-02) (55, 5.71038648486137390137e-02) (56, 5.74661418795585632324e-02) (57, 5.08188977837562561035e-02) (58, -7.95504972338676452637e-02) (59, -5.34216836094856262207e-02) (60, -2.79008597135543823242e-02) (61, -4.21808026731014251709e-02) (62, -6.40745460987091064453e-02) (63, 9.84992086887359619141e-03) (64, -2.13102921843528747559e-02) (65, 2.06120163202285766602e-02) (66, 6.91137090325355529785e-02) (67, -2.97255218029022216797e-02) (68, 7.10101202130317687988e-02) (69, -3.88298705220222473145e-02) (70, -1.65659934282302856445e-03) (71, -5.45252934098243713379e-02) (72, -8.93344804644584655762e-02) (73, 1.36292725801467895508e-02) (74, 7.69929960370063781738e-02) (75, -7.88786336779594421387e-02) (76, 9.01929065585136413574e-02) (77, -3.12267690896987915039e-02) (78, 1.42288357019424438477e-02) (79, 7.33066275715827941895e-02) (80, 9.23044979572296142578e-03) (81, 4.08768579363822937012e-02) (82, -2.21582576632499694824e-02) (83, -6.87800943851470947266e-02) (84, -8.98884236812591552734e-03) (85, -8.06407704949378967285e-02) (86, 8.83237645030021667480e-02) (87, -5.15227131545543670654e-02) (88, 7.01781287789344787598e-02) (89, -9.12267342209815979004e-02) (90, -4.94439154863357543945e-03) (91, -5.77227361500263214111e-02) (92, -3.34075316786766052246e-02) (93, 3.09810712933540344238e-02) (94, 5.21271899342536926270e-02) (95, 4.52821776270866394043e-02) (96, -4.84069250524044036865e-02) (97, 2.12408751249313354492e-02) (98, -8.44433531165122985840e-02) (99, -7.73968026041984558105e-02) (100, 8.24110135436058044434e-02) (101, 1.39000564813613891602e-02) (102, -3.19220945239067077637e-02) (103, 9.30765345692634582520e-02) (104, -7.24706724286079406738e-02) (105, -5.49291148781776428223e-02) (106, -8.58021005988121032715e-02) (107, -8.22777673602104187012e-02) (108, 1.38441175222396850586e-02) (109, 2.84267291426658630371e-02) (110, 9.10288766026496887207e-02) (111, -7.69254267215728759766e-02) (112, -3.06964144110679626465e-02) (113, -3.11293974518775939941e-02) (114, -4.57055270671844482422e-02) (115, 6.03147372603416442871e-02) (116, -1.17701664566993713379e-02) (117, -5.73817640542984008789e-02) (118, -9.12079736590385437012e-02) (119, -4.15920428931713104248e-02) (120, -4.86085005104541778564e-02) (121, 3.84763628244400024414e-03) (122, 6.85214996337890625000e-04) (123, 1.79839581251144409180e-02) (124, -6.51713013648986816406e-02) (125, -4.71876040101051330566e-02) (126, -3.67338582873344421387e-02) (127, -1.35782212018966674805e-02) (128, 7.40532800555229187012e-02) (129, -2.11772099137306213379e-02) (130, 9.02497768402099609375e-03) (131, 5.64642921090126037598e-02) (132, 9.27228406071662902832e-02) (133, 7.71028921008110046387e-02) (134, 4.95408251881599426270e-02) (135, -7.97478258609771728516e-02) (136, -7.78262317180633544922e-02) (137, 6.37387260794639587402e-02) (138, -6.20255954563617706299e-02) (139, 3.60179021954536437988e-02) (140, -7.83453881740570068359e-03) (141, -7.09967315196990966797e-02) (142, 5.90924695134162902832e-02) (143, 6.14690408110618591309e-02) (144, -2.12612748146057128906e-03) (145, -8.66130590438842773438e-02) (146, 2.17837840318679809570e-02) (147, 8.61037001013755798340e-02) (148, -4.39948216080665588379e-02) (149, 3.05758193135261535645e-02) (150, -5.54883368313312530518e-02) (151, 7.39667564630508422852e-03) (152, -6.55765533447265625000e-02) (153, 4.51968833804130554199e-02) (154, -7.46193528175354003906e-02) (155, -3.07478457689285278320e-02) (156, 9.80092808604240417480e-02) (157, -1.13532170653343200684e-02) (158, 5.56739494204521179199e-02) (159, 7.20625594258308410645e-02) (160, 6.74695745110511779785e-02) (161, -3.53010743856430053711e-02) (162, 2.85268500447273254395e-02) (163, 6.01924136281013488770e-02) (164, -5.81981949508190155029e-02) (165, -2.19323262572288513184e-02) (166, 8.04445967078208923340e-02) (167, -3.60244289040565490723e-02) (168, -5.81936053931713104248e-02) (169, -8.15810039639472961426e-02) (170, 9.99934747815132141113e-02) (171, 3.39718535542488098145e-02) (172, -5.25777339935302734375e-02) (173, 5.90859279036521911621e-02) (174, -4.55910712480545043945e-03) (175, 4.52961400151252746582e-02) (176, 7.24728778004646301270e-02) (177, -8.27753245830535888672e-02) (178, 3.13998535275459289551e-02) (179, -7.15219527482986450195e-02) (180, 4.78004887700080871582e-02) (181, 7.59115144610404968262e-02) (182, 3.58747318387031555176e-02) (183, 8.22239443659782409668e-02) (184, 2.11083889007568359375e-02) (185, 6.12553730607032775879e-02) (186, -4.85238991677761077881e-02) (187, 1.91176682710647583008e-02) (188, -5.00978492200374603271e-02) (189, -9.28499549627304077148e-02) (190, -8.81977379322052001953e-03) (191, -8.26282724738121032715e-02) (192, -2.81510353088378906250e-02) (193, -8.02929252386093139648e-02) (194, 7.75641426444053649902e-02) (195, 1.36507749557495117188e-02) (196, -2.22525745630264282227e-03) (197, 5.80087378621101379395e-02) (198, 7.76263549923896789551e-02) (199, 3.95811423659324645996e-02) (200, 7.64277502894401550293e-02) (201, 7.76197984814643859863e-02) (202, -2.64470055699348449707e-02) (203, -7.61499926447868347168e-02) (204, 3.67057397961616516113e-02) (205, 6.89938887953758239746e-02) (206, 6.91461488604545593262e-02) (207, 9.17860120534896850586e-03) (208, 8.62185731530189514160e-02) (209, 5.46000897884368896484e-04) (210, 3.76566573977470397949e-02) (211, 3.40190604329109191895e-02) (212, -2.35424935817718505859e-02) (213, -2.64686197042465209961e-02) (214, 1.62430182099342346191e-02) (215, 9.75658968091011047363e-02) (216, -6.52132481336593627930e-02) (217, 6.77191093564033508301e-02) (218, 1.66835635900497436523e-02) (219, -1.53110995888710021973e-02) (220, 7.48691633343696594238e-02) (221, -9.21362042427062988281e-02) (222, 2.06062942743301391602e-03) (223, -5.32818734645843505859e-02) (224, -7.24291354417800903320e-02) (225, -2.03752219676971435547e-02) (226, 6.03689029812812805176e-02) (227, 2.53456160426139831543e-02) (228, -6.23664781451225280762e-02) (229, 3.79952415823936462402e-02) (230, -3.50732430815696716309e-02) (231, -8.59387367963790893555e-02) (232, 1.56150460243225097656e-02) (233, 3.84797528386116027832e-02) (234, -6.20887242257595062256e-02) (235, -4.76792156696319580078e-02) (236, 7.47364759445190429688e-03) (237, -9.29425805807113647461e-02) (238, 6.14993944764137268066e-02) (239, -6.30778074264526367188e-03) (240, 7.60342180728912353516e-03) (241, -8.43949615955352783203e-04) (242, -7.22887143492698669434e-02) (243, 8.40609297156333923340e-02) (244, 7.26874396204948425293e-02) (245, 4.39543053507804870605e-02) (246, 8.16268399357795715332e-02) (247, -9.25258249044418334961e-02) (248, 1.16734132170677185059e-02) (249, -1.68959796428680419922e-03) (250, -7.83692300319671630859e-03) (251, -1.34574249386787414551e-02) (252, 6.17419183254241943359e-03) (253, 9.42237153649330139160e-02) (254, 3.32607105374336242676e-02) (255, 3.37450578808784484863e-02) (256, -2.61515080928802490234e-02) (0, -6.37040287256240844727e-03) (1, -4.09093201160430908203e-02) (2, 1.14820152521133422852e-02) (3, -6.83751627802848815918e-02) (4, 2.40174308419227600098e-02) (5, 2.55432799458503723145e-02) (6, 4.72398921847343444824e-02) (7, -3.75028215348720550537e-02) (8, 6.34545609354972839355e-02) (9, 9.95606854557991027832e-02) (10, 6.99708238244056701660e-02) (11, 7.05119892954826354980e-02) (12, 6.10600784420967102051e-02) (13, -3.63369584083557128906e-02) (14, -2.18845978379249572754e-02) (15, -3.97838838398456573486e-02) (16, -8.62567126750946044922e-03) (17, -3.78236584365367889404e-02) (18, -6.70964568853378295898e-02) (19, -6.46713823080062866211e-02) (20, -5.61968311667442321777e-02) (21, -5.96222728490829467773e-02) (22, 4.70020398497581481934e-02) (23, 4.21135798096656799316e-02) (24, 3.25408056378364562988e-02) (25, -6.64553940296173095703e-02) (26, -5.17122261226177215576e-02) (27, 2.67645195126533508301e-02) (28, 6.68053105473518371582e-02) (29, 8.20328518748283386230e-02) (30, -9.93869900703430175781e-02) (31, -3.95650863647460937500e-02) (32, -5.88764809072017669678e-02) (33, 1.20950341224670410156e-02) (34, -7.94024765491485595703e-03) (35, 6.51409551501274108887e-02) (36, -6.23616836965084075928e-02) (37, -6.07003644108772277832e-02) (38, -7.23618641495704650879e-02) (39, -9.89071279764175415039e-02) (40, -6.11396878957748413086e-02) (41, 9.76089611649513244629e-02) (42, 7.16048553586006164551e-02) (43, 9.99203845858573913574e-02) (44, -3.87279987335205078125e-02) (45, -5.02797402441501617432e-02) (46, -3.98635044693946838379e-02) (47, 5.26463314890861511230e-02) (48, 1.18965953588485717773e-02) (49, -6.95995986461639404297e-03) (50, 8.79749581217765808105e-02) (51, 5.56997731328010559082e-02) (52, 3.34177687764167785645e-02) (53, 3.49769815802574157715e-02) (54, -2.18665599822998046875e-03) (55, -3.40414196252822875977e-02) (56, 6.85215964913368225098e-02) (57, 4.61011156439781188965e-02) (58, 9.27230939269065856934e-02) (59, 3.53269055485725402832e-02) (60, 2.81339660286903381348e-02) (61, 9.33361127972602844238e-02) (62, 9.57618281245231628418e-02) (63, 6.92574903368949890137e-02) (64, 5.43115288019180297852e-03) (65, -1.21784284710884094238e-02) (66, 3.43984439969062805176e-02) (67, 4.30694594979286193848e-02) (68, 2.71212086081504821777e-02) (69, 6.20365813374519348145e-02) (70, 4.41623404622077941895e-02) (71, 6.59815147519111633301e-02) (72, 5.96455410122871398926e-02) (73, 1.57671943306922912598e-02) (74, 6.59018978476524353027e-02) (75, -7.90824666619300842285e-02) (76, 6.54874518513679504395e-02) (77, -7.39616006612777709961e-02) (78, 7.35638663172721862793e-02) (79, -2.26159542798995971680e-02) (80, 1.90784484148025512695e-02) (81, 6.15388229489326477051e-02) (82, -6.69161826372146606445e-02) (83, -4.75037880241870880127e-02) (84, -3.48419696092605590820e-03) (85, 3.08971628546714782715e-02) (86, 1.84547901153564453125e-02) (87, -3.49625945091247558594e-02) (88, -2.30017155408859252930e-02) (89, 1.11778825521469116211e-02) (90, -9.96356904506683349609e-02) (91, -9.48677510023117065430e-02) (92, 4.51400130987167358398e-03) (93, 9.61261317133903503418e-02) (94, 7.43897333741188049316e-02) (95, -9.00548547506332397461e-02) (96, -1.60522982478141784668e-02) (97, 8.78816843032836914062e-03) (98, 5.30146136879920959473e-02) (99, -8.89310911297798156738e-02) (100, -2.91752517223358154297e-02) (101, -2.82305479049682617188e-03) (102, 7.70504400134086608887e-02) (103, -6.95297196507453918457e-02) (104, -8.70558694005012512207e-02) (105, 4.29523363709449768066e-02) (106, -4.86121848225593566895e-02) (107, 7.84315839409828186035e-02) (108, 6.89907297492027282715e-02) (109, -7.50483199954032897949e-02) (110, -4.41843643784523010254e-02) (111, -1.19308233261108398438e-02) (112, 8.64905044436454772949e-02) (113, -1.11005455255508422852e-02) (114, 4.05653789639472961426e-02) (115, -1.69936940073966979980e-02) (116, -8.02033841609954833984e-02) (117, -4.09798212349414825439e-02) (118, 4.80437055230140686035e-02) (119, -3.20509076118469238281e-03) (120, 7.01980665326118469238e-02) (121, 4.84080240130424499512e-02) (122, 1.92715972661972045898e-03) (123, -2.52879336476325988770e-02) (124, 4.45341542363166809082e-02) (125, -2.36831083893775939941e-02) (126, -1.53427794575691223145e-02) (127, -7.15181455016136169434e-02) (128, 8.51050689816474914551e-02) (129, -6.23281672596931457520e-02) (130, -6.04492388665676116943e-02) (131, -4.40701842308044433594e-02) (132, 3.48487868905067443848e-02) (133, -8.33988040685653686523e-02) (134, -1.35999023914337158203e-02) (135, 4.77929189801216125488e-02) (136, 5.95535263419151306152e-02) (137, 3.77879217267036437988e-02) (138, 2.62245014309883117676e-02) (139, 2.85442546010017395020e-02) (140, 6.27396032214164733887e-02) (141, 8.20401385426521301270e-02) (142, -8.33865627646446228027e-02) (143, 4.92301061749458312988e-02) (144, -2.90604084730148315430e-02) (145, 5.71788176894187927246e-02) (146, -6.77635967731475830078e-02) (147, -9.26379114389419555664e-03) (148, -8.38010013103485107422e-02) (149, 8.02801176905632019043e-02) (150, 8.75311121344566345215e-02) (151, 8.63970592617988586426e-02) (152, 2.86881402134895324707e-02) (153, -1.05417221784591674805e-02) (154, -3.88908647000789642334e-02) (155, -2.67777144908905029297e-02) (156, 6.57751634716987609863e-02) (157, 4.57663610577583312988e-02) (158, 1.70413404703140258789e-03) (159, 5.08802309632301330566e-02) (160, 8.34381952881813049316e-02) (161, 4.12549003958702087402e-02) (162, -9.31899547576904296875e-02) (163, 1.82869657874107360840e-02) (164, 5.78560903668403625488e-02) (165, -6.78984820842742919922e-03) (166, -3.39201092720031738281e-02) (167, 1.74096375703811645508e-02) (168, -6.90019354224205017090e-02) (169, 9.23043861985206604004e-02) (170, -5.40461055934429168701e-02) (171, 9.37376692891120910645e-02) (172, 7.43445232510566711426e-02) (173, -3.74326705932617187500e-02) (174, 4.29677590727806091309e-02) (175, -5.47158829867839813232e-02) (176, -8.02538469433784484863e-02) (177, 7.52041712403297424316e-02) (178, 3.60203310847282409668e-02) (179, -6.40548467636108398438e-02) (180, 5.54842874407768249512e-02) (181, 2.35514491796493530273e-02) (182, -7.76577740907669067383e-02) (183, -1.58275887370109558105e-02) (184, -8.69902744889259338379e-02) (185, -1.65486335754394531250e-02) (186, 5.73946908116340637207e-02) (187, 7.87848904728889465332e-02) (188, -7.07822740077972412109e-02) (189, -4.09011654555797576904e-02) (190, 2.96651199460029602051e-02) (191, -8.73440876603126525879e-02) (192, -9.96462628245353698730e-02) (193, 3.64751741290092468262e-02) (194, 3.09428945183753967285e-02) (195, 5.82098439335823059082e-02) (196, -7.03146755695343017578e-02) (197, 9.70227792859077453613e-02) (198, -2.43805348873138427734e-02) (199, -3.93166206777095794678e-02) (200, 8.93271639943122863770e-02) (201, 2.15733498334884643555e-02) (202, -4.55789566040039062500e-02) (203, 6.36717006564140319824e-02) (204, 8.41406807303428649902e-02) (205, 9.73888114094734191895e-02) (206, -9.10441949963569641113e-02) (207, -9.61131602525711059570e-02) (208, 7.25929811596870422363e-02) (209, 4.49761375784873962402e-02) (210, -6.01680018007755279541e-02) (211, 2.80772522091865539551e-02) (212, -3.14724147319793701172e-02) (213, -3.78257744014263153076e-02) (214, -8.77503380179405212402e-02) (215, -1.84626877307891845703e-02) (216, 4.56255897879600524902e-02) (217, 6.96443542838096618652e-02) (218, -3.96777987480163574219e-02) (219, 7.48433098196983337402e-02) (220, -7.12568014860153198242e-02) (221, 8.99873301386833190918e-02) (222, 8.74992236495018005371e-02) (223, -7.09030702710151672363e-02) (224, 2.64625027775764465332e-02) (225, 1.84421166777610778809e-02) (226, 8.73067602515220642090e-02) (227, 5.61478212475776672363e-02) (228, 1.54648870229721069336e-02) (229, -3.70737761259078979492e-02) (230, -8.31687971949577331543e-02) (231, 4.79205697774887084961e-03) (232, 8.44995900988578796387e-02) (233, -2.87477523088455200195e-02) (234, -3.15362587571144104004e-02) (235, 6.86402693390846252441e-02) (236, -3.13589498400688171387e-02) (237, -2.25804448127746582031e-02) (238, 7.25271180272102355957e-02) (239, -5.87659776210784912109e-02) (240, -7.76043087244033813477e-02) (241, -8.76408964395523071289e-02) (242, 6.93112686276435852051e-02) (243, -9.07672196626663208008e-03) (244, -2.54666656255722045898e-02) (245, 8.15609320998191833496e-02) (246, 7.24605992436408996582e-02) (247, -7.98410847783088684082e-02) (248, 5.12052997946739196777e-02) (249, -6.72172158956527709961e-02) (250, 9.50022414326667785645e-02) (251, 7.99484923481941223145e-02) (252, -7.72298872470855712891e-02) (253, 8.25014486908912658691e-02) (254, -9.09545794129371643066e-02) (255, 4.92326095700263977051e-02) (256, 9.43563878536224365234e-04) (0, 9.63521823287010192871e-02) (1, 5.38042932748794555664e-03) (2, -8.35915505886077880859e-02) (3, -4.07215841114521026611e-02) (4, 2.22116336226463317871e-02) (5, 2.12005004286766052246e-02) (6, -5.62220029532909393311e-02) (7, 9.34638753533363342285e-02) (8, 8.96642431616783142090e-02) (9, -8.75817313790321350098e-02) (10, -3.78950722515583038330e-02) (11, -3.29162031412124633789e-02) (12, 8.49453881382942199707e-02) (13, 3.33894789218902587891e-03) (14, -1.05205029249191284180e-02) (15, 9.73044857382774353027e-02) (16, -2.73497775197029113770e-02) (17, 8.04027691483497619629e-02) (18, -2.81621813774108886719e-02) (19, -4.57888431847095489502e-02) (20, 5.28633669018745422363e-02) (21, -8.00325721502304077148e-03) (22, -9.45835411548614501953e-02) (23, 8.56461450457572937012e-02) (24, -1.30010321736335754395e-02) (25, 8.53649452328681945801e-02) (26, -9.15837436914443969727e-02) (27, -3.04995775222778320312e-02) (28, 9.44103673100471496582e-02) (29, 5.76488748192787170410e-02) (30, 7.04439952969551086426e-02) (31, 9.07625630497932434082e-02) (32, -3.69706973433494567871e-02) (33, 8.68524387478828430176e-02) (34, -4.99590225517749786377e-02) (35, 8.52409377694129943848e-02) (36, 8.05294513702392578125e-03) (37, -6.18101656436920166016e-03) (38, 7.87048116326332092285e-02) (39, -2.28280574083328247070e-03) (40, 6.23725354671478271484e-03) (41, -5.91902695596218109131e-02) (42, 6.48010000586509704590e-02) (43, -8.81736725568771362305e-03) (44, 4.41486909985542297363e-02) (45, -4.57195118069648742676e-02) (46, -1.15128830075263977051e-02) (47, -8.32010954618453979492e-02) (48, -6.53167366981506347656e-02) (49, 6.03249445557594299316e-02) (50, -2.89899334311485290527e-02) (51, 8.75466242432594299316e-02) (52, -4.76783215999603271484e-02) (53, -2.35734805464744567871e-02) (54, 7.31927677989006042480e-02) (55, 3.93206551671028137207e-02) (56, -3.82085330784320831299e-02) (57, 8.16090181469917297363e-02) (58, -9.11789387464523315430e-02) (59, -4.37981560826301574707e-02) (60, 3.92578914761543273926e-02) (61, 7.92650505900382995605e-02) (62, -5.30355945229530334473e-02) (63, -9.77128148078918457031e-02) (64, 6.61174878478050231934e-02) (65, -2.99461185932159423828e-03) (66, 8.75281170010566711426e-02) (67, -2.58295685052871704102e-02) (68, 9.08243730664253234863e-02) (69, 6.62329271435737609863e-02) (70, 7.18876197934150695801e-02) (71, -2.93837487697601318359e-03) (72, -9.29573401808738708496e-02) (73, 3.66886332631111145020e-02) (74, 8.82442519068717956543e-02) (75, 5.11913374066352844238e-02) (76, 9.09691229462623596191e-02) (77, -2.32686251401901245117e-02) (78, 6.79902508854866027832e-02) (79, -7.43476226925849914551e-02) (80, -6.29436969757080078125e-02) (81, -6.09996877610683441162e-02) (82, -8.68009999394416809082e-02) (83, -1.06220096349716186523e-02) (84, 1.54268294572830200195e-02) (85, 8.63917544484138488770e-02) (86, -7.13013708591461181641e-02) (87, 7.72183015942573547363e-02) (88, 6.80007860064506530762e-02) (89, -6.24803043901920318604e-02) (90, -6.65798559784889221191e-02) (91, 7.25867599248886108398e-03) (92, -8.32152515649795532227e-02) (93, -1.96154490113258361816e-02) (94, 9.54587757587432861328e-03) (95, 8.29022452235221862793e-02) (96, 7.73899480700492858887e-02) (97, -2.92600691318511962891e-03) (98, -4.29273322224617004395e-02) (99, 6.82143047451972961426e-02) (100, -3.66930812597274780273e-02) (101, -7.10396990180015563965e-02) (102, -3.47240716218948364258e-02) (103, -2.96504199504852294922e-02) (104, 6.56489208340644836426e-02) (105, -4.64798174798488616943e-02) (106, -7.84590765833854675293e-02) (107, 5.66180422902107238770e-02) (108, 3.02515551447868347168e-02) (109, 8.95311757922172546387e-02) (110, 8.22704210877418518066e-02) (111, 6.73078671097755432129e-02) (112, -7.14685171842575073242e-02) (113, 9.54694226384162902832e-02) (114, -4.33141551911830902100e-02) (115, 4.39583137631416320801e-02) (116, 8.18611904978752136230e-02) (117, -1.46155208349227905273e-02) (118, 2.11766138672828674316e-02) (119, 4.98619750142097473145e-02) (120, 2.29041799902915954590e-02) (121, 5.45967593789100646973e-02) (122, -4.28793504834175109863e-02) (123, 3.96889224648475646973e-02) (124, -6.50186836719512939453e-02) (125, 6.66665211319923400879e-02) (126, 2.25911587476730346680e-02) (127, -8.76287445425987243652e-02) (128, -3.62594872713088989258e-02) (129, 7.96638205647468566895e-02) (130, 8.05855616927146911621e-02) (131, 2.70474329590797424316e-02) (132, -9.13758724927902221680e-02) (133, -5.41385002434253692627e-02) (134, 9.73970219492912292480e-02) (135, 7.42730572819709777832e-02) (136, -6.18316233158111572266e-04) (137, -8.10620635747909545898e-02) (138, 3.08910980820655822754e-02) (139, -7.03667625784873962402e-02) (140, -9.15308892726898193359e-02) (141, 1.31615176796913146973e-02) (142, 9.69411060214042663574e-02) (143, -6.29993975162506103516e-02) (144, 8.63094627857208251953e-03) (145, -4.63730506598949432373e-02) (146, 8.09589102864265441895e-02) (147, -9.50787961483001708984e-03) (148, 3.90114262700080871582e-02) (149, 2.13553756475448608398e-03) (150, -5.96459023654460906982e-02) (151, -3.80843952298164367676e-02) (152, -4.32677045464515686035e-02) (153, -2.52525508403778076172e-03) (154, -9.83954668045043945312e-02) (155, -8.28638672828674316406e-03) (156, -3.58587354421615600586e-02) (157, 2.41956934332847595215e-02) (158, 4.08487021923065185547e-03) (159, 2.78817787766456604004e-02) (160, 3.85951995849609375000e-03) (161, -1.53295621275901794434e-02) (162, -4.50707860291004180908e-02) (163, 1.24836415052413940430e-02) (164, 3.05319353938102722168e-02) (165, -4.76737730205059051514e-02) (166, -1.32433027029037475586e-02) (167, -7.00863748788833618164e-02) (168, -2.87358313798904418945e-02) (169, -8.23522061109542846680e-02) (170, -4.04531434178352355957e-02) (171, -2.02667266130447387695e-02) (172, 3.08093056082725524902e-02) (173, -4.35120426118373870850e-02) (174, 1.67338699102401733398e-02) (175, -6.05597496032714843750e-02) (176, 1.01149082183837890625e-02) (177, -2.30720639228820800781e-03) (178, 2.99323871731758117676e-02) (179, -5.08736632764339447021e-02) (180, 9.98283252120018005371e-02) (181, 7.02864751219749450684e-02) (182, 1.10419392585754394531e-02) (183, -4.34393696486949920654e-02) (184, -3.22387814521789550781e-02) (185, 1.26464739441871643066e-02) (186, 4.82742413878440856934e-02) (187, 3.19024994969367980957e-02) (188, -6.31578415632247924805e-02) (189, -4.76408973336219787598e-02) (190, -4.02157306671142578125e-02) (191, 4.07016947865486145020e-02) (192, 3.70295420289039611816e-02) (193, 1.47134810686111450195e-02) (194, -4.68146614730358123779e-02) (195, -3.24385240674018859863e-02) (196, 6.70397058129310607910e-02) (197, 3.99420335888862609863e-02) (198, -2.52489745616912841797e-03) (199, -6.16961307823657989502e-02) (200, 5.75898364186286926270e-02) (201, 5.70219531655311584473e-02) (202, 1.80371552705764770508e-02) (203, -1.16008520126342773438e-02) (204, -8.64900872111320495605e-02) (205, -6.52289688587188720703e-02) (206, 2.78393998742103576660e-02) (207, 2.36248224973678588867e-02) (208, 3.24638262391090393066e-02) (209, -4.22282293438911437988e-02) (210, 7.27511718869209289551e-02) (211, 3.22921499609947204590e-02) (212, -7.19417631626129150391e-02) (213, -1.62068977952003479004e-02) (214, 8.88527706265449523926e-02) (215, -4.18053567409515380859e-03) (216, 9.64395776391029357910e-02) (217, 3.71270254254341125488e-02) (218, -7.22780525684356689453e-02) (219, -6.67182579636573791504e-02) (220, 8.94861295819282531738e-02) (221, -1.24937742948532104492e-02) (222, 7.39834383130073547363e-02) (223, 2.65156701207160949707e-02) (224, -9.77802947163581848145e-02) (225, -7.28312358260154724121e-02) (226, 9.40771475434303283691e-02) (227, 6.92594125866889953613e-02) (228, 6.71107992529869079590e-02) (229, -8.44775140285491943359e-03) (230, -9.24367159605026245117e-02) (231, 2.47006267309188842773e-02) (232, -5.14257997274398803711e-02) (233, 2.56004408001899719238e-02) (234, -8.69002193212509155273e-02) (235, -3.79158854484558105469e-02) (236, 6.03714659810066223145e-02) (237, 4.09391745924949645996e-02) (238, 8.57089385390281677246e-02) (239, -7.16471672058105468750e-03) (240, 9.87109467387199401855e-02) (241, 5.84601089358329772949e-02) (242, -7.48725607991218566895e-02) (243, -7.32308104634284973145e-02) (244, -5.77467940747737884521e-02) (245, -8.60197842121124267578e-02) (246, 2.25886479020118713379e-02) (247, -6.13072179257869720459e-02) (248, 5.11072352528572082520e-02) (249, 5.03106042742729187012e-02) (250, -2.80254706740379333496e-02) (251, 4.05933633446693420410e-02) (252, -6.21831826865673065186e-02) (253, -5.40420413017272949219e-02) (254, -3.28909680247306823730e-02) (255, -5.99634759128093719482e-02) (256, -2.68732756376266479492e-02) (0, -3.88138256967067718506e-02) (1, -9.07040610909461975098e-02) (2, -5.97624741494655609131e-02) (3, 5.27384206652641296387e-02) (4, -8.31407755613327026367e-02) (5, 6.49381652474403381348e-02) (6, -9.86873805522918701172e-02) (7, 4.24596592783927917480e-02) (8, 7.80379399657249450684e-02) (9, -3.66032570600509643555e-02) (10, 2.83111631870269775391e-03) (11, 1.89771205186843872070e-02) (12, -5.08943237364292144775e-02) (13, 9.56664010882377624512e-02) (14, 1.76880732178688049316e-02) (15, -9.24342274665832519531e-02) (16, -7.92061612010002136230e-02) (17, 4.44572642445564270020e-02) (18, -5.01810200512409210205e-02) (19, -6.52259439229965209961e-02) (20, -3.29540967941284179688e-02) (21, -1.14882364869117736816e-02) (22, 8.58813002705574035645e-02) (23, -8.26435014605522155762e-02) (24, 6.04862943291664123535e-02) (25, 2.64746621251106262207e-02) (26, -4.48266826570034027100e-02) (27, -9.35557484626770019531e-02) (28, 9.35836955904960632324e-02) (29, -4.79014962911605834961e-03) (30, -2.04290226101875305176e-02) (31, -4.52301315963268280029e-02) (32, 4.50579077005386352539e-03) (33, 1.98085084557533264160e-02) (34, -9.24917161464691162109e-02) (35, 2.13650092482566833496e-02) (36, -1.52533277869224548340e-02) (37, -9.11790952086448669434e-02) (38, -3.61753329634666442871e-02) (39, -3.72153818607330322266e-02) (40, -2.77823582291603088379e-02) (41, 6.66557922959327697754e-02) (42, 8.17617401480674743652e-02) (43, 2.13233232498168945312e-02) (44, 6.23221918940544128418e-02) (45, -5.50195574760437011719e-04) (46, 2.88890972733497619629e-02) (47, 8.31160321831703186035e-02) (48, -5.60929439961910247803e-02) (49, 7.87080749869346618652e-02) (50, -8.21099132299423217773e-02) (51, 1.09529644250869750977e-02) (52, -3.27801555395126342773e-02) (53, -9.62286144495010375977e-02) (54, 2.83094719052314758301e-02) (55, -7.22938627004623413086e-02) (56, 3.02460566163063049316e-02) (57, 8.34827795624732971191e-02) (58, -6.58496171236038208008e-02) (59, 2.38297432661056518555e-02) (60, -2.13073715567588806152e-02) (61, 1.37213692069053649902e-02) (62, 7.85996094346046447754e-02) (63, 8.31984207034111022949e-02) (64, -6.64701312780380249023e-02) (65, 8.61079022288322448730e-02) (66, 4.56342846155166625977e-03) (67, 1.82765498757362365723e-02) (68, 9.49288085103034973145e-02) (69, 6.83880969882011413574e-02) (70, 8.10611620545387268066e-02) (71, -3.28535586595535278320e-02) (72, 3.50438728928565979004e-02) (73, 6.28229007124900817871e-02) (74, 8.84697660803794860840e-02) (75, -2.63393670320510864258e-03) (76, -3.77272963523864746094e-02) (77, 1.73588618636131286621e-02) (78, -1.95179134607315063477e-02) (79, 6.17976486682891845703e-03) (80, -3.93305718898773193359e-03) (81, -1.62781774997711181641e-03) (82, -8.28672796487808227539e-02) (83, 6.32867887616157531738e-02) (84, 2.14357674121856689453e-03) (85, 4.54421862959861755371e-02) (86, 9.09929201006889343262e-02) (87, -6.76103830337524414062e-02) (88, 2.89249643683433532715e-02) (89, -7.48566910624504089355e-02) (90, 5.62193617224693298340e-02) (91, -9.23824086785316467285e-02) (92, 3.88646796345710754395e-02) (93, 3.48189696669578552246e-02) (94, 9.08159986138343811035e-02) (95, 7.23945572972297668457e-02) (96, 2.09268555045127868652e-02) (97, -4.62057441473007202148e-03) (98, -9.32890921831130981445e-03) (99, 1.58556550741195678711e-02) (100, -3.62324863672256469727e-02) (101, -2.82677486538887023926e-02) (102, 8.30020979046821594238e-02) (103, 9.88113954663276672363e-02) (104, -6.54448494315147399902e-02) (105, 7.14718773961067199707e-02) (106, -3.82255017757415771484e-03) (107, -3.17214429378509521484e-03) (108, -1.11692696809768676758e-02) (109, 7.66595527529716491699e-02) (110, -9.69923883676528930664e-02) (111, 8.48976597189903259277e-02) (112, -2.49682813882827758789e-02) (113, -7.98596665263175964355e-02) (114, 4.81844469904899597168e-02) (115, 7.71752968430519104004e-02) (116, 6.55825212597846984863e-02) (117, 3.91773656010627746582e-02) (118, -9.04350876808166503906e-02) (119, -5.49252331256866455078e-03) (120, 6.43206760287284851074e-02) (121, 6.57842829823493957520e-02) (122, 2.12506949901580810547e-03) (123, 3.18535417318344116211e-03) (124, 6.03236258029937744141e-04) (125, -7.05892592668533325195e-03) (126, -2.44200974702835083008e-02) (127, -7.84699022769927978516e-02) (128, 8.83205011487007141113e-02) (129, 6.62509873509407043457e-02) (130, 3.73857691884040832520e-02) (131, -4.79119904339313507080e-02) (132, -6.20167516171932220459e-02) (133, 2.03878656029701232910e-02) (134, -4.91006039083003997803e-02) (135, -2.74616032838821411133e-02) (136, -8.14026594161987304688e-03) (137, 4.70768436789512634277e-02) (138, 6.93662539124488830566e-02) (139, 8.06904509663581848145e-02) (140, 2.37363949418067932129e-02) (141, 7.23738744854927062988e-02) (142, 6.55881240963935852051e-02) (143, 9.87681224942207336426e-02) (144, 9.25142094492912292480e-02) (145, 1.37725695967674255371e-02) (146, 7.59434178471565246582e-02) (147, 5.80967143177986145020e-02) (148, -4.70500588417053222656e-02) (149, 8.55083242058753967285e-02) (150, -4.73957955837249755859e-02) (151, -8.27293843030929565430e-02) (152, 5.12925907969474792480e-02) (153, 5.47292754054069519043e-02) (154, 2.04559713602066040039e-02) (155, -4.81041744351387023926e-02) (156, -5.23296557366847991943e-02) (157, 9.60358604788780212402e-02) (158, -2.65740677714347839355e-02) (159, -6.40091598033905029297e-02) (160, 6.22868612408638000488e-02) (161, -8.91883075237274169922e-02) (162, -1.19211450219154357910e-02) (163, -9.97298881411552429199e-02) (164, 3.11995670199394226074e-02) (165, 3.89782562851905822754e-02) (166, -2.71914899349212646484e-02) (167, -7.69407004117965698242e-02) (168, -1.39449015259742736816e-02) (169, -5.78252375125885009766e-02) (170, -9.62502434849739074707e-02) (171, -9.02085080742835998535e-02) (172, -8.54513719677925109863e-02) (173, 6.93378821015357971191e-02) (174, -9.14403945207595825195e-02) (175, -9.29371714591979980469e-02) (176, -1.68895423412322998047e-02) (177, 8.45030173659324645996e-02) (178, 6.51595517992973327637e-02) (179, 3.60604003071784973145e-02) (180, 