FANN_FLO_2.1
num_layers=3
learning_rate=0.700000
connection_rate=1.000000
network_type=0
learning_momentum=0.000000
training_algorithm=2
train_error_function=1
train_stop_function=0
cascade_output_change_fraction=0.010000
quickprop_decay=-0.000100
quickprop_mu=1.750000
rprop_increase_factor=1.200000
rprop_decrease_factor=0.500000
rprop_delta_min=0.000000
rprop_delta_max=50.000000
rprop_delta_zero=0.100000
cascade_output_stagnation_epochs=12
cascade_candidate_change_fraction=0.010000
cascade_candidate_stagnation_epochs=12
cascade_max_out_epochs=150
cascade_max_cand_epochs=150
cascade_num_candidate_groups=2
bit_fail_limit=3.49999994039535522461e-01
cascade_candidate_limit=1.00000000000000000000e+03
cascade_weight_multiplier=4.00000005960464477539e-01
cascade_activation_functions_count=10
cascade_activation_functions=3 5 7 8 10 11 14 15 16 17 
cascade_activation_steepnesses_count=4
cascade_activation_steepnesses=2.50000000000000000000e-01 5.00000000000000000000e-01 7.50000000000000000000e-01 1.00000000000000000000e+00 
layer_sizes=257 129 4 
scale_included=0
neurons (num_inputs, activation_function, activation_steepness)=(0, 0, 0.00000000000000000000e+00) (0, 0, 0.00000000000000000000e+00) (0, 0, 0.00000000000000000000e+00) (0, 0, 0.00000000000000000000e+00) (0, 0, 0.00000000000000000000e+00) (0, 0, 0.00000000000000000000e+00) (0, 0, 0.00000000000000000000e+00) (0, 0, 0.00000000000000000000e+00) (0, 0, 0.00000000000000000000e+00) (0, 0, 0.00000000000000000000e+00) (0, 0, 0.00000000000000000000e+00) (0, 0, 0.00000000000000000000e+00) (0, 0, 0.00000000000000000000e+00) (0, 0, 0.00000000000000000000e+00) (0, 0, 0.00000000000000000000e+00) (0, 0, 0.00000000000000000000e+00) (0, 0, 0.00000000000000000000e+00) (0, 0, 0.00000000000000000000e+00) (0, 0, 0.00000000000000000000e+00) (0, 0, 0.00000000000000000000e+00) (0, 0, 0.00000000000000000000e+00) (0, 0, 0.00000000000000000000e+00) (0, 0, 0.00000000000000000000e+00) (0, 0, 0.00000000000000000000e+00) (0, 0, 0.00000000000000000000e+00) (0, 0, 0.00000000000000000000e+00) (0, 0, 0.00000000000000000000e+00) (0, 0, 0.00000000000000000000e+00) (0, 0, 0.00000000000000000000e+00) (0, 0, 0.00000000000000000000e+00) (0, 0, 0.00000000000000000000e+00) (0, 0, 0.00000000000000000000e+00) (0, 0, 0.00000000000000000000e+00) (0, 0, 0.00000000000000000000e+00) (0, 0, 0.00000000000000000000e+00) (0, 0, 0.00000000000000000000e+00) (0, 0, 0.00000000000000000000e+00) (0, 0, 0.00000000000000000000e+00) (0, 0, 0.00000000000000000000e+00) (0, 0, 0.00000000000000000000e+00) (0, 0, 0.00000000000000000000e+00) (0, 0, 0.00000000000000000000e+00) (0, 0, 0.00000000000000000000e+00) (0, 0, 0.00000000000000000000e+00) (0, 0, 0.00000000000000000000e+00) (0, 0, 0.00000000000000000000e+00) (0, 0, 0.00000000000000000000e+00) (0, 0, 0.00000000000000000000e+00) (0, 0, 0.00000000000000000000e+00) (0, 0, 0.00000000000000000000e+00) (0, 0, 0.00000000000000000000e+00) (0, 0, 0.00000000000000000000e+00) (0, 0, 0.00000000000000000000e+00) (0, 0, 0.00000000000000000000e+00) (0, 0, 0.00000000000000000000e+00) (0, 0, 0.00000000000000000000e+00) (0, 0, 0.00000000000000000000e+00) (0, 0, 0.00000000000000000000e+00) (0, 0, 0.00000000000000000000e+00) (0, 0, 0.00000000000000000000e+00) (0, 0, 0.00000000000000000000e+00) (0, 0, 0.00000000000000000000e+00) (0, 0, 0.00000000000000000000e+00) (0, 0, 0.00000000000000000000e+00) (0, 0, 0.00000000000000000000e+00) (0, 0, 0.00000000000000000000e+00) (0, 0, 0.00000000000000000000e+00) (0, 0, 0.00000000000000000000e+00) (0, 0, 0.00000000000000000000e+00) (0, 0, 0.00000000000000000000e+00) (0, 0, 0.00000000000000000000e+00) (0, 0, 0.00000000000000000000e+00) (0, 0, 0.00000000000000000000e+00) (0, 0, 0.00000000000000000000e+00) (0, 0, 0.00000000000000000000e+00) (0, 0, 0.00000000000000000000e+00) (0, 0, 0.00000000000000000000e+00) (0, 0, 0.00000000000000000000e+00) (0, 0, 0.00000000000000000000e+00) (0, 0, 0.00000000000000000000e+00) (0, 0, 0.00000000000000000000e+00) (0, 0, 0.00000000000000000000e+00) (0, 0, 0.00000000000000000000e+00) (0, 0, 0.00000000000000000000e+00) (0, 0, 0.00000000000000000000e+00) (0, 0, 0.00000000000000000000e+00) (0, 0, 0.00000000000000000000e+00) (0, 0, 0.00000000000000000000e+00) (0, 0, 0.00000000000000000000e+00) (0, 0, 0.00000000000000000000e+00) (0, 0, 0.00000000000000000000e+00) (0, 0, 0.00000000000000000000e+00) (0, 0, 0.00000000000000000000e+00) (0, 0, 0.00000000000000000000e+00) (0, 0, 0.00000000000000000000e+00) (0, 0, 0.00000000000000000000e+00) (0, 0, 0.00000000000000000000e+00) (0, 0, 0.00000000000000000000e+00) (0, 0, 0.00000000000000000000e+00) (0, 0, 0.00000000000000000000e+00) (0, 0, 0.00000000000000000000e+00) (0, 0, 0.00000000000000000000e+00) (0, 0, 0.00000000000000000000e+00) (0, 0, 0.00000000000000000000e+00) (0, 0, 0.00000000000000000000e+00) (0, 0, 0.00000000000000000000e+00) (0, 0, 0.00000000000000000000e+00) (0, 0, 0.00000000000000000000e+00) (0, 0, 0.00000000000000000000e+00) (0, 0, 0.00000000000000000000e+00) (0, 0, 0.00000000000000000000e+00) (0, 0, 0.00000000000000000000e+00) (0, 0, 0.00000000000000000000e+00) (0, 0, 0.00000000000000000000e+00) (0, 0, 0.00000000000000000000e+00) (0, 0, 0.00000000000000000000e+00) (0, 0, 0.00000000000000000000e+00) (0, 0, 0.00000000000000000000e+00) (0, 0, 0.00000000000000000000e+00) (0, 0, 0.00000000000000000000e+00) (0, 0, 0.00000000000000000000e+00) (0, 0, 0.00000000000000000000e+00) (0, 0, 0.00000000000000000000e+00) (0, 0, 0.00000000000000000000e+00) (0, 0, 0.00000000000000000000e+00) (0, 0, 0.00000000000000000000e+00) (0, 0, 0.00000000000000000000e+00) (0, 0, 0.00000000000000000000e+00) (0, 0, 0.00000000000000000000e+00) (0, 0, 0.00000000000000000000e+00) (0, 0, 0.00000000000000000000e+00) (0, 0, 0.00000000000000000000e+00) (0, 0, 0.00000000000000000000e+00) (0, 0, 0.00000000000000000000e+00) (0, 0, 0.00000000000000000000e+00) (0, 0, 0.00000000000000000000e+00) (0, 0, 0.00000000000000000000e+00) (0, 0, 0.00000000000000000000e+00) (0, 0, 0.00000000000000000000e+00) (0, 0, 0.00000000000000000000e+00) (0, 0, 0.00000000000000000000e+00) (0, 0, 0.00000000000000000000e+00) (0, 0, 0.00000000000000000000e+00) (0, 0, 0.00000000000000000000e+00) (0, 0, 0.00000000000000000000e+00) (0, 0, 0.00000000000000000000e+00) (0, 0, 0.00000000000000000000e+00) (0, 0, 0.00000000000000000000e+00) (0, 0, 0.00000000000000000000e+00) (0, 0, 0.00000000000000000000e+00) (0, 0, 0.00000000000000000000e+00) (0, 0, 0.00000000000000000000e+00) (0, 0, 0.00000000000000000000e+00) (0, 0, 0.00000000000000000000e+00) (0, 0, 0.00000000000000000000e+00) (0, 0, 0.00000000000000000000e+00) (0, 0, 0.00000000000000000000e+00) (0, 0, 0.00000000000000000000e+00) (0, 0, 0.00000000000000000000e+00) (0, 0, 0.00000000000000000000e+00) (0, 0, 0.00000000000000000000e+00) (0, 0, 0.00000000000000000000e+00) (0, 0, 0.00000000000000000000e+00) (0, 0, 0.00000000000000000000e+00) (0, 0, 0.00000000000000000000e+00) (0, 0, 0.00000000000000000000e+00) (0, 0, 0.00000000000000000000e+00) (0, 0, 0.00000000000000000000e+00) (0, 0, 0.00000000000000000000e+00) (0, 0, 0.00000000000000000000e+00) (0, 0, 0.00000000000000000000e+00) (0, 0, 0.00000000000000000000e+00) (0, 0, 0.00000000000000000000e+00) (0, 0, 0.00000000000000000000e+00) (0, 0, 0.00000000000000000000e+00) (0, 0, 0.00000000000000000000e+00) (0, 0, 0.00000000000000000000e+00) (0, 0, 0.00000000000000000000e+00) (0, 0, 0.00000000000000000000e+00) (0, 0, 0.00000000000000000000e+00) (0, 0, 0.00000000000000000000e+00) (0, 0, 0.00000000000000000000e+00) (0, 0, 0.00000000000000000000e+00) (0, 0, 0.00000000000000000000e+00) (0, 0, 0.00000000000000000000e+00) (0, 0, 0.00000000000000000000e+00) (0, 0, 0.00000000000000000000e+00) (0, 0, 0.00000000000000000000e+00) (0, 0, 0.00000000000000000000e+00) (0, 0, 0.00000000000000000000e+00) (0, 0, 0.00000000000000000000e+00) (0, 0, 0.00000000000000000000e+00) (0, 0, 0.00000000000000000000e+00) (0, 0, 0.00000000000000000000e+00) (0, 0, 0.00000000000000000000e+00) (0, 0, 0.00000000000000000000e+00) (0, 0, 0.00000000000000000000e+00) (0, 0, 0.00000000000000000000e+00) (0, 0, 0.00000000000000000000e+00) (0, 0, 0.00000000000000000000e+00) (0, 0, 0.00000000000000000000e+00) (0, 0, 0.00000000000000000000e+00) (0, 0, 0.00000000000000000000e+00) (0, 0, 0.00000000000000000000e+00) (0, 0, 0.00000000000000000000e+00) (0, 0, 0.00000000000000000000e+00) (0, 0, 0.00000000000000000000e+00) (0, 0, 0.00000000000000000000e+00) (0, 0, 0.00000000000000000000e+00) (0, 0, 0.00000000000000000000e+00) (0, 0, 0.00000000000000000000e+00) (0, 0, 0.00000000000000000000e+00) (0, 0, 0.00000000000000000000e+00) (0, 0, 0.00000000000000000000e+00) (0, 0, 0.00000000000000000000e+00) (0, 0, 0.00000000000000000000e+00) (0, 0, 0.00000000000000000000e+00) (0, 0, 0.00000000000000000000e+00) (0, 0, 0.00000000000000000000e+00) (0, 0, 0.00000000000000000000e+00) (0, 0, 0.00000000000000000000e+00) (0, 0, 0.00000000000000000000e+00) (0, 0, 0.00000000000000000000e+00) (0, 0, 0.00000000000000000000e+00) (0, 0, 0.00000000000000000000e+00) (0, 0, 0.00000000000000000000e+00) (0, 0, 0.00000000000000000000e+00) (0, 0, 0.00000000000000000000e+00) (0, 0, 0.00000000000000000000e+00) (0, 0, 0.00000000000000000000e+00) (0, 0, 0.00000000000000000000e+00) (0, 0, 0.00000000000000000000e+00) (0, 0, 0.00000000000000000000e+00) (0, 0, 0.00000000000000000000e+00) (0, 0, 0.00000000000000000000e+00) (0, 0, 0.00000000000000000000e+00) (0, 0, 0.00000000000000000000e+00) (0, 0, 0.00000000000000000000e+00) (0, 0, 0.00000000000000000000e+00) (0, 0, 0.00000000000000000000e+00) (0, 0, 0.00000000000000000000e+00) (0, 0, 0.00000000000000000000e+00) (0, 0, 0.00000000000000000000e+00) (0, 0, 0.00000000000000000000e+00) (0, 0, 0.00000000000000000000e+00) (0, 0, 0.00000000000000000000e+00) (0, 0, 0.00000000000000000000e+00) (0, 0, 0.00000000000000000000e+00) (0, 0, 0.00000000000000000000e+00) (0, 0, 0.00000000000000000000e+00) (0, 0, 0.00000000000000000000e+00) (0, 0, 0.00000000000000000000e+00) (0, 0, 0.00000000000000000000e+00) (0, 0, 0.00000000000000000000e+00) (0, 0, 0.00000000000000000000e+00) (0, 0, 0.00000000000000000000e+00) (0, 0, 0.00000000000000000000e+00) (257, 5, 5.00000000000000000000e-01) (257, 5, 5.00000000000000000000e-01) (257, 5, 5.00000000000000000000e-01) (257, 5, 5.00000000000000000000e-01) (257, 5, 5.00000000000000000000e-01) (257, 5, 5.00000000000000000000e-01) (257, 5, 5.00000000000000000000e-01) (257, 5, 5.00000000000000000000e-01) (257, 5, 5.00000000000000000000e-01) (257, 5, 5.00000000000000000000e-01) (257, 5, 5.00000000000000000000e-01) (257, 5, 5.00000000000000000000e-01) (257, 5, 5.00000000000000000000e-01) (257, 5, 5.00000000000000000000e-01) (257, 5, 5.00000000000000000000e-01) (257, 5, 5.00000000000000000000e-01) (257, 5, 5.00000000000000000000e-01) (257, 5, 5.00000000000000000000e-01) (257, 5, 5.00000000000000000000e-01) (257, 5, 5.00000000000000000000e-01) (257, 5, 5.00000000000000000000e-01) (257, 5, 5.00000000000000000000e-01) (257, 5, 5.00000000000000000000e-01) (257, 5, 5.00000000000000000000e-01) (257, 5, 5.00000000000000000000e-01) (257, 5, 5.00000000000000000000e-01) (257, 5, 5.00000000000000000000e-01) (257, 5, 5.00000000000000000000e-01) (257, 5, 5.00000000000000000000e-01) (257, 5, 5.00000000000000000000e-01) (257, 5, 5.00000000000000000000e-01) (257, 5, 5.00000000000000000000e-01) (257, 5, 5.00000000000000000000e-01) (257, 5, 5.00000000000000000000e-01) (257, 5, 5.00000000000000000000e-01) (257, 5, 5.00000000000000000000e-01) (257, 5, 5.00000000000000000000e-01) (257, 5, 5.00000000000000000000e-01) (257, 5, 5.00000000000000000000e-01) (257, 5, 5.00000000000000000000e-01) (257, 5, 5.00000000000000000000e-01) (257, 5, 5.00000000000000000000e-01) (257, 5, 5.00000000000000000000e-01) (257, 5, 5.00000000000000000000e-01) (257, 5, 5.00000000000000000000e-01) (257, 5, 5.00000000000000000000e-01) (257, 5, 5.00000000000000000000e-01) (257, 5, 5.00000000000000000000e-01) (257, 5, 5.00000000000000000000e-01) (257, 5, 5.00000000000000000000e-01) (257, 5, 5.00000000000000000000e-01) (257, 5, 5.00000000000000000000e-01) (257, 5, 5.00000000000000000000e-01) (257, 5, 5.00000000000000000000e-01) (257, 5, 5.00000000000000000000e-01) (257, 5, 5.00000000000000000000e-01) (257, 5, 5.00000000000000000000e-01) (257, 5, 5.00000000000000000000e-01) (257, 5, 5.00000000000000000000e-01) (257, 5, 5.00000000000000000000e-01) (257, 5, 5.00000000000000000000e-01) (257, 5, 5.00000000000000000000e-01) (257, 5, 5.00000000000000000000e-01) (257, 5, 5.00000000000000000000e-01) (257, 5, 5.00000000000000000000e-01) (257, 5, 5.00000000000000000000e-01) (257, 5, 5.00000000000000000000e-01) (257, 5, 5.00000000000000000000e-01) (257, 5, 5.00000000000000000000e-01) (257, 5, 5.00000000000000000000e-01) (257, 5, 5.00000000000000000000e-01) (257, 5, 5.00000000000000000000e-01) (257, 5, 5.00000000000000000000e-01) (257, 5, 5.00000000000000000000e-01) (257, 5, 5.00000000000000000000e-01) (257, 5, 5.00000000000000000000e-01) (257, 5, 5.00000000000000000000e-01) (257, 5, 5.00000000000000000000e-01) (257, 5, 5.00000000000000000000e-01) (257, 5, 5.00000000000000000000e-01) (257, 5, 5.00000000000000000000e-01) (257, 5, 5.00000000000000000000e-01) (257, 5, 5.00000000000000000000e-01) (257, 5, 5.00000000000000000000e-01) (257, 5, 5.00000000000000000000e-01) (257, 5, 5.00000000000000000000e-01) (257, 5, 5.00000000000000000000e-01) (257, 5, 5.00000000000000000000e-01) (257, 5, 5.00000000000000000000e-01) (257, 5, 5.00000000000000000000e-01) (257, 5, 5.00000000000000000000e-01) (257, 5, 5.00000000000000000000e-01) (257, 5, 5.00000000000000000000e-01) (257, 5, 5.00000000000000000000e-01) (257, 5, 5.00000000000000000000e-01) (257, 5, 5.00000000000000000000e-01) (257, 5, 5.00000000000000000000e-01) (257, 5, 5.00000000000000000000e-01) (257, 5, 5.00000000000000000000e-01) (257, 5, 5.00000000000000000000e-01) (257, 5, 5.00000000000000000000e-01) (257, 5, 5.00000000000000000000e-01) (257, 5, 5.00000000000000000000e-01) (257, 5, 5.00000000000000000000e-01) (257, 5, 5.00000000000000000000e-01) (257, 5, 5.00000000000000000000e-01) (257, 5, 5.00000000000000000000e-01) (257, 5, 5.00000000000000000000e-01) (257, 5, 5.00000000000000000000e-01) (257, 5, 5.00000000000000000000e-01) (257, 5, 5.00000000000000000000e-01) (257, 5, 5.00000000000000000000e-01) (257, 5, 5.00000000000000000000e-01) (257, 5, 5.00000000000000000000e-01) (257, 5, 5.00000000000000000000e-01) (257, 5, 5.00000000000000000000e-01) (257, 5, 5.00000000000000000000e-01) (257, 5, 5.00000000000000000000e-01) (257, 5, 5.00000000000000000000e-01) (257, 5, 5.00000000000000000000e-01) (257, 5, 5.00000000000000000000e-01) (257, 5, 5.00000000000000000000e-01) (257, 5, 5.00000000000000000000e-01) (257, 5, 5.00000000000000000000e-01) (257, 5, 5.00000000000000000000e-01) (257, 5, 5.00000000000000000000e-01) (257, 5, 5.00000000000000000000e-01) (257, 5, 5.00000000000000000000e-01) (0, 5, 0.00000000000000000000e+00) (129, 5, 5.00000000000000000000e-01) (129, 5, 5.00000000000000000000e-01) (129, 5, 5.00000000000000000000e-01) (0, 5, 0.00000000000000000000e+00) 
connections (connected_to_neuron, weight)=(0, 9.83599647879600524902e-02) (1, 3.78335937857627868652e-02) (2, 4.34456840157508850098e-02) (3, -5.48296198248863220215e-02) (4, -3.60007584095001220703e-02) (5, -6.19636587798595428467e-02) (6, -8.57484117150306701660e-02) (7, -9.55210030078887939453e-02) (8, 5.71647807955741882324e-02) (9, 2.61887386441230773926e-02) (10, 3.70599329471588134766e-03) (11, -3.40022891759872436523e-02) (12, 9.32784751057624816895e-02) (13, -8.36732983589172363281e-02) (14, -5.02578690648078918457e-02) (15, 7.50318542122840881348e-02) (16, -8.37315618991851806641e-02) (17, -6.01304024457931518555e-02) (18, -4.57559339702129364014e-02) (19, -4.96407561004161834717e-02) (20, -8.58426392078399658203e-02) (21, -8.42155814170837402344e-02) (22, -2.79291719198226928711e-02) (23, -9.61956009268760681152e-02) (24, 8.50672349333763122559e-02) (25, -4.21152189373970031738e-02) (26, 2.81349793076515197754e-02) (27, -1.84565186500549316406e-02) (28, 1.67854875326156616211e-03) (29, -3.97433452308177947998e-02) (30, -1.94744020700454711914e-02) (31, 3.85269522666931152344e-05) (32, 9.80902537703514099121e-02) (33, -7.60287269949913024902e-02) (34, 4.52089086174964904785e-02) (35, -3.79105024039745330811e-02) (36, -3.79923842847347259521e-02) (37, 5.94604983925819396973e-02) (38, -3.34315076470375061035e-02) (39, -8.08276012539863586426e-02) (40, -1.43507570028305053711e-02) (41, 7.02744796872138977051e-02) (42, -1.48298963904380798340e-02) (43, -2.10722833871841430664e-02) (44, 8.66011902689933776855e-02) (45, 3.49122360348701477051e-02) (46, -4.60404418408870697021e-02) (47, -9.71303805708885192871e-02) (48, 7.47818425297737121582e-02) (49, 8.20362567901611328125e-03) (50, -4.67711351811885833740e-02) (51, 8.89391973614692687988e-02) (52, 2.39880457520484924316e-02) (53, 2.52996906638145446777e-02) (54, 9.27435979247093200684e-02) (55, 9.05527919530868530273e-03) (56, 8.31844881176948547363e-02) (57, 2.08785682916641235352e-02) (58, 9.05987694859504699707e-02) (59, -1.51369646191596984863e-02) (60, 8.11352208256721496582e-02) (61, -2.88756489753723144531e-02) (62, 8.49015638232231140137e-02) (63, 7.92254731059074401855e-02) (64, -4.90437448024749755859e-03) (65, 3.01104709506034851074e-02) (66, -5.86850307881832122803e-02) (67, 5.71032389998435974121e-02) (68, -1.04290246963500976562e-02) (69, 7.88346678018569946289e-03) (70, 7.62756541371345520020e-02) (71, 7.52202197909355163574e-02) (72, -2.18420550227165222168e-02) (73, -3.85542586445808410645e-02) (74, -4.58520725369453430176e-02) (75, -3.52408736944198608398e-02) (76, 9.63579788804054260254e-02) (77, 8.10749828815460205078e-03) (78, -3.23712453246116638184e-02) (79, 7.11398199200630187988e-02) (80, -8.36888849735260009766e-02) (81, 2.08576172590255737305e-02) (82, 6.00790157914161682129e-02) (83, 4.02991697192192077637e-02) (84, -5.38426898419857025146e-02) (85, 5.28225973248481750488e-02) (86, -5.06455600261688232422e-02) (87, -7.06582069396972656250e-02) (88, -2.62988358736038208008e-02) (89, -6.00468032062053680420e-02) (90, 1.42048224806785583496e-02) (91, -4.51636090874671936035e-02) (92, 1.10775455832481384277e-02) (93, -8.93607735633850097656e-04) (94, -6.59381449222564697266e-02) (95, -9.38268229365348815918e-02) (96, -7.07831382751464843750e-02) (97, -2.46231704950332641602e-02) (98, 6.32764175534248352051e-02) (99, 1.87878385186195373535e-02) (100, 8.32602903246879577637e-02) (101, 3.95520702004432678223e-02) (102, -5.99195063114166259766e-03) (103, -3.85817661881446838379e-02) (104, -9.90021899342536926270e-02) (105, 4.81559857726097106934e-02) (106, 2.61773541569709777832e-02) (107, 9.73557904362678527832e-02) (108, -4.37365286052227020264e-02) (109, 9.38061103224754333496e-02) (110, 6.84956088662147521973e-02) (111, -2.74254083633422851562e-02) (112, 1.46637335419654846191e-02) (113, 2.85746231675148010254e-02) (114, -8.71262475848197937012e-02) (115, 6.08210489153861999512e-02) (116, -1.86027735471725463867e-02) (117, -3.77718098461627960205e-02) (118, 9.01628360152244567871e-02) (119, 5.50983920693397521973e-02) (120, 2.18138843774795532227e-03) (121, 4.36766445636749267578e-03) (122, -9.00652185082435607910e-02) (123, -8.67410600185394287109e-02) (124, -9.65259522199630737305e-02) (125, -5.60033582150936126709e-02) (126, -8.05678740143775939941e-02) (127, -6.73090815544128417969e-02) (128, 1.93734765052795410156e-02) (129, 8.27085450291633605957e-02) (130, 5.14787510037422180176e-02) (131, 2.63376533985137939453e-03) (132, 2.22606211900711059570e-02) (133, -5.45131973922252655029e-02) (134, 6.40519931912422180176e-02) (135, 2.32584327459335327148e-02) (136, 9.36427786946296691895e-02) (137, -9.77063924074172973633e-03) (138, 2.06142291426658630371e-02) (139, -5.00937476754188537598e-02) (140, -1.59645229578018188477e-02) (141, -1.08901634812355041504e-02) (142, 2.24808454513549804688e-02) (143, 9.86992195248603820801e-02) (144, -8.23155418038368225098e-02) (145, 3.53545919060707092285e-02) (146, 5.95202520489692687988e-02) (147, -9.18313860893249511719e-04) (148, 9.75827798247337341309e-02) (149, 4.96831014752388000488e-02) (150, -4.58199270069599151611e-02) (151, -2.35818326473236083984e-04) (152, -4.59492467343807220459e-02) (153, -3.58851402997970581055e-02) (154, 1.30231231451034545898e-02) (155, -4.24751937389373779297e-02) (156, 8.11149924993515014648e-03) (157, 3.24552431702613830566e-02) (158, -9.78428125381469726562e-03) (159, -7.25150257349014282227e-02) (160, 1.51637941598892211914e-02) (161, -5.83055280148983001709e-02) (162, 3.01187410950660705566e-02) (163, -6.25755861401557922363e-02) (164, -1.28187313675880432129e-02) (165, -5.82925975322723388672e-03) (166, 6.06828406453132629395e-02) (167, -1.91759467124938964844e-02) (168, 8.44001099467277526855e-02) (169, -1.87029242515563964844e-02) (170, 3.07303145527839660645e-02) (171, -3.15644145011901855469e-02) (172, 7.04069212079048156738e-02) (173, -4.67888489365577697754e-02) (174, -3.28652039170265197754e-02) (175, 8.80913808941841125488e-02) (176, 8.85657444596290588379e-02) (177, -7.33449459075927734375e-02) (178, -1.28269493579864501953e-02) (179, 8.61485376954078674316e-02) (180, 7.63381347060203552246e-02) (181, 4.13531139492988586426e-02) (182, -1.40872895717620849609e-02) (183, -6.96111023426055908203e-02) (184, -9.45320203900337219238e-02) (185, 9.89358350634574890137e-02) (186, -1.20862945914268493652e-02) (187, 1.35794728994369506836e-02) (188, 3.13910767436027526855e-02) (189, 7.81294181942939758301e-02) (190, 4.10644486546516418457e-02) (191, -5.34451268613338470459e-02) (192, -8.01761075854301452637e-02) (193, -2.88168042898178100586e-02) (194, -1.60207077860832214355e-02) (195, 7.00516998767852783203e-03) (196, 6.53539374470710754395e-02) (197, -5.53378649055957794189e-02) (198, 8.78292247653007507324e-02) (199, 4.97540459036827087402e-02) (200, 2.59592011570930480957e-02) (201, 1.85595303773880004883e-02) (202, -8.18103626370429992676e-02) (203, -3.63387167453765869141e-03) (204, 7.17706754803657531738e-02) (205, -1.46755650639533996582e-02) (206, -1.55425071716308593750e-02) (207, 6.03364184498786926270e-02) (208, 1.19794830679893493652e-02) (209, 7.16305449604988098145e-02) (210, 4.64849546551704406738e-02) (211, -1.16823762655258178711e-02) (212, 1.29836648702621459961e-02) (213, -6.76023364067077636719e-02) (214, 1.87065228819847106934e-02) (215, 1.84516459703445434570e-02) (216, -6.86665102839469909668e-02) (217, -9.33797806501388549805e-02) (218, -6.79688751697540283203e-02) (219, 6.27245679497718811035e-02) (220, 8.47496464848518371582e-02) (221, 7.30955824255943298340e-02) (222, -9.07205641269683837891e-02) (223, -9.54264625906944274902e-02) (224, -5.57212159037590026855e-02) (225, -6.74127042293548583984e-03) (226, 1.15787014365196228027e-02) (227, -9.03672724962234497070e-02) (228, 3.79208698868751525879e-02) (229, -5.92082738876342773438e-04) (230, 5.93867823481559753418e-02) (231, -3.61199229955673217773e-02) (232, -8.20325613021850585938e-02) (233, 7.75764212012290954590e-02) (234, 6.02461919188499450684e-02) (235, 8.97381231188774108887e-02) (236, -3.70991379022598266602e-02) (237, -5.52963092923164367676e-02) (238, 5.00745400786399841309e-02) (239, 7.48803392052650451660e-02) (240, -8.36657658219337463379e-02) (241, -3.44051420688629150391e-03) (242, -3.68020310997962951660e-02) (243, 2.93179079890251159668e-02) (244, 2.89571508765220642090e-02) (245, 8.19044932723045349121e-02) (246, -5.22304438054561614990e-02) (247, 6.02906420826911926270e-02) (248, 8.85247215628623962402e-02) (249, -2.01993137598037719727e-02) (250, 2.30152010917663574219e-02) (251, 7.32743665575981140137e-02) (252, -4.71037328243255615234e-02) (253, 3.22946384549140930176e-02) (254, 7.78479054570198059082e-02) (255, -2.82494723796844482422e-03) (256, -7.44466260075569152832e-02) (0, -1.05733945965766906738e-02) (1, 6.80778920650482177734e-03) (2, 6.34742453694343566895e-02) (3, 8.88345316052436828613e-02) (4, -3.38054299354553222656e-02) (5, -7.26456791162490844727e-02) (6, -9.31980311870574951172e-02) (7, -5.62290064990520477295e-02) (8, 8.76005217432975769043e-02) (9, 9.65401008725166320801e-02) (10, 6.67184591293334960938e-03) (11, -6.76957964897155761719e-02) (12, 4.66146245598793029785e-02) (13, -1.84478014707565307617e-02) (14, -5.13615533709526062012e-02) (15, -5.68258836865425109863e-02) (16, 4.47501614689826965332e-02) (17, 7.79563561081886291504e-02) (18, 7.21312686800956726074e-02) (19, 2.66546681523323059082e-02) (20, -7.42740929126739501953e-02) (21, 3.24218943715095520020e-02) (22, 1.51793733239173889160e-02) (23, 5.52658736705780029297e-03) (24, -4.45628948509693145752e-02) (25, -1.15462616086006164551e-02) (26, 5.84228709340095520020e-02) (27, 8.77317562699317932129e-02) (28, -3.36983576416969299316e-02) (29, -4.44020815193653106689e-02) (30, -8.67148712277412414551e-02) (31, 5.57282641530036926270e-02) (32, 6.24057129025459289551e-02) (33, 7.67593756318092346191e-02) (34, 4.45627793669700622559e-02) (35, -7.13997259736061096191e-02) (36, -9.58863124251365661621e-02) (37, 5.13647571206092834473e-02) (38, -2.76287347078323364258e-02) (39, 9.17142108082771301270e-02) (40, 4.79048565030097961426e-02) (41, 7.90431275963783264160e-02) (42, -7.59815797209739685059e-02) (43, -5.48052042722702026367e-03) (44, -3.94046865403652191162e-02) (45, -2.73431390523910522461e-02) (46, 3.76935973763465881348e-02) (47, -9.46545228362083435059e-02) (48, -4.93867807090282440186e-02) (49, 9.82485711574554443359e-03) (50, 3.20001319050788879395e-02) (51, -2.36608758568763732910e-02) (52, -5.77532388269901275635e-02) (53, -5.28204888105392456055e-02) (54, 8.18657204508781433105e-02) (55, -2.31613218784332275391e-03) (56, 3.56332585215568542480e-02) (57, 4.02885749936103820801e-02) (58, -1.45843774080276489258e-02) (59, -9.80651006102561950684e-02) (60, 9.58864912390708923340e-02) (61, -1.29924714565277099609e-03) (62, 5.76631501317024230957e-02) (63, 5.82922026515007019043e-02) (64, -2.45398730039596557617e-02) (65, 2.22593545913696289062e-03) (66, 8.68924930691719055176e-02) (67, -2.04261764883995056152e-02) (68, -4.64093051850795745850e-02) (69, -4.07362543046474456787e-02) (70, -2.87119671702384948730e-02) (71, -9.85044613480567932129e-02) (72, -6.16931281983852386475e-02) (73, -4.69355285167694091797e-03) (74, -3.98498028516769409180e-03) (75, -1.09781324863433837891e-03) (76, 6.79633095860481262207e-02) (77, -6.62913918495178222656e-02) (78, 4.24766540527343750000e-03) (79, -8.14234688878059387207e-02) (80, 4.35334667563438415527e-02) (81, -6.37522041797637939453e-02) (82, -5.08434325456619262695e-03) (83, 8.57802256941795349121e-02) (84, -1.65726989507675170898e-02) (85, -2.32186168432235717773e-02) (86, -1.65359005331993103027e-02) (87, -8.09394419193267822266e-02) (88, -8.29300433397293090820e-02) (89, 6.88797309994697570801e-02) (90, -7.90045410394668579102e-02) (91, -8.70435461401939392090e-02) (92, -3.24195176362991333008e-02) (93, 7.86586031317710876465e-02) (94, 7.12486580014228820801e-02) (95, 4.30406108498573303223e-02) (96, -1.91154554486274719238e-02) (97, 5.81411346793174743652e-02) (98, -7.73855671286582946777e-02) (99, 3.44752445816993713379e-02) (100, -8.25951099395751953125e-02) (101, -6.09754025936126708984e-03) (102, 3.59707847237586975098e-02) (103, -4.42882440984249114990e-02) (104, 8.92089083790779113770e-02) (105, -6.80141970515251159668e-02) (106, 5.46139553189277648926e-02) (107, 5.71722313761711120605e-02) (108, -3.43055874109268188477e-02) (109, -4.11383919417858123779e-02) (110, 7.57487490773200988770e-02) (111, -9.07721146941184997559e-02) (112, -4.89059835672378540039e-03) (113, -2.93355807662010192871e-02) (114, 9.50081124901771545410e-02) (115, 7.85367116332054138184e-02) (116, 4.74457964301109313965e-02) (117, -2.15277820825576782227e-02) (118, 9.75972637534141540527e-02) (119, 6.45157620310783386230e-02) (120, -5.26480600237846374512e-02) (121, -8.14072787761688232422e-02) (122, 7.74722173810005187988e-02) (123, 1.49324163794517517090e-02) (124, 9.72513332962989807129e-02) (125, 4.87208738923072814941e-02) (126, -4.20269668102264404297e-02) (127, -2.18641236424446105957e-02) (128, 6.86202198266983032227e-03) (129, -1.94125324487686157227e-02) (130, -8.73888805508613586426e-02) (131, 2.42669135332107543945e-02) (132, 7.44899287819862365723e-02) (133, 4.85819056630134582520e-02) (134, 7.99786671996116638184e-02) (135, 6.36988356709480285645e-02) (136, 8.05677101016044616699e-02) (137, 3.45926210284233093262e-02) (138, 2.08710655570030212402e-02) (139, -5.37378787994384765625e-02) (140, 9.34542194008827209473e-02) (141, -3.38017195463180541992e-03) (142, -4.45099957287311553955e-02) (143, -1.14363804459571838379e-02) (144, 6.72842487692832946777e-02) (145, -4.95018772780895233154e-02) (146, -3.28996703028678894043e-02) (147, 1.47300511598587036133e-02) (148, 2.89703384041786193848e-02) (149, -3.53024005889892578125e-02) (150, -2.07542032003402709961e-02) (151, 7.63222798705101013184e-02) (152, -1.67096778750419616699e-02) (153, -4.32819835841655731201e-02) (154, -8.74529778957366943359e-03) (155, -1.94583460688591003418e-02) (156, -9.45611149072647094727e-02) (157, 4.92277368903160095215e-02) (158, 5.86775317788124084473e-02) (159, 1.23009085655212402344e-02) (160, -7.01847970485687255859e-02) (161, 7.12886527180671691895e-02) (162, -6.34321868419647216797e-02) (163, -9.56948697566986083984e-02) (164, 1.98705568909645080566e-02) (165, -8.34535211324691772461e-02) (166, 6.80039748549461364746e-02) (167, 4.38258051872253417969e-04) (168, 5.11390939354896545410e-02) (169, -1.11249536275863647461e-02) (170, 4.67003807425498962402e-02) (171, 4.45933118462562561035e-02) (172, 8.54948684573173522949e-02) (173, -9.78096127510070800781e-02) (174, -6.68430775403976440430e-02) (175, 5.27791157364845275879e-02) (176, -4.73114922642707824707e-02) (177, 2.57253646850585937500e-04) (178, -3.24908420443534851074e-02) (179, 8.16588476300239562988e-02) (180, 6.49548545479774475098e-02) (181, 4.67549636960029602051e-02) (182, 5.79811409115791320801e-02) (183, -5.17548285424709320068e-02) (184, -9.65270251035690307617e-02) (185, -5.07641695439815521240e-02) (186, 2.87868306040763854980e-02) (187, -9.10881385207176208496e-02) (188, 9.84635725617408752441e-02) (189, -1.25356465578079223633e-02) (190, 2.12127715349197387695e-02) (191, -7.17212259769439697266e-02) (192, -4.12469990551471710205e-02) (193, 5.77805712819099426270e-02) (194, -6.74160942435264587402e-02) (195, 7.86235406994819641113e-02) (196, 7.43270590901374816895e-02) (197, -9.94121208786964416504e-02) (198, -2.09381878376007080078e-02) (199, 2.54661515355110168457e-02) (200, -1.05370730161666870117e-02) (201, -7.42378085851669311523e-02) (202, -2.99405530095100402832e-02) (203, -2.50422060489654541016e-02) (204, -7.20474272966384887695e-02) (205, 3.21637094020843505859e-03) (206, -7.22630918025970458984e-02) (207, -1.93589180707931518555e-02) (208, -9.65263769030570983887e-02) (209, -4.75393235683441162109e-03) (210, -3.77000682055950164795e-02) (211, 6.84284791350364685059e-02) (212, -5.79989776015281677246e-02) (213, -7.97189399600028991699e-02) (214, -8.33263546228408813477e-02) (215, -5.45260012149810791016e-02) (216, -3.04831117391586303711e-02) (217, 4.54604700207710266113e-02) (218, -4.56141419708728790283e-02) (219, -3.20195406675338745117e-02) (220, -6.70751780271530151367e-02) (221, 7.55986347794532775879e-02) (222, -3.74077260494232177734e-03) (223, -8.32218676805496215820e-03) (224, 3.33792045712471008301e-02) (225, 2.88431420922279357910e-02) (226, -2.96986326575279235840e-02) (227, 7.70626217126846313477e-03) (228, 2.94310227036476135254e-02) (229, 4.93631735444068908691e-02) (230, -6.68275952339172363281e-02) (231, -8.11060518026351928711e-02) (232, 7.51253738999366760254e-02) (233, 3.23184579610824584961e-03) (234, -6.14826381206512451172e-03) (235, -9.69220548868179321289e-02) (236, -9.35517773032188415527e-02) (237, 2.15886458754539489746e-02) (238, -1.62809714674949645996e-02) (239, -9.00781527161598205566e-02) (240, -8.31652879714965820312e-02) (241, 4.60189655423164367676e-02) (242, 7.83503279089927673340e-02) (243, -4.11642603576183319092e-02) (244, 6.63000270724296569824e-02) (245, 9.50239673256874084473e-02) (246, 4.30973619222640991211e-03) (247, -6.41830861568450927734e-02) (248, 4.04844358563423156738e-02) (249, 5.86956068873405456543e-02) (250, 3.79737466573715209961e-03) (251, 7.34092667698860168457e-02) (252, 3.42942252755165100098e-02) (253, -9.99433994293212890625e-02) (254, -3.49129289388656616211e-02) (255, -3.23265641927719116211e-02) (256, 2.88997367024421691895e-02) (0, 3.53884473443031311035e-02) (1, 7.53796920180320739746e-02) (2, -4.16692383587360382080e-02) (3, -1.52483806014060974121e-02) (4, -9.14478972554206848145e-02) (5, -2.27752923965454101562e-02) (6, -4.01230156421661376953e-02) (7, 1.17839574813842773438e-02) (8, 7.10764452815055847168e-02) (9, -3.70450690388679504395e-02) (10, 1.82321816682815551758e-02) (11, -7.33490288257598876953e-03) (12, 4.66739609837532043457e-02) (13, 2.81540229916572570801e-02) (14, 9.49981063604354858398e-03) (15, -7.30708241462707519531e-03) (16, 6.50434195995330810547e-03) (17, 6.83355554938316345215e-02) (18, -4.10070605576038360596e-02) (19, 1.52832269668579101562e-03) (20, -2.73547098040580749512e-02) (21, -5.19014894962310791016e-03) (22, -5.79872429370880126953e-02) (23, -6.86591118574142456055e-02) (24, 9.86072197556495666504e-02) (25, -8.45779851078987121582e-02) (26, 6.56351074576377868652e-02) (27, 9.86638292670249938965e-02) (28, -1.94909125566482543945e-02) (29, -6.66914582252502441406e-02) (30, 2.75635644793510437012e-02) (31, -8.41024741530418395996e-02) (32, -9.13117602467536926270e-02) (33, 8.58943238854408264160e-02) (34, 6.49139285087585449219e-04) (35, -8.27596560120582580566e-02) (36, -3.68809700012207031250e-02) (37, 6.05261400341987609863e-02) (38, 2.90242955088615417480e-02) (39, -6.58045262098312377930e-02) (40, -7.65189379453659057617e-02) (41, -5.27435280382633209229e-02) (42, 2.68605723977088928223e-02) (43, 7.01550319790840148926e-02) (44, 7.54104927182197570801e-02) (45, -6.36396184563636779785e-02) (46, -3.71520593762397766113e-02) (47, -1.80851593613624572754e-02) (48, -9.53040644526481628418e-02) (49, 2.18408852815628051758e-02) (50, 8.34431722760200500488e-02) (51, -2.26587802171707153320e-02) (52, -8.33492651581764221191e-02) (53, -7.45440796017646789551e-02) (54, 8.68210941553115844727e-03) (55, -8.47420394420623779297e-02) (56, -5.91220669448375701904e-02) (57, -2.56827771663665771484e-02) (58, -8.60782191157341003418e-02) (59, 2.13870182633399963379e-02) (60, 7.62577354907989501953e-03) (61, 4.14853468537330627441e-02) (62, 3.72845605015754699707e-02) (63, 1.63140147924423217773e-02) (64, 2.73796692490577697754e-02) (65, -6.20663054287433624268e-02) (66, 3.35543677210807800293e-02) (67, 9.04986932873725891113e-02) (68, 9.84598323702812194824e-02) (69, -3.74213457107543945312e-02) (70, -7.53058269619941711426e-02) (71, -7.80591070652008056641e-02) (72, 9.83512401580810546875e-03) (73, 5.15547469258308410645e-02) (74, 9.20959189534187316895e-02) (75, -1.47543773055076599121e-02) (76, 8.79151299595832824707e-02) (77, -4.50561419129371643066e-02) (78, 6.71604648232460021973e-02) (79, 9.26110669970512390137e-02) (80, 7.67847374081611633301e-02) (81, 5.06036356091499328613e-02) (82, -3.00477147102355957031e-02) (83, 9.34354737401008605957e-02) (84, 7.60595425963401794434e-02) (85, 7.86343887448310852051e-02) (86, -9.13065671920776367188e-02) (87, -8.30625221133232116699e-02) (88, -4.70483861863613128662e-02) (89, -7.73847848176956176758e-02) (90, 3.83244976401329040527e-02) (91, 6.05774000287055969238e-02) (92, 6.41005709767341613770e-02) (93, -2.43909507989883422852e-02) (94, -2.31086015701293945312e-02) (95, -8.51976126432418823242e-03) (96, 1.35427489876747131348e-02) (97, -8.95542427897453308105e-02) (98, -1.80210620164871215820e-02) (99, 1.20025724172592163086e-02) (100, -2.69755870103836059570e-02) (101, 6.67311251163482666016e-03) (102, 3.39434668421745300293e-02) (103, 8.28595384955406188965e-02) (104, -4.17721383273601531982e-02) (105, 2.60393843054771423340e-02) (106, -3.18948403000831604004e-02) (107, -5.38570098578929901123e-02) (108, 8.09832438826560974121e-02) (109, -6.47343695163726806641e-02) (110, -6.12459443509578704834e-02) (111, 5.77679798007011413574e-02) (112, 8.58692601323127746582e-02) (113, 8.70634615421295166016e-03) (114, 5.12034520506858825684e-02) (115, 6.19288161396980285645e-02) (116, -1.26592591404914855957e-02) (117, 5.98968937993049621582e-02) (118, 7.88662955164909362793e-02) (119, 4.02923598885536193848e-02) (120, 8.25121030211448669434e-02) (121, 1.71907916665077209473e-02) (122, 8.69750976562500000000e-04) (123, 4.66126725077629089355e-02) (124, 9.27998349070549011230e-02) (125, 7.77611508965492248535e-02) (126, -6.19070976972579956055e-02) (127, 6.34257495403289794922e-03) (128, 8.82069095969200134277e-02) (129, 2.00718417763710021973e-02) (130, -8.16548541188240051270e-02) (131, -3.87686789035797119141e-02) (132, -7.32550472021102905273e-02) (133, 5.22886142134666442871e-02) (134, -5.59091381728649139404e-02) (135, -1.50271803140640258789e-02) (136, -2.16720029711723327637e-02) (137, 1.21960267424583435059e-02) (138, 3.11158075928688049316e-02) (139, -4.06887643039226531982e-02) (140, 4.74616512656211853027e-02) (141, 6.98698684573173522949e-02) (142, -8.29207822680473327637e-02) (143, 3.33309248089790344238e-02) (144, -2.14237868785858154297e-02) (145, 6.82826712727546691895e-02) (146, -4.74028289318084716797e-03) (147, 6.59169629216194152832e-02) (148, 2.81795486807823181152e-02) (149, -2.58739888668060302734e-02) (150, 6.20931386947631835938e-03) (151, 1.06916576623916625977e-02) (152, 9.13167968392372131348e-02) (153, -9.29209366440773010254e-02) (154, -4.26956787705421447754e-02) (155, 8.41166302561759948730e-02) (156, 8.48402157425880432129e-02) (157, -4.60277497768402099609e-03) (158, -9.54079627990722656250e-03) (159, 7.30471238493919372559e-02) (160, -8.45309346914291381836e-02) (161, 8.80435854196548461914e-03) (162, -6.57215565443038940430e-02) (163, -5.77859804034233093262e-02) (164, -3.89070324599742889404e-02) (165, -2.16306895017623901367e-02) (166, 2.71868333220481872559e-02) (167, 3.94209697842597961426e-02) (168, 9.05653461813926696777e-02) (169, -4.16973531246185302734e-02) (170, 9.87321957945823669434e-02) (171, 3.80269959568977355957e-02) (172, -7.18274861574172973633e-02) (173, -8.41885805130004882812e-02) (174, -2.86420807242393493652e-02) (175, 6.74872100353240966797e-03) (176, 8.40940847992897033691e-02) (177, 6.66176453232765197754e-02) (178, -2.73343175649642944336e-02) (179, 1.22736468911170959473e-02) (180, -5.92563562095165252686e-02) (181, 7.88750126957893371582e-02) (182, -7.70347043871879577637e-02) (183, -6.79395645856857299805e-02) (184, 8.59540775418281555176e-02) (185, -1.97303742170333862305e-02) (186, -8.38229358196258544922e-02) (187, 7.07942917943000793457e-02) (188, 7.56668522953987121582e-02) (189, 6.63627684116363525391e-03) (190, 4.38414141535758972168e-02) (191, 9.11359265446662902832e-02) (192, -8.45593810081481933594e-02) (193, 7.81198665499687194824e-02) (194, -6.66500627994537353516e-02) (195, -2.34664082527160644531e-02) (196, -4.35108244419097900391e-02) (197, 6.05367794632911682129e-02) (198, -8.40454474091529846191e-02) (199, -5.29454872012138366699e-02) (200, -8.11605751514434814453e-02) (201, -8.53132456541061401367e-02) (202, 8.50815251469612121582e-02) (203, -5.29880598187446594238e-02) (204, -6.95018321275711059570e-02) (205, -4.35605719685554504395e-02) (206, 5.37606701254844665527e-02) (207, -8.54077488183975219727e-02) (208, -7.69429281353950500488e-02) (209, -7.35736489295959472656e-02) (210, 2.68659070134162902832e-02) (211, -3.61992865800857543945e-02) (212, -9.46986451745033264160e-02) (213, 4.98312041163444519043e-02) (214, -4.13884222507476806641e-03) (215, 9.12554338574409484863e-02) (216, -6.98991790413856506348e-02) (217, 1.20382308959960937500e-02) (218, 6.20497092604637145996e-02) (219, -9.42323282361030578613e-02) (220, -8.13255012035369873047e-02) (221, 5.89112192392349243164e-03) (222, 9.69035848975181579590e-02) (223, -6.58848807215690612793e-02) (224, -1.59890204668045043945e-02) (225, -6.97464644908905029297e-02) (226, 1.06487125158309936523e-02) (227, 4.05001565814018249512e-02) (228, 9.07903090119361877441e-02) (229, 2.66032591462135314941e-02) (230, 8.75546708703041076660e-02) (231, -9.03702601790428161621e-02) (232, 4.12900224328041076660e-02) (233, 7.26361796259880065918e-02) (234, -4.33583222329616546631e-02) (235, 7.17881992459297180176e-02) (236, -7.09243863821029663086e-02) (237, -8.95976498723030090332e-02) (238, 8.63804444670677185059e-02) (239, -4.78673167526721954346e-02) (240, -6.31712973117828369141e-02) (241, 1.32463425397872924805e-02) (242, 1.59333944320678710938e-02) (243, -5.78699409961700439453e-02) (244, -3.69224622845649719238e-02) (245, -8.82054418325424194336e-02) (246, -6.66145235300064086914e-02) (247, -6.82164728641510009766e-03) (248, 2.38327831029891967773e-02) (249, 9.54351946711540222168e-02) (250, -1.05397403240203857422e-03) (251, 4.25072833895683288574e-02) (252, 1.32630765438079833984e-03) (253, -4.15037572383880615234e-03) (254, 7.66224041581153869629e-02) (255, 8.53372886776924133301e-02) (256, 2.61031463742256164551e-02) (0, -1.27288848161697387695e-02) (1, 2.58374288678169250488e-02) (2, 1.68934687972068786621e-02) (3, -8.61256271600723266602e-02) (4, 1.33921056985855102539e-02) (5, 2.65232101082801818848e-02) (6, 5.51644042134284973145e-02) (7, -1.39717236161231994629e-02) (8, 8.31648930907249450684e-02) (9, 2.69525721669197082520e-02) (10, 1.51038914918899536133e-02) (11, 9.35672447085380554199e-02) (12, 1.33330225944519042969e-02) (13, 6.72365799546241760254e-02) (14, -6.96040540933609008789e-02) (15, -7.34206363558769226074e-02) (16, -1.68300271034240722656e-02) (17, -2.74739935994148254395e-02) (18, -1.03430896997451782227e-02) (19, -5.03546744585037231445e-03) (20, 5.91149181127548217773e-03) (21, 8.28352645039558410645e-02) (22, -8.12026858329772949219e-02) (23, 1.34668499231338500977e-03) (24, -1.82187110185623168945e-02) (25, 6.13045915961265563965e-02) (26, -9.73270088434219360352e-02) (27, 7.76309147477149963379e-02) (28, 3.79269942641258239746e-02) (29, 8.80102738738059997559e-02) (30, 3.73407453298568725586e-03) (31, -7.48018920421600341797e-02) (32, 1.38477087020874023438e-02) (33, -7.93724581599235534668e-02) (34, -6.09275139868259429932e-02) (35, -7.27601870894432067871e-02) (36, 4.71507534384727478027e-02) (37, 9.42368730902671813965e-02) (38, 1.32680907845497131348e-02) (39, 3.03156450390815734863e-02) (40, 2.11894661188125610352e-02) (41, -7.16280117630958557129e-02) (42, 2.38828808069229125977e-02) (43, -6.54775202274322509766e-02) (44, 9.56085547804832458496e-02) (45, 5.42788282036781311035e-02) (46, -3.88981476426124572754e-02) (47, -2.12214663624763488770e-02) (48, -7.31951594352722167969e-02) (49, 5.07587566971778869629e-02) (50, 7.37430676817893981934e-02) (51, 3.27163264155387878418e-02) (52, 3.35940197110176086426e-02) (53, 9.25403907895088195801e-02) (54, -6.59369900822639465332e-02) (55, -8.46246853470802307129e-02) (56, 5.38449808955192565918e-02) (57, -6.32639974355697631836e-02) (58, 9.30062308907508850098e-02) (59, -8.22801887989044189453e-03) (60, -7.52537250518798828125e-02) (61, -3.25969606637954711914e-03) (62, 1.69700980186462402344e-02) (63, 3.85939851403236389160e-02) (64, 1.73678398132324218750e-02) (65, 5.60425743460655212402e-02) (66, 6.58337995409965515137e-02) (67, -3.54814082384109497070e-02) (68, 5.02794608473777770996e-02) (69, -2.08981037139892578125e-02) (70, 9.48342308402061462402e-02) (71, -2.85310819745063781738e-02) (72, 7.47387111186981201172e-03) (73, 1.87171250581741333008e-02) (74, 5.99141418933868408203e-03) (75, 3.08243930339813232422e-03) (76, -2.70040482282638549805e-02) (77, 6.70932605862617492676e-02) (78, 8.18609669804573059082e-02) (79, -1.99213624000549316406e-04) (80, 1.78520232439041137695e-02) (81, 5.56040480732917785645e-02) (82, -6.74828886985778808594e-02) (83, -4.85539622604846954346e-02) (84, 4.81444224715232849121e-02) (85, -3.34198772907257080078e-02) (86, -3.31786498427391052246e-02) (87, 1.98940932750701904297e-03) (88, 3.31612676382064819336e-03) (89, -4.01724167168140411377e-02) (90, 9.37613919377326965332e-02) (91, 2.80624106526374816895e-02) (92, 5.65678849816322326660e-02) (93, 1.07314810156822204590e-02) (94, -3.33436056971549987793e-02) (95, -2.60642692446708679199e-02) (96, -3.32259386777877807617e-02) (97, -6.75098150968551635742e-02) (98, 3.84543314576148986816e-02) (99, -8.29464793205261230469e-02) (100, 1.15920901298522949219e-02) (101, 3.32885608077049255371e-02) (102, -1.14775598049163818359e-02) (103, -8.09340327978134155273e-02) (104, -4.79943156242370605469e-02) (105, 9.45138409733772277832e-02) (106, 2.21484079957008361816e-02) (107, 2.50016376376152038574e-02) (108, 6.16071149706840515137e-02) (109, 4.00938093662261962891e-03) (110, -7.51975774765014648438e-02) (111, -2.05408781766891479492e-02) (112, -4.03865762054920196533e-02) (113, -4.26804609596729278564e-02) (114, 3.09051647782325744629e-02) (115, -9.22421514987945556641e-02) (116, 2.38996595144271850586e-02) (117, 9.77265164256095886230e-02) (118, 9.74725186824798583984e-03) (119, -7.27842152118682861328e-02) (120, -4.24459092319011688232e-02) (121, 3.50864231586456298828e-03) (122, 5.52781894803047180176e-02) (123, -8.58780294656753540039e-02) (124, -8.57598781585693359375e-02) (125, -7.80654177069664001465e-02) (126, -1.19422897696495056152e-02) (127, -1.89858227968215942383e-02) (128, -4.55752275884151458740e-02) (129, -7.34879672527313232422e-02) (130, -1.93230062723159790039e-03) (131, 6.60168603062629699707e-02) (132, 5.98006024956703186035e-02) (133, 8.65901485085487365723e-02) (134, 8.50828215479850769043e-02) (135, -8.81937146186828613281e-02) (136, 8.11039879918098449707e-02) (137, 7.23122060298919677734e-03) (138, 3.68079170584678649902e-02) (139, 4.27110865712165832520e-02) (140, -8.87593924999237060547e-02) (141, 6.16103485226631164551e-02) (142, -7.78297781944274902344e-02) (143, -2.91459709405899047852e-02) (144, -8.10701176524162292480e-02) (145, 5.30753806233406066895e-02) (146, -2.13881209492683410645e-02) (147, 4.28295508027076721191e-02) (148, 5.08018806576728820801e-02) (149, 8.83591249585151672363e-02) (150, 7.00453296303749084473e-02) (151, -9.16440263390541076660e-02) (152, -8.13222676515579223633e-03) (153, 2.53235176205635070801e-02) (154, -7.75220543146133422852e-02) (155, 6.10790401697158813477e-03) (156, 4.72581014037132263184e-02) (157, 1.05356574058532714844e-02) (158, 8.71220901608467102051e-02) (159, -9.83171239495277404785e-02) (160, 3.70476916432380676270e-02) (161, -1.48102194070816040039e-02) (162, 6.76997378468513488770e-02) (163, -3.15170735120773315430e-03) (164, -2.82200723886489868164e-02) (165, 5.27825579047203063965e-02) (166, 8.65457206964492797852e-03) (167, -4.71160821616649627686e-02) (168, -3.99862192571163177490e-02) (169, -5.45375086367130279541e-02) (170, 9.55950096249580383301e-02) (171, -2.87456065416336059570e-02) (172, -9.29271653294563293457e-02) (173, -8.22347700595855712891e-02) (174, 4.21084240078926086426e-02) (175, -7.39972814917564392090e-02) (176, 7.08406046032905578613e-02) (177, -7.92796984314918518066e-02) (178, 6.88322708010673522949e-02) (179, 2.16424912214279174805e-02) (180, -9.09205675125122070312e-02) (181, 3.88775989413261413574e-02) (182, 2.99984738230705261230e-02) (183, 9.47214663028717041016e-04) (184, -3.57988849282264709473e-02) (185, 5.24764135479927062988e-02) (186, -9.29448902606964111328e-02) (187, -8.85407850146293640137e-02) (188, -3.69879230856895446777e-02) (189, 9.41771939396858215332e-02) (190, -8.68579074740409851074e-02) (191, -9.99402403831481933594e-02) (192, -2.06330269575119018555e-02) (193, 8.08418318629264831543e-02) (194, -3.09194624423980712891e-03) (195, 5.11469021439552307129e-02) (196, 3.36243882775306701660e-02) (197, -9.44373756647109985352e-02) (198, -9.59691926836967468262e-02) (199, 9.36381742358207702637e-02) (200, -4.89748828113079071045e-02) (201, 9.96258333325386047363e-02) (202, -3.51074337959289550781e-02) (203, -4.19020466506481170654e-02) (204, -8.26089456677436828613e-02) (205, -9.29990187287330627441e-02) (206, -1.58993229269981384277e-02) (207, 8.82316604256629943848e-02) (208, -7.22787156701087951660e-02) (209, -4.70670647919178009033e-02) (210, 9.87415015697479248047e-03) (211, -6.31992816925048828125e-02) (212, 9.18105319142341613770e-02) (213, -6.01273812353610992432e-02) (214, 3.77479270100593566895e-02) (215, -4.39883582293987274170e-02) (216, 9.23490449786186218262e-02) (217, 4.48030307888984680176e-02) (218, -3.25291380286216735840e-02) (219, -4.46388833224773406982e-02) (220, 3.89802232384681701660e-02) (221, -1.93870514631271362305e-02) (222, -4.45791259407997131348e-02) (223, -8.16528052091598510742e-02) (224, -3.85452210903167724609e-02) (225, 5.23289367556571960449e-02) (226, 6.94940909743309020996e-02) (227, 9.50791761279106140137e-02) (228, 5.78915551304817199707e-02) (229, 7.35248997807502746582e-02) (230, 8.87173488736152648926e-02) (231, -9.10833254456520080566e-02) (232, 7.31507167220115661621e-02) (233, -4.63900975883007049561e-02) (234, -3.29853743314743041992e-02) (235, 9.05417874455451965332e-02) (236, -3.93891111016273498535e-02) (237, 5.11152967810630798340e-02) (238, 7.87734463810920715332e-02) (239, -1.16678327322006225586e-02) (240, -9.59517657756805419922e-02) (241, -1.13524049520492553711e-02) (242, 2.51329019665718078613e-02) (243, 9.58587601780891418457e-02) (244, 2.85202190279960632324e-02) (245, -3.71191799640655517578e-02) (246, -4.81295958161354064941e-02) (247, 2.08692401647567749023e-02) (248, -9.23161506652832031250e-02) (249, 1.93412676453590393066e-02) (250, 7.62303546071052551270e-02) (251, 4.66640666127204895020e-02) (252, 9.99542102217674255371e-02) (253, -6.83487653732299804688e-02) (254, 6.50112703442573547363e-02) (255, -3.85910049080848693848e-02) (256, 8.39801654219627380371e-02) (0, 3.45053598284721374512e-02) (1, -4.35118377208709716797e-02) (2, 4.18717339634895324707e-02) (3, 8.03025811910629272461e-03) (4, -5.47945015132427215576e-02) (5, 5.07884100079536437988e-02) (6, -1.88190191984176635742e-02) (7, -1.18459761142730712891e-03) (8, -8.21969732642173767090e-02) (9, -2.82772406935691833496e-02) (10, 5.94263002276420593262e-02) (11, 6.89183399081230163574e-02) (12, -4.95038032531738281250e-02) (13, -5.22415377199649810791e-02) (14, 7.29665681719779968262e-02) (15, 3.91437932848930358887e-02) (16, 7.28913620114326477051e-02) (17, 6.88253268599510192871e-02) (18, -3.23360040783882141113e-02) (19, -6.42278343439102172852e-02) (20, -7.93042629957199096680e-02) (21, 8.85332450270652770996e-02) (22, -5.65439723432064056396e-02) (23, 4.00369986891746520996e-02) (24, 6.47636130452156066895e-02) (25, 9.01200994849205017090e-02) (26, 3.99912074208259582520e-02) (27, 9.64148417115211486816e-02) (28, 5.51313832402229309082e-02) (29, -9.85997915267944335938e-02) (30, 8.03950056433677673340e-02) (31, -1.03632658720016479492e-02) (32, -4.21116314828395843506e-02) (33, 2.22667306661605834961e-02) (34, 9.76669862866401672363e-02) (35, 3.09387594461441040039e-03) (36, -2.69448608160018920898e-02) (37, -2.11520269513130187988e-02) (38, -9.80907231569290161133e-02) (39, -9.14184004068374633789e-03) (40, 5.05707338452339172363e-02) (41, 6.13355711102485656738e-02) (42, -4.02235053479671478271e-02) (43, -9.89330708980560302734e-02) (44, -9.09059718251228332520e-02) (45, -6.72569423913955688477e-02) (46, 4.02107164263725280762e-02) (47, 8.19853767752647399902e-02) (48, -9.84316021203994750977e-02) (49, -9.21252891421318054199e-02) (50, -8.22424441576004028320e-02) (51, -7.77358710765838623047e-02) (52, 9.64079573750495910645e-02) (53, -3.87864187359809875488e-02) (54, 6.23011365532875061035e-02) (55, 6.11715689301490783691e-02) (56, -4.86663170158863067627e-02) (57, 2.29234993457794189453e-03) (58, 5.75864091515541076660e-02) (59, -9.35349464416503906250e-02) (60, 3.69255244731903076172e-03) (61, 3.79814133048057556152e-02) (62, -3.89821827411651611328e-03) (63, 6.15809336304664611816e-02) (64, -3.97518463432788848877e-02) (65, -6.23122602701187133789e-03) (66, -3.53251993656158447266e-02) (67, 3.33032831549644470215e-02) (68, 7.26167485117912292480e-02) (69, -3.34159284830093383789e-02) (70, -7.58385509252548217773e-02) (71, 2.31874808669090270996e-02) (72, -7.20803588628768920898e-02) (73, -1.60620510578155517578e-02) (74, 2.42544189095497131348e-02) (75, -6.29863291978836059570e-02) (76, 1.66810154914855957031e-02) (77, -3.55348661541938781738e-02) (78, -8.10009464621543884277e-02) (79, 1.82494074106216430664e-02) (80, -2.76601538062095642090e-02) (81, -6.32433891296386718750e-02) (82, 4.05135378241539001465e-02) (83, -3.12521979212760925293e-02) (84, -2.02980637550354003906e-03) (85, 2.81467288732528686523e-03) (86, -7.00806379318237304688e-02) (87, 4.93038818240165710449e-02) (88, -9.48929786682128906250e-02) (89, 8.75057652592658996582e-02) (90, 5.57689294219017028809e-02) (91, 8.79957526922225952148e-03) (92, 2.54871919751167297363e-02) (93, -4.81292866170406341553e-02) (94, -2.96194925904273986816e-02) (95, 8.57353433966636657715e-02) (96, 4.56394925713539123535e-02) (97, 3.50553169846534729004e-02) (98, 1.90386325120925903320e-02) (99, 1.82562321424484252930e-02) (100, -9.83606129884719848633e-02) (101, 4.32000830769538879395e-02) (102, -5.85562773048877716064e-02) (103, -7.04409703612327575684e-02) (104, -7.28619694709777832031e-02) (105, 6.56981393694877624512e-02) (106, -3.34272980690002441406e-02) (107, 4.38190475106239318848e-02) (108, -6.98367282748222351074e-02) (109, -1.44282430410385131836e-02) (110, -3.79315428435802459717e-02) (111, 2.50311940908432006836e-03) (112, 2.23283618688583374023e-02) (113, -9.74180027842521667480e-02) (114, 7.12509229779243469238e-02) (115, -7.97014385461807250977e-02) (116, 5.39667904376983642578e-03) (117, -9.88297164440155029297e-02) (118, 6.96024373173713684082e-02) (119, 1.05036944150924682617e-02) (120, 8.86760577559471130371e-02) (121, 2.53713801503181457520e-02) (122, -8.06967243552207946777e-02) (123, 1.41632407903671264648e-02) (124, 7.72420838475227355957e-02) (125, -1.03162080049514770508e-02) (126, -1.01417303085327148438e-04) (127, 2.28815674781799316406e-02) (128, -7.52608999609947204590e-02) (129, -8.10627862811088562012e-02) (130, -5.88621906936168670654e-02) (131, -7.36215114593505859375e-02) (132, 6.21372982859611511230e-02) (133, -1.74184665083885192871e-02) (134, -4.40624766051769256592e-02) (135, 8.92753377556800842285e-02) (136, -5.17203286290168762207e-02) (137, 2.25102156400680541992e-02) (138, 3.30943837761878967285e-02) (139, -2.15570554137229919434e-02) (140, -9.19180214405059814453e-02) (141, 9.51628312468528747559e-02) (142, 8.09460654854774475098e-02) (143, 3.04103568196296691895e-02) (144, 9.77448299527168273926e-02) (145, 5.21969869732856750488e-02) (146, 5.07088974118232727051e-02) (147, 3.14150750637054443359e-03) (148, 5.33672645688056945801e-02) (149, 2.03113406896591186523e-02) (150, -8.63547921180725097656e-02) (151, 4.20433208346366882324e-02) (152, -5.43172918260097503662e-02) (153, -6.70515149831771850586e-02) (154, -4.37934361398220062256e-02) (155, -7.70752131938934326172e-02) (156, 2.26322785019874572754e-02) (157, 5.61051443219184875488e-02) (158, 4.58063557744026184082e-02) (159, 4.73713800311088562012e-02) (160, 7.50423595309257507324e-02) (161, 8.69441702961921691895e-02) (162, 7.37498626112937927246e-02) (163, 3.71796563267707824707e-02) (164, -3.04742902517318725586e-02) (165, -7.03126117587089538574e-02) (166, 2.64549925923347473145e-02) (167, 1.78053751587867736816e-02) (168, 5.21976128220558166504e-02) (169, -4.04506325721740722656e-02) (170, 9.62483212351799011230e-02) (171, 6.02795854210853576660e-02) (172, -4.52877953648567199707e-02) (173, 7.71943852305412292480e-02) (174, -9.31006669998168945312e-03) (175, -4.75429557263851165771e-02) (176, 2.93913558125495910645e-02) (177, -5.86011633276939392090e-02) (178, 5.55985644459724426270e-02) (179, -1.72413736581802368164e-02) (180, 6.17101863026618957520e-02) (181, 6.92437663674354553223e-02) (182, -7.51980543136596679688e-02) (183, -9.26071107387542724609e-02) (184, -9.78077426552772521973e-02) (185, -1.89914852380752563477e-02) (186, -6.96823224425315856934e-02) (187, 2.48245373368263244629e-02) (188, -6.28863424062728881836e-02) (189, 7.61240348219871520996e-02) (190, -2.78040841221809387207e-02) (191, -8.78439843654632568359e-02) (192, 6.30682185292243957520e-02) (193, -5.40542155504226684570e-02) (194, 4.93356660008430480957e-02) (195, -6.74060732126235961914e-02) (196, -2.43668258190155029297e-02) (197, -2.42093354463577270508e-02) (198, 5.03993108868598937988e-02) (199, -7.21692144870758056641e-02) (200, 3.53400334715843200684e-02) (201, 4.66476157307624816895e-02) (202, 8.81103798747062683105e-02) (203, 9.00522395968437194824e-02) (204, 2.38419994711875915527e-02) (205, -2.11996883153915405273e-02) (206, -5.74907176196575164795e-02) (207, -4.67666350305080413818e-02) (208, 2.01991423964500427246e-02) (209, 9.81078371405601501465e-02) (210, 3.59919890761375427246e-02) (211, -1.80906802415847778320e-02) (212, 6.73516020178794860840e-02) (213, 6.07939437031745910645e-02) (214, -1.06977894902229309082e-02) (215, 6.95438757538795471191e-02) (216, -5.81975467503070831299e-02) (217, 1.96198970079421997070e-02) (218, -5.63158839941024780273e-03) (219, -2.10838839411735534668e-02) (220, -4.25606966018676757812e-03) (221, 6.65643289685249328613e-02) (222, -8.92786681652069091797e-03) (223, -4.11878526210784912109e-02) (224, -8.74898880720138549805e-02) (225, -5.95921985805034637451e-02) (226, -8.59393179416656494141e-03) (227, -1.18567198514938354492e-02) (228, 1.61984711885452270508e-02) (229, -5.81946261227130889893e-02) (230, 1.59740671515464782715e-02) (231, -4.84615042805671691895e-02) (232, 8.84530022740364074707e-02) (233, 4.08444553613662719727e-03) (234, -5.84092661738395690918e-02) (235, 1.22950077056884765625e-02) (236, 8.28847512602806091309e-02) (237, -1.58999785780906677246e-02) (238, 6.55283704400062561035e-02) (239, 3.08389961719512939453e-03) (240, -1.77921429276466369629e-02) (241, 1.52037292718887329102e-03) (242, 8.49932208657264709473e-02) (243, -5.04405349493026733398e-02) (244, -3.76856923103332519531e-02) (245, -2.57045626640319824219e-02) (246, -8.08966681361198425293e-02) (247, 4.11675870418548583984e-03) (248, 9.39153209328651428223e-02) (249, 1.34717449545860290527e-02) (250, 8.30328688025474548340e-02) (251, -1.03407427668571472168e-02) (252, -1.99639350175857543945e-02) (253, -2.58949920535087585449e-02) (254, 4.84713986515998840332e-02) (255, -7.45381414890289306641e-03) (256, 1.45128145813941955566e-02) (0, -6.01225271821022033691e-02) (1, 8.06894674897193908691e-02) (2, -6.92887231707572937012e-02) (3, -1.83171480894088745117e-02) (4, -3.33646684885025024414e-03) (5, -1.77502185106277465820e-02) (6, -2.98641547560691833496e-02) (7, -9.92520228028297424316e-02) (8, 2.38405093550682067871e-02) (9, 8.24308469891548156738e-02) (10, 8.36327299475669860840e-02) (11, -9.20594707131385803223e-02) (12, 4.79592159390449523926e-02) (13, -1.32833719253540039062e-02) (14, -9.85161215066909790039e-03) (15, -5.05204126238822937012e-02) (16, -2.82901450991630554199e-02) (17, 3.97078469395637512207e-02) (18, 1.17938965559005737305e-02) (19, 4.60052862763404846191e-02) (20, 5.88111951947212219238e-02) (21, -8.40893387794494628906e-02) (22, 3.99206206202507019043e-02) (23, -2.77170687913894653320e-02) (24, 9.89435389637947082520e-02) (25, -7.04201310873031616211e-02) (26, 5.23189976811408996582e-02) (27, -2.69514545798301696777e-02) (28, 7.80512765049934387207e-02) (29, -5.51348179578781127930e-02) (30, 8.75613614916801452637e-02) (31, -8.20712521672248840332e-02) (32, -7.44453519582748413086e-02) (33, -8.17273706197738647461e-02) (34, -3.88406217098236083984e-04) (35, 2.22181826829910278320e-02) (36, 5.22412359714508056641e-04) (37, 6.97474405169486999512e-02) (38, 2.29661688208580017090e-02) (39, -7.56370723247528076172e-02) (40, 5.21782860159873962402e-02) (41, 6.59890472888946533203e-03) (42, -6.76965415477752685547e-02) (43, 1.37507915496826171875e-04) (44, 9.33155342936515808105e-02) (45, 2.24518552422523498535e-02) (46, 4.96171042323112487793e-02) (47, -3.49746197462081909180e-02) (48, -3.78402955830097198486e-02) (49, -3.85890007019042968750e-02) (50, -8.89693275094032287598e-02) (51, -7.90291056036949157715e-02) (52, -2.26783379912376403809e-02) (53, 5.09512946009635925293e-02) (54, -6.74617290496826171875e-03) (55, -2.37348005175590515137e-02) (56, 8.05311575531959533691e-02) (57, -5.44271692633628845215e-02) (58, 4.93137314915657043457e-02) (59, 5.85824325680732727051e-02) (60, -9.56198573112487792969e-03) (61, 3.68750914931297302246e-02) (62, 7.65111818909645080566e-02) (63, 1.59926638007164001465e-02) (64, 5.51477298140525817871e-02) (65, -2.38772258162498474121e-02) (66, -6.17891512811183929443e-02) (67, -4.43298593163490295410e-02) (68, -5.41297867894172668457e-02) (69, 6.11770227551460266113e-02) (70, -1.99669301509857177734e-02) (71, 9.80485156178474426270e-02) (72, -3.22240814566612243652e-02) (73, 1.23365297913551330566e-02) (74, -1.81398540735244750977e-03) (75, -3.89085523784160614014e-02) (76, -6.52116239070892333984e-02) (77, -5.21968826651573181152e-02) (78, 2.61168256402015686035e-02) (79, -3.05192172527313232422e-03) (80, 9.21411812305450439453e-03) (81, 3.71474996209144592285e-02) (82, 1.79189667105674743652e-02) (83, 8.65357741713523864746e-02) (84, -1.19012147188186645508e-02) (85, -8.88272002339363098145e-02) (86, -3.71990203857421875000e-02) (87, -3.13700586557388305664e-02) (88, -4.32543642818927764893e-02) (89, -8.78852829337120056152e-02) (90, -7.27876275777816772461e-02) (91, 4.71836552023887634277e-02) (92, 4.89898249506950378418e-02) (93, -9.62764546275138854980e-02) (94, -3.68236824870109558105e-02) (95, 4.13753837347030639648e-03) (96, -2.01536864042282104492e-02) (97, 1.38716399669647216797e-03) (98, 5.98076805472373962402e-02) (99, 2.57165357470512390137e-02) (100, -3.74358221888542175293e-02) (101, -6.01592473685741424561e-02) (102, 2.37650424242019653320e-02) (103, 3.03400829434394836426e-02) (104, 5.21772876381874084473e-02) (105, -7.80489444732666015625e-02) (106, 9.14315357804298400879e-02) (107, 8.69656577706336975098e-02) (108, -3.02458256483078002930e-02) (109, 1.75483599305152893066e-02) (110, -1.60862654447555541992e-02) (111, 7.89682939648628234863e-02) (112, -4.53041382133960723877e-02) (113, -9.81672927737236022949e-02) (114, 6.55040815472602844238e-02) (115, 4.27946522831916809082e-02) (116, -8.69944915175437927246e-02) (117, -7.16949552297592163086e-02) (118, -8.85754153132438659668e-02) (119, -3.02488505840301513672e-02) (120, -5.95802329480648040771e-02) (121, -6.13630451261997222900e-02) (122, -8.30652043223381042480e-02) (123, 8.94095823168754577637e-02) (124, -5.76394982635974884033e-02) (125, -1.98888853192329406738e-02) (126, -6.45287334918975830078e-03) (127, 2.22068205475807189941e-02) (128, 8.14982727169990539551e-02) (129, -4.66451831161975860596e-02) (130, -5.20766489207744598389e-02) (131, -5.59375435113906860352e-02) (132, -6.80442899465560913086e-03) (133, 7.16883912682533264160e-02) (134, 7.44025483727455139160e-02) (135, -5.46271465718746185303e-02) (136, 9.36394408345222473145e-02) (137, 6.58340826630592346191e-02) (138, -6.76614940166473388672e-02) (139, -3.66063863039016723633e-02) (140, -1.66175514459609985352e-02) (141, 1.62522420287132263184e-02) (142, -5.76380938291549682617e-02) (143, 3.80783155560493469238e-02) (144, 1.80849581956863403320e-02) (145, -9.21340286731719970703e-02) (146, -1.91270411014556884766e-02) (147, 3.10904607176780700684e-02) (148, -6.38289749622344970703e-02) (149, -7.70245492458343505859e-03) (150, -9.91583913564682006836e-02) (151, -2.34092101454734802246e-02) (152, 3.09345051646232604980e-02) (153, -8.22235867381095886230e-02) (154, -3.39996293187141418457e-02) (155, 7.32950046658515930176e-02) (156, -2.11247056722640991211e-03) (157, 5.95474913716316223145e-02) (158, -4.49817627668380737305e-03) (159, -2.06141918897628784180e-02) (160, -8.70976820588111877441e-02) (161, 4.34251800179481506348e-02) (162, 2.34482511878013610840e-02) (163, 6.09789043664932250977e-03) (164, 1.51135697960853576660e-02) (165, -2.14919447898864746094e-03) (166, 5.14707490801811218262e-02) (167, 8.75300168991088867188e-03) (168, -3.63151058554649353027e-02) (169, 8.38092491030693054199e-02) (170, 7.21466168761253356934e-02) (171, 4.70673516392707824707e-02) (172, 6.14896416664123535156e-05) (173, -8.54914784431457519531e-02) (174, -1.48543491959571838379e-02) (175, -8.18535536527633666992e-02) (176, -7.76254981756210327148e-02) (177, 6.60186037421226501465e-02) (178, 4.92369011044502258301e-02) (179, -4.14544753730297088623e-02) (180, -4.16838489472866058350e-02) (181, 5.00785186886787414551e-02) (182, 3.51363196969032287598e-02) (183, 8.92506614327430725098e-02) (184, 6.78549483418464660645e-02) (185, -9.88633111119270324707e-02) (186, 6.25456646084785461426e-02) (187, -3.42575386166572570801e-02) (188, 6.06841966509819030762e-02) (189, -4.19525206089019775391e-02) (190, 4.51282635331153869629e-02) (191, 7.35865160822868347168e-02) (192, -9.85273495316505432129e-02) (193, -3.14234793186187744141e-02) (194, -2.03156024217605590820e-02) (195, 1.65862217545509338379e-02) (196, 6.64273276925086975098e-02) (197, -6.88448697328567504883e-02) (198, -7.46607780456542968750e-02) (199, -6.98877796530723571777e-02) (200, -8.50356221199035644531e-02) (201, 9.74858477711677551270e-02) (202, 7.71795585751533508301e-02) (203, 1.50258764624595642090e-02) (204, -8.80056321620941162109e-02) (205, -3.76747846603393554688e-02) (206, 3.31723168492317199707e-02) (207, -6.56311362981796264648e-02) (208, -7.16561749577522277832e-02) (209, -1.75907760858535766602e-02) (210, -7.08560645580291748047e-03) (211, -1.33400186896324157715e-02) (212, -6.75122514367103576660e-02) (213, -7.19492956995964050293e-02) (214, -2.40893587470054626465e-02) (215, -9.96573120355606079102e-02) (216, -7.08126053214073181152e-02) (217, -6.15437030792236328125e-02) (218, -3.39148491621017456055e-02) (219, 8.98715928196907043457e-02) (220, -3.49622219800949096680e-03) (221, -8.87865871191024780273e-02) (222, 6.34580925107002258301e-02) (223, -2.02356278896331787109e-03) (224, -2.02100649476051330566e-02) (225, -5.68575151264667510986e-02) (226, -8.54373499751091003418e-02) (227, -5.37827350199222564697e-02) (228, -2.57023796439170837402e-02) (229, -6.00981265306472778320e-02) (230, -2.36705094575881958008e-02) (231, -1.07380002737045288086e-02) (232, -6.26122802495956420898e-02) (233, -4.64909486472606658936e-02) (234, -9.57121253013610839844e-02) (235, -5.06179183721542358398e-02) (236, 1.58342570066452026367e-02) (237, 3.74602004885673522949e-02) (238, -1.62490457296371459961e-02) (239, 4.41780909895896911621e-02) (240, -8.01305770874023437500e-02) (241, 7.66653493046760559082e-02) (242, -6.91619291901588439941e-02) (243, -4.76428233087062835693e-02) (244, -9.52839553356170654297e-02) (245, 6.74869865179061889648e-03) (246, -4.73001375794410705566e-02) (247, -6.60965591669082641602e-02) (248, 4.52050045132637023926e-02) (249, 1.87850147485733032227e-02) (250, -7.62249752879142761230e-02) (251, -5.82912229001522064209e-02) (252, 2.99984291195869445801e-02) (253, 8.72331187129020690918e-02) (254, 3.96852120757102966309e-02) (255, -9.02116447687149047852e-02) (256, -6.96243941783905029297e-02) (0, 5.42478635907173156738e-02) (1, -4.39943782985210418701e-02) (2, 4.67322766780853271484e-03) (3, 9.41497310996055603027e-02) (4, 3.23351100087165832520e-02) (5, 9.39352288842201232910e-02) (6, -6.84625506401062011719e-02) (7, 8.58441665768623352051e-02) (8, 9.82230976223945617676e-02) (9, -1.90804675221443176270e-02) (10, 1.67842209339141845703e-03) (11, 3.56833115220069885254e-02) (12, 6.46704807877540588379e-02) (13, -5.41434958577156066895e-02) (14, 5.55527284741401672363e-02) (15, 4.13358286023139953613e-02) (16, -2.33054235577583312988e-02) (17, -9.20900925993919372559e-02) (18, 4.60518673062324523926e-02) (19, 8.34432914853096008301e-02) (20, -3.93902324140071868896e-02) (21, 7.99553170800209045410e-02) (22, 2.86482796072959899902e-02) (23, 7.93947800993919372559e-02) (24, -9.62696596980094909668e-02) (25, 7.03570619225502014160e-02) (26, 9.39320027828216552734e-03) (27, 9.09634605050086975098e-02) (28, 1.00422725081443786621e-02) (29, 1.91815644502639770508e-02) (30, -7.86609351634979248047e-02) (31, -3.57098653912544250488e-02) (32, 7.51871988177299499512e-02) (33, 2.60122939944267272949e-02) (34, -4.15601246058940887451e-02) (35, 7.52229988574981689453e-03) (36, 1.99475139379501342773e-02) (37, -1.00226774811744689941e-02) (38, -6.63354247808456420898e-03) (39, 1.81706324219703674316e-02) (40, 7.08968564867973327637e-02) (41, 9.50448736548423767090e-02) (42, -4.61460649967193603516e-02) (43, 3.55673506855964660645e-02) (44, -5.90986162424087524414e-02) (45, -9.05933380126953125000e-02) (46, -2.30968445539474487305e-02) (47, 1.75959616899490356445e-02) (48, -8.26834291219711303711e-02) (49, -7.70449712872505187988e-02) (50, 1.03924423456192016602e-03) (51, -2.20736563205718994141e-02) (52, -9.70896556973457336426e-02) (53, -7.03124776482582092285e-02) (54, -4.26788702607154846191e-02) (55, -9.33593139052391052246e-02) (56, -9.99554172158241271973e-02) (57, 6.67143389582633972168e-02) (58, 9.76041480898857116699e-02) (59, 1.00868567824363708496e-02) (60, -1.41040980815887451172e-02) (61, -8.10567885637283325195e-02) (62, 7.43770077824592590332e-02) (63, -3.89169044792652130127e-02) (64, 4.49554994702339172363e-02) (65, -6.71831369400024414062e-02) (66, 6.86054006218910217285e-02) (67, -3.50969731807708740234e-02) (68, 2.27941870689392089844e-02) (69, -3.80281507968902587891e-02) (70, 8.30736681818962097168e-02) (71, -6.30895793437957763672e-03) (72, -4.29832711815834045410e-02) (73, -6.30724132061004638672e-02) (74, -7.07416161894798278809e-02) (75, -2.08188593387603759766e-03) (76, -5.36657385528087615967e-02) (77, 6.16154819726943969727e-03) (78, -8.44859331846237182617e-02) (79, -3.63491624593734741211e-02) (80, 2.91165784001350402832e-02) (81, 1.65533050894737243652e-02) (82, 4.15771678090095520020e-02) (83, 3.20269241929054260254e-02) (84, 4.62408289313316345215e-02) (85, 9.88982990384101867676e-02) (86, 3.86676117777824401855e-02) (87, 4.62854281067848205566e-02) (88, 6.56126365065574645996e-02) (89, 3.62717583775520324707e-02) (90, -4.36277166008949279785e-02) (91, -4.84914556145668029785e-02) (92, 5.52149787545204162598e-02) (93, -6.92507177591323852539e-02) (94, 1.25916376709938049316e-02) (95, 1.70484185218811035156e-04) (96, -3.64338532090187072754e-02) (97, -1.88029706478118896484e-02) (98, 6.50735124945640563965e-02) (99, 8.63603428006172180176e-02) (100, 4.31688800454139709473e-02) (101, 4.81471642851829528809e-02) (102, -1.99486166238784790039e-02) (103, -9.98143926262855529785e-02) (104, 8.50747600197792053223e-02) (105, 9.30976867675781250000e-03) (106, -1.89627707004547119141e-03) (107, -6.85909837484359741211e-02) (108, -8.45286846160888671875e-02) (109, 1.36177912354469299316e-02) (110, -4.94014471769332885742e-03) (111, 4.45879027247428894043e-02) (112, -6.98288977146148681641e-02) (113, -6.33629709482192993164e-02) (114, -2.33851820230484008789e-02) (115, 7.64119401574134826660e-02) (116, -6.44646659493446350098e-02) (117, -8.47175791859626770020e-02) (118, 2.26973667740821838379e-02) (119, -9.88520234823226928711e-02) (120, 5.15541806817054748535e-02) (121, 7.90696367621421813965e-02) (122, -4.73434813320636749268e-02) (123, 6.76915794610977172852e-03) (124, -9.01810824871063232422e-02) (125, 6.52481541037559509277e-02) (126, -9.30603668093681335449e-02) (127, -2.66149267554283142090e-02) (128, -5.35548105835914611816e-02) (129, 7.20131471753120422363e-02) (130, -4.02545891702175140381e-02) (131, 8.96140709519386291504e-02) (132, 2.01603025197982788086e-02) (133, 3.97968068718910217285e-02) (134, 8.97996947169303894043e-02) (135, 5.23506104946136474609e-03) (136, -5.08934222161769866943e-02) (137, -1.20965912938117980957e-02) (138, 3.66440936923027038574e-02) (139, -3.54221016168594360352e-02) (140, -9.84788015484809875488e-02) (141, -6.82960599660873413086e-02) (142, -9.08342078328132629395e-02) (143, -6.83076977729797363281e-02) (144, -3.16590219736099243164e-02) (145, -1.42193883657455444336e-02) (146, -9.18957591056823730469e-02) (147, 3.87630611658096313477e-03) (148, 1.06303393840789794922e-03) (149, 3.08016017079353332520e-02) (150, 5.02429157495498657227e-03) (151, -4.73827831447124481201e-02) (152, 9.87124443054199218750e-03) (153, 5.76808080077171325684e-02) (154, 5.93863800168037414551e-02) (155, 1.96901708841323852539e-02) (156, 2.29289680719375610352e-02) (157, 6.63259997963905334473e-02) (158, 9.30752381682395935059e-02) (159, 6.93741515278816223145e-02) (160, 3.83391454815864562988e-02) (161, -4.71793487668037414551e-02) (162, 5.89882358908653259277e-02) (163, -4.15005460381507873535e-02) (164, 9.26174595952033996582e-02) (165, 4.87879142165184020996e-02) (166, 6.37345239520072937012e-02) (167, -5.82759678363800048828e-02) (168, -6.33086711168289184570e-02) (169, 3.78608703613281250000e-04) (170, 6.30192458629608154297e-03) (171, -6.17874674499034881592e-02) (172, 3.20825651288032531738e-02) (173, 1.54677182435989379883e-02) (174, -3.00951674580574035645e-02) (175, -9.95764732360839843750e-02) (176, -9.87516716122627258301e-02) (177, -2.19909176230430603027e-02) (178, 4.29983437061309814453e-03) (179, 2.31136381626129150391e-03) (180, -9.11893174052238464355e-02) (181, -9.06758829951286315918e-02) (182, 5.49285784363746643066e-02) (183, 1.86819285154342651367e-02) (184, 6.70049265027046203613e-02) (185, 1.43149495124816894531e-02) (186, -6.16279058158397674561e-02) (187, -1.00661069154739379883e-02) (188, -1.93590447306632995605e-02) (189, -6.85526579618453979492e-02) (190, -4.06919419765472412109e-02) (191, -8.10199007391929626465e-02) (192, -1.57320052385330200195e-02) (193, -8.17037075757980346680e-02) (194, -2.25204527378082275391e-02) (195, -2.31145471334457397461e-02) (196, 6.70842155814170837402e-02) (197, -5.87859265506267547607e-02) (198, 1.86094790697097778320e-02) (199, -9.62244570255279541016e-02) (200, 4.15926799178123474121e-02) (201, -7.50885978341102600098e-02) (202, -5.80119267106056213379e-02) (203, -2.63247638940811157227e-02) (204, 4.03791144490242004395e-02) (205, 1.18929147720336914062e-02) (206, -2.59012356400489807129e-02) (207, 4.16274592280387878418e-02) (208, 8.99019911885261535645e-02) (209, 7.83986076712608337402e-02) (210, -5.60611896216869354248e-02) (211, 9.87126752734184265137e-02) (212, 8.77227261662483215332e-02) (213, 9.88673940300941467285e-02) (214, 1.73946022987365722656e-02) (215, 5.47276511788368225098e-02) (216, 1.31823420524597167969e-02) (217, 5.57667091488838195801e-02) (218, -5.53384497761726379395e-02) (219, 9.38232913613319396973e-02) (220, 8.72140452265739440918e-02) (221, 3.96960973739624023438e-03) (222, -8.71966183185577392578e-02) (223, -2.85179764032363891602e-02) (224, 2.22658962011337280273e-02) (225, -9.71706211566925048828e-03) (226, 4.83674779534339904785e-02) (227, -1.06498822569847106934e-02) (228, 3.14970090985298156738e-02) (229, -3.30230444669723510742e-02) (230, -6.87433779239654541016e-03) (231, -2.69103050231933593750e-02) (232, -8.11164081096649169922e-03) (233, 3.51137295365333557129e-02) (234, 4.67649325728416442871e-02) (235, -6.77325204014778137207e-02) (236, -5.29933609068393707275e-02) (237, -7.91362971067428588867e-02) (238, 7.38949254155158996582e-02) (239, -6.30913749337196350098e-02) (240, 9.92623046040534973145e-02) (241, -8.21662619709968566895e-02) (242, -6.43787011504173278809e-02) (243, 8.69850292801856994629e-02) (244, -8.32988768815994262695e-02) (245, 5.30158951878547668457e-02) (246, 4.17126938700675964355e-02) (247, 2.98834666609764099121e-02) (248, 8.78260284662246704102e-03) (249, 8.63742306828498840332e-02) (250, 2.37067565321922302246e-02) (251, -4.00336086750030517578e-03) (252, -9.65615361928939819336e-03) (253, 3.65101322531700134277e-02) (254, 6.74786642193794250488e-02) (255, -8.73902514576911926270e-02) (256, -7.32069239020347595215e-02) (0, 1.58461332321166992188e-02) (1, 1.95986032485961914062e-03) (2, 5.82900866866111755371e-02) (3, 8.28230902552604675293e-02) (4, 9.50855091214179992676e-02) (5, -6.86202198266983032227e-02) (6, -2.52885520458221435547e-02) (7, 3.01992520689964294434e-02) (8, 7.81447067856788635254e-02) (9, 6.97892904281616210938e-03) (10, 7.72058889269828796387e-02) (11, 9.90084037184715270996e-02) (12, -1.91261395812034606934e-02) (13, -8.58854874968528747559e-02) (14, 9.82707217335700988770e-02) (15, -1.29240006208419799805e-03) (16, -5.02641871571540832520e-02) (17, 8.52557495236396789551e-02) (18, 1.54087319970130920410e-02) (19, -9.72482860088348388672e-02) (20, 2.69684270024299621582e-02) (21, -5.47078065574169158936e-02) (22, 1.15343108773231506348e-02) (23, 1.33426636457443237305e-02) (24, 6.89989402890205383301e-02) (25, -9.24690589308738708496e-02) (26, -9.63134914636611938477e-02) (27, 5.50909340381622314453e-03) (28, 7.50096067786216735840e-02) (29, -8.37037414312362670898e-02) (30, 3.23021635413169860840e-02) (31, -9.14426147937774658203e-03) (32, 1.82561278343200683594e-02) (33, -9.40775871276855468750e-03) (34, -2.63211652636528015137e-02) (35, 1.33416429162025451660e-02) (36, 2.19720229506492614746e-02) (37, 4.83902767300605773926e-02) (38, -5.64591102302074432373e-02) (39, 1.16728246212005615234e-04) (40, -4.46307919919490814209e-02) (41, -7.92532190680503845215e-02) (42, -8.74862074851989746094e-04) (43, 3.62430736422538757324e-02) (44, -6.51387050747871398926e-02) (45, -2.60414183139801025391e-03) (46, -6.50493353605270385742e-02) (47, -1.54028907418251037598e-02) (48, -1.73484012484550476074e-02) (49, 5.03594055771827697754e-02) (50, -1.26511752605438232422e-02) (51, -9.03799757361412048340e-02) (52, 9.56515893340110778809e-02) (53, 9.88831445574760437012e-02) (54, 2.29627043008804321289e-02) (55, 6.46505430340766906738e-02) (56, -9.35859158635139465332e-02) (57, 2.66492143273353576660e-02) (58, -2.98403799533843994141e-02) (59, 8.14236924052238464355e-02) (60, 4.29454669356346130371e-02) (61, -9.75382179021835327148e-02) (62, -2.77205705642700195312e-02) (63, -3.87984029948711395264e-02) (64, -6.94597512483596801758e-03) (65, 4.59582731127738952637e-02) (66, 7.45432451367378234863e-02) (67, -8.49739536643028259277e-02) (68, -5.65145909786224365234e-03) (69, -8.19158703088760375977e-02) (70, 1.51427760720252990723e-02) (71, 4.97177466750144958496e-02) (72, -6.11690916121006011963e-02) (73, -8.57320800423622131348e-02) (74, -1.40391737222671508789e-02) (75, -2.63077914714813232422e-02) (76, 1.16637721657752990723e-02) (77, 2.09114924073219299316e-02) (78, 5.82893118262290954590e-02) (79, 9.43153724074363708496e-02) (80, -2.87291109561920166016e-02) (81, -5.43618574738502502441e-02) (82, -9.60645973682403564453e-02) (83, -3.30775156617164611816e-02) (84, -5.54787181317806243896e-02) (85, 2.68980935215950012207e-02) (86, -6.84269815683364868164e-02) (87, -4.90646362304687500000e-02) (88, -4.64526899158954620361e-02) (89, 1.73264741897583007812e-03) (90, -6.76409453153610229492e-02) (91, 9.64927747845649719238e-02) (92, 4.19442355632781982422e-03) (93, 4.63847815990447998047e-03) (94, -4.23056259751319885254e-02) (95, 9.72484424710273742676e-02) (96, -4.94032502174377441406e-02) (97, -6.77623897790908813477e-02) (98, -8.77255052328109741211e-02) (99, 4.49453070759773254395e-02) (100, -4.96782623231410980225e-02) (101, 2.74172797799110412598e-02) (102, -5.33695518970489501953e-03) (103, -1.08473449945449829102e-02) (104, 4.16852012276649475098e-02) (105, 8.06238725781440734863e-02) (106, 6.28448650240898132324e-02) (107, -4.66510318219661712646e-02) (108, 1.53537094593048095703e-03) (109, 2.11341753602027893066e-02) (110, -5.23356534540653228760e-02) (111, 7.28062465786933898926e-02) (112, 6.67723193764686584473e-02) (113, -4.84002493321895599365e-02) (114, -6.02712631225585937500e-02) (115, -8.87063965201377868652e-02) (116, 7.84978494048118591309e-02) (117, -2.86982432007789611816e-02) (118, -3.77710275352001190186e-02) (119, -6.79548382759094238281e-02) (120, 7.30344131588935852051e-02) (121, -5.41197508573532104492e-03) (122, -7.14620575308799743652e-02) (123, -2.27711722254753112793e-02) (124, 9.92265120148658752441e-02) (125, -1.37676820158958435059e-02) (126, -2.55227237939834594727e-02) (127, -5.01767359673976898193e-02) (128, 1.84699296951293945312e-02) (129, -1.32482200860977172852e-02) (130, 9.47685614228248596191e-02) (131, 6.87916651368141174316e-02) (132, -8.58309417963027954102e-02) (133, -1.05683952569961547852e-02) (134, -4.20556776225566864014e-02) (135, 5.58542534708976745605e-02) (136, -2.99445241689682006836e-02) (137, -7.92108178138732910156e-02) (138, -9.07967761158943176270e-02) (139, 7.15908482670783996582e-02) (140, 4.19233515858650207520e-02) (141, -4.31324243545532226562e-02) (142, 4.43970933556556701660e-02) (143, 8.69567692279815673828e-03) (144, 8.46733152866363525391e-03) (145, 8.41258242726325988770e-02) (146, 1.99892893433570861816e-02) (147, -1.30348205566406250000e-02) (148, -4.45724129676818847656e-02) (149, 8.22182521224021911621e-02) (150, 1.90103426575660705566e-02) (151, -7.15380162000656127930e-02) (152, -2.31937170028686523438e-02) (153, 4.75482866168022155762e-02) (154, 5.69081306457519531250e-03) (155, -2.39672064781188964844e-02) (156, -6.62194043397903442383e-02) (157, 8.01680907607078552246e-02) (158, 2.58560553193092346191e-02) (159, 5.22505268454551696777e-02) (160, -3.30801308155059814453e-02) (161, 2.06246152520179748535e-02) (162, 2.10421904921531677246e-02) (163, -1.89110785722732543945e-02) (164, -8.99437814950942993164e-02) (165, 7.89865180850028991699e-02) (166, -6.30568265914916992188e-02) (167, -1.98882967233657836914e-02) (168, 9.97756943106651306152e-02) (169, -5.38535937666893005371e-02) (170, -4.82974648475646972656e-02) (171, 4.16990593075752258301e-02) (172, 3.01398336887359619141e-03) (173, 9.60996225476264953613e-02) (174, -4.96052689850330352783e-02) (175, -8.85186940431594848633e-02) (176, 8.02254602313041687012e-02) (177, 7.03840181231498718262e-02) (178, -1.55351310968399047852e-03) (179, -6.43469616770744323730e-02) (180, 5.26022687554359436035e-02) (181, -8.25431719422340393066e-02) (182, -3.58849689364433288574e-02) (183, -7.05914497375488281250e-02) (184, 6.50051161646842956543e-02) (185, 6.98058381676673889160e-02) (186, 5.44135272502899169922e-03) (187, 9.87857058644294738770e-02) (188, 4.99739274382591247559e-02) (189, -6.87025934457778930664e-02) (190, 5.10362312197685241699e-02) (191, -8.31062048673629760742e-02) (192, 5.19220307469367980957e-02) (193, -2.79215723276138305664e-02) (194, -2.01727449893951416016e-03) (195, 6.19782432913780212402e-02) (196, -4.89350631833076477051e-02) (197, 3.49259003996849060059e-02) (198, -5.79100511968135833740e-02) (199, -4.91593666374683380127e-02) (200, 8.10723081231117248535e-02) (201, -6.20751082897186279297e-03) (202, 9.25396755337715148926e-02) (203, -1.59137099981307983398e-02) (204, -1.01078897714614868164e-02) (205, -5.70655874907970428467e-02) (206, -4.43239510059356689453e-03) (207, -2.98824384808540344238e-02) (208, -8.66815745830535888672e-02) (209, 9.40141007304191589355e-02) (210, 5.77060878276824951172e-03) (211, 6.59207031130790710449e-02) (212, -8.85290727019309997559e-02) (213, 6.98856338858604431152e-02) (214, 9.53292623162269592285e-02) (215, 7.64760449528694152832e-02) (216, 3.96914705634117126465e-02) (217, 7.70606100559234619141e-04) (218, 7.52617493271827697754e-02) (219, -1.03345960378646850586e-02) (220, 3.20680215954780578613e-02) (221, 2.62979790568351745605e-02) (222, 6.55920803546905517578e-03) (223, -1.60099565982818603516e-02) (224, 9.83764007687568664551e-02) (225, -9.54580754041671752930e-02) (226, -5.40317073464393615723e-02) (227, -5.05586564540863037109e-02) (228, 3.94678339362144470215e-02) (229, -1.19417607784271240234e-02) (230, 2.81974673271179199219e-04) (231, 2.05401405692100524902e-02) (232, 8.18507149815559387207e-02) (233, -7.17834383249282836914e-03) (234, -9.53735634684562683105e-02) (235, -2.82571688294410705566e-02) (236, 3.57560738921165466309e-02) (237, 1.94035470485687255859e-04) (238, 4.18604090809822082520e-02) (239, 4.90744933485984802246e-02) (240, -5.79186528921127319336e-03) (241, -5.23689948022365570068e-02) (242, 1.49952024221420288086e-02) (243, 5.67905604839324951172e-03) (244, -8.24833586812019348145e-02) (245, 1.03244557976722717285e-02) (246, -1.78449004888534545898e-02) (247, 5.72081133723258972168e-02) (248, -8.89049395918846130371e-02) (249, -4.25831563770771026611e-02) (250, -5.31264804303646087646e-02) (251, 4.31630685925483703613e-02) (252, 8.37148204445838928223e-02) (253, 5.34327104687690734863e-02) (254, -7.28468820452690124512e-02) (255, 8.20912197232246398926e-02) (256, 5.79746440052986145020e-02) (0, -2.68785879015922546387e-02) (1, -6.84674307703971862793e-02) (2, -2.55752354860305786133e-03) (3, 6.11796453595161437988e-02) (4, 3.18145379424095153809e-02) (5, -8.20173770189285278320e-02) (6, 4.30303886532783508301e-02) (7, -7.53637999296188354492e-02) (8, -7.73909389972686767578e-02) (9, -8.52267891168594360352e-02) (10, 6.03922680020332336426e-02) (11, 2.28031054139137268066e-02) (12, 5.66336140036582946777e-02) (13, 9.46676731109619140625e-03) (14, -8.29887688159942626953e-02) (15, -9.57353860139846801758e-02) (16, -7.55380317568778991699e-02) (17, 2.26902961730957031250e-02) (18, -7.82187432050704956055e-02) (19, 3.47864255309104919434e-02) (20, -9.51546058058738708496e-02) (21, 7.89893791079521179199e-02) (22, 4.58814874291419982910e-02) (23, -3.77377569675445556641e-02) (24, -7.41371065378189086914e-02) (25, -1.09554380178451538086e-02) (26, -5.40229342877864837646e-02) (27, 7.92956128716468811035e-02) (28, 1.61976814270019531250e-02) (29, -7.19317048788070678711e-02) (30, 3.72702553868293762207e-02) (31, 8.93190875649452209473e-02) (32, -4.03991341590881347656e-02) (33, -6.52872622013092041016e-02) (34, 5.04987314343452453613e-02) (35, 9.14154127240180969238e-02) (36, -4.73046414554119110107e-02) (37, -6.47088140249252319336e-03) (38, -8.39483886957168579102e-02) (39, -2.46955826878547668457e-02) (40, 8.30233097076416015625e-03) (41, 7.64438882470130920410e-02) (42, 9.81075242161750793457e-02) (43, -3.50640565156936645508e-02) (44, -1.40893459320068359375e-02) (45, -8.48812460899353027344e-02) (46, -3.07994410395622253418e-02) (47, 1.03726238012313842773e-02) (48, 3.78090515732765197754e-02) (49, -9.01819020509719848633e-03) (50, -5.48409521579742431641e-02) (51, 4.26544472575187683105e-02) (52, -3.00288125872611999512e-02) (53, 9.10405293107032775879e-02) (54, -9.50833112001419067383e-02) (55, -4.16592508554458618164e-03) (56, -1.99149101972579956055e-02) (57, -4.91062402725219726562e-02) (58, -2.48703211545944213867e-02) (59, 9.62827727198600769043e-02) (60, -2.10379436612129211426e-02) (61, -8.76000598073005676270e-02) (62, 8.56018587946891784668e-02) (63, 3.85629162192344665527e-02) (64, -5.28873242437839508057e-02) (65, 3.61006036400794982910e-02) (66, 2.99783423542976379395e-02) (67, -1.91964209079742431641e-04) (68, -7.03702867031097412109e-02) (69, 4.60299476981163024902e-02) (70, 7.51124545931816101074e-02) (71, 3.79320457577705383301e-02) (72, 2.24738344550132751465e-02) (73, 7.32199624180793762207e-02) (74, -9.71320196986198425293e-02) (75, -9.16155129671096801758e-02) (76, 8.83387252688407897949e-02) (77, -2.79314666986465454102e-02) (78, 1.87571197748184204102e-02) (79, 2.61477753520011901855e-02) (80, 6.30503520369529724121e-02) (81, 6.39161542057991027832e-02) (82, -3.11977788805961608887e-02) (83, -6.69784694910049438477e-02) (84, 5.49566969275474548340e-02) (85, -2.62810885906219482422e-02) (86, 2.88556143641471862793e-02) (87, -6.49582147598266601562e-02) (88, 2.46126800775527954102e-02) (89, -9.60147082805633544922e-02) (90, -6.86754435300827026367e-02) (91, -9.64252725243568420410e-02) (92, -8.36147665977478027344e-02) (93, -8.30735862255096435547e-02) (94, 4.21376451849937438965e-02) (95, -3.65020856261253356934e-02) (96, 5.30270114541053771973e-02) (97, -2.78840139508247375488e-02) (98, 6.33059516549110412598e-02) (99, 8.26567187905311584473e-02) (100, -8.18540677428245544434e-02) (101, 3.84184047579765319824e-02) (102, 2.05887705087661743164e-02) (103, 4.06197682023048400879e-02) (104, 1.16383656859397888184e-02) (105, 2.34567373991012573242e-02) (106, 4.90042641758918762207e-02) (107, -2.29030847549438476562e-05) (108, 9.55252721905708312988e-02) (109, -3.22386324405670166016e-02) (110, -7.38751366734504699707e-02) (111, 5.85756376385688781738e-02) (112, -6.83224722743034362793e-02) (113, -5.07290661334991455078e-03) (114, 9.15971621870994567871e-02) (115, 8.66342261433601379395e-02) (116, 6.86460062861442565918e-02) (117, 2.04527750611305236816e-02) (118, -7.83239901065826416016e-02) (119, -6.74133002758026123047e-03) (120, 2.44380608201026916504e-02) (121, -4.69994358718395233154e-02) (122, -3.16660106182098388672e-03) (123, 4.08232882618904113770e-02) (124, -3.00730243325233459473e-02) (125, -6.10289461910724639893e-02) (126, -9.56787914037704467773e-02) (127, -7.70460218191146850586e-02) (128, 1.10870376229286193848e-02) (129, 6.76271542906761169434e-02) (130, -9.43892970681190490723e-02) (131, 2.92329862713813781738e-02) (132, 6.04555755853652954102e-03) (133, 2.61994674801826477051e-02) (134, -3.01472544670104980469e-02) (135, -8.23160782456398010254e-02) (136, -5.03437928855419158936e-02) (137, -8.11429992318153381348e-02) (138, 1.76610127091407775879e-02) (139, -5.48185110092163085938e-02) (140, -1.33816227316856384277e-02) (141, 4.37858775258064270020e-02) (142, -9.62428823113441467285e-02) (143, 1.82959064841270446777e-02) (144, -6.12870343029499053955e-02) (145, 9.53542813658714294434e-02) (146, 4.93012368679046630859e-03) (147, -9.26410332322120666504e-02) (148, 1.58070549368858337402e-02) (149, 2.66061350703239440918e-02) (150, 6.17645680904388427734e-04) (151, -5.97548857331275939941e-02) (152, 7.96067044138908386230e-02) (153, 9.74510386586189270020e-02) (154, 8.10684040188789367676e-02) (155, -5.04663251340389251709e-02) (156, -6.35779052972793579102e-02) (157, 8.53896215558052062988e-02) (158, -2.75123417377471923828e-02) (159, 4.75091412663459777832e-02) (160, 5.30167743563652038574e-02) (161, -2.19016373157501220703e-02) (162, -2.32578814029693603516e-02) (163, -4.09376733005046844482e-02) (164, -9.57021713256835937500e-02) (165, 4.65948656201362609863e-02) (166, -2.32537537813186645508e-02) (167, -4.60459589958190917969e-02) (168, 6.54518678784370422363e-02) (169, 9.44072678685188293457e-02) (170, -8.64468514919281005859e-04) (171, -4.79297600686550140381e-02) (172, 3.81931290030479431152e-02) (173, 2.89265066385269165039e-03) (174, 7.03661516308784484863e-02) (175, 7.69060924649238586426e-02) (176, -1.75307691097259521484e-03) (177, -2.47037261724472045898e-02) (178, 8.42650607228279113770e-02) (179, -8.59460234642028808594e-02) (180, -9.80975925922393798828e-02) (181, -1.51172876358032226562e-02) (182, -4.57009039819240570068e-02) (183, 8.15091207623481750488e-02) (184, -1.76662355661392211914e-02) (185, -6.46324902772903442383e-02) (186, -6.89572170376777648926e-02) (187, 1.87558680772781372070e-02) (188, -7.92428702116012573242e-02) (189, 3.53044271469116210938e-03) (190, -3.37349921464920043945e-02) (191, 7.37738981842994689941e-02) (192, 8.16288068890571594238e-02) (193, 4.30071279406547546387e-02) (194, -6.71637803316116333008e-02) (195, 8.59266296029090881348e-02) (196, -1.03980079293251037598e-02) (197, 9.58247482776641845703e-03) (198, -6.01193271577358245850e-02) (199, -4.49461415410041809082e-02) (200, 3.98971885442733764648e-03) (201, 3.90161946415901184082e-02) (202, 7.12410360574722290039e-03) (203, -5.78171424567699432373e-02) (204, -5.80911524593830108643e-02) (205, -2.25097462534904479980e-02) (206, -8.09110403060913085938e-02) (207, 4.01557758450508117676e-02) (208, 5.27865365147590637207e-02) (209, -9.66459661722183227539e-02) (210, 5.42097613215446472168e-02) (211, 5.46889379620552062988e-02) (212, -1.17632523179054260254e-02) (213, -9.14911478757858276367e-02) (214, 3.61980572342872619629e-02) (215, 7.05705061554908752441e-02) (216, -5.61236403882503509521e-02) (217, 6.72408416867256164551e-02) (218, -1.06736272573471069336e-02) (219, -3.53665128350257873535e-02) (220, -2.92287245392799377441e-02) (221, 5.55913820862770080566e-02) (222, -6.15926086902618408203e-02) (223, -4.75999191403388977051e-02) (224, -1.40149891376495361328e-03) (225, -2.87563875317573547363e-02) (226, -6.16732835769653320312e-02) (227, 8.82005020976066589355e-02) (228, 8.08260813355445861816e-02) (229, -2.17926055192947387695e-02) (230, -5.67456446588039398193e-02) (231, -1.51841863989830017090e-02) (232, -8.27764123678207397461e-02) (233, 5.03784492611885070801e-02) (234, 2.69986763596534729004e-02) (235, -4.08675633370876312256e-02) (236, -7.21312910318374633789e-02) (237, 4.60876300930976867676e-02) (238, 9.92882177233695983887e-02) (239, 8.06552395224571228027e-02) (240, 4.94416728615760803223e-02) (241, 5.34979775547981262207e-02) (242, 3.53441908955574035645e-02) (243, -6.23215846717357635498e-02) (244, 6.20068386197090148926e-02) (245, -2.84577757120132446289e-02) (246, -9.17510762810707092285e-02) (247, -9.41168144345283508301e-02) (248, -6.12169355154037475586e-02) (249, -2.42470204830169677734e-03) (250, -2.94833183288574218750e-02) (251, 9.55434143543243408203e-03) (252, -4.68333251774311065674e-02) (253, 8.92406702041625976562e-03) (254, 6.19544312357902526855e-02) (255, 5.17651811242103576660e-02) (256, 8.01676884293556213379e-02) (0, -9.97188612818717956543e-02) (1, 3.99656817317008972168e-02) (2, 6.09937682747840881348e-02) (3, -2.15114727616310119629e-02) (4, 8.32200273871421813965e-02) (5, -5.41904196143150329590e-02) (6, -4.28788363933563232422e-03) (7, 3.35984900593757629395e-02) (8, 7.28082582354545593262e-02) (9, 5.48445656895637512207e-02) (10, 6.14671930670738220215e-02) (11, 1.88958868384361267090e-02) (12, 5.41327670216560363770e-02) (13, 4.21224310994148254395e-02) (14, -3.16624492406845092773e-02) (15, 7.63074308633804321289e-03) (16, -2.25333794951438903809e-02) (17, 6.01597130298614501953e-03) (18, -3.03624272346496582031e-02) (19, 4.90088537335395812988e-02) (20, 1.42648965120315551758e-02) (21, -2.44792401790618896484e-02) (22, 8.77919122576713562012e-02) (23, -8.81598070263862609863e-02) (24, 4.60374429821968078613e-02) (25, -2.65374779701232910156e-03) (26, -3.49931269884109497070e-02) (27, -4.50384877622127532959e-02) (28, -4.06993292272090911865e-02) (29, -8.32279548048973083496e-02) (30, -6.48708045482635498047e-02) (31, -4.04181890189647674561e-02) (32, 5.67377284169197082520e-02) (33, 9.61229726672172546387e-02) (34, 3.80703434348106384277e-02) (35, 3.99577543139457702637e-02) (36, -5.80674484372138977051e-02) (37, -6.62175416946411132812e-02) (38, -2.64437645673751831055e-02) (39, -8.52591916918754577637e-02) (40, 8.86270180344581604004e-02) (41, -6.49765580892562866211e-02) (42, 3.36366966366767883301e-02) (43, 4.27597835659980773926e-02) (44, 7.71458819508552551270e-02) (45, -9.80257540941238403320e-02) (46, -4.96094599366188049316e-02) (47, -4.53875064849853515625e-02) (48, 7.99021869897842407227e-03) (49, 2.00281143188476562500e-02) (50, -9.63786616921424865723e-02) (51, -7.77448862791061401367e-02) (52, 9.55488756299018859863e-02) (53, 9.14132520556449890137e-02) (54, -6.59046918153762817383e-02) (55, 4.15863171219825744629e-02) (56, -1.12405046820640563965e-02) (57, -8.97824764251708984375e-04) (58, 9.65478345751762390137e-02) (59, 4.80601713061332702637e-02) (60, 1.58742219209671020508e-02) (61, -6.83229714632034301758e-02) (62, -9.23580229282379150391e-02) (63, -2.73880511522293090820e-02) (64, -7.22000002861022949219e-02) (65, 4.57123294472694396973e-02) (66, -8.74303057789802551270e-02) (67, -3.02674472332000732422e-02) (68, 7.94947817921638488770e-02) (69, -1.38740688562393188477e-02) (70, -1.55266374349594116211e-02) (71, 6.81217983365058898926e-02) (72, 2.11493745446205139160e-02) (73, -8.18899422883987426758e-02) (74, 1.08815878629684448242e-02) (75, -1.70474499464035034180e-03) (76, -7.99156948924064636230e-02) (77, 6.12721368670463562012e-02) (78, 5.29077574610710144043e-02) (79, 2.80745252966880798340e-02) (80, -1.86997577548027038574e-02) (81, 5.65290972590446472168e-02) (82, 5.03296330571174621582e-02) (83, -2.31508761644363403320e-02) (84, 4.79423329234123229980e-02) (85, 8.44249501824378967285e-02) (86, -8.15645679831504821777e-02) (87, -6.32981657981872558594e-02) (88, -1.64728760719299316406e-02) (89, -8.50167348980903625488e-02) (90, 8.47619995474815368652e-02) (91, 9.94013473391532897949e-02) (92, -5.33397048711776733398e-02) (93, 9.24039855599403381348e-02) (94, -2.79867053031921386719e-02) (95, -2.55397036671638488770e-02) (96, 3.81162986159324645996e-02) (97, -1.54170095920562744141e-02) (98, 4.41928580403327941895e-02) (99, 1.76110863685607910156e-02) (100, 7.07089379429817199707e-02) (101, -7.13337883353233337402e-02) (102, -1.42671093344688415527e-02) (103, -8.14169645309448242188e-03) (104, -5.32237291336059570312e-02) (105, 9.66144874691963195801e-02) (106, 9.01535674929618835449e-02) (107, -3.31394225358963012695e-02) (108, 5.78866079449653625488e-02) (109, 4.30613085627555847168e-02) (110, 9.49351117014884948730e-02) (111, -6.08131475746631622314e-02) (112, -4.09603118896484375000e-04) (113, 4.52647432684898376465e-02) (114, 1.60359740257263183594e-02) (115, -5.24672679603099822998e-02) (116, 2.96896919608116149902e-02) (117, 3.44714000821113586426e-02) (118, -1.57654434442520141602e-02) (119, -8.67831856012344360352e-02) (120, 4.94546815752983093262e-02) (121, -3.10034379363059997559e-02) (122, -8.73818397521972656250e-02) (123, 9.61149707436561584473e-02) (124, -3.85994613170623779297e-02) (125, -1.53685435652732849121e-02) (126, -2.94247344136238098145e-02) (127, 9.95168462395668029785e-02) (128, 6.92144408822059631348e-02) (129, -8.52318853139877319336e-02) (130, 1.71279311180114746094e-02) (131, 3.99233773350715637207e-02) (132, -5.65656684339046478271e-02) (133, -9.71391871571540832520e-02) (134, -6.82183280587196350098e-02) (135, -9.78939235210418701172e-03) (136, 9.94753018021583557129e-02) (137, -7.80647695064544677734e-02) (138, 5.70711717009544372559e-02) (139, 5.73619082570075988770e-02) (140, 6.49965479969978332520e-02) (141, 5.20062819123268127441e-02) (142, 9.65487584471702575684e-02) (143, -3.54130640625953674316e-02) (144, -2.72897630929946899414e-03) (145, 1.25847309827804565430e-02) (146, 1.21196657419204711914e-02) (147, -7.30392783880233764648e-02) (148, -5.29438592493534088135e-02) (149, 9.63542237877845764160e-02) (150, -5.98224662244319915771e-02) (151, 9.65108200907707214355e-02) (152, -3.46492156386375427246e-02) (153, -4.72042970359325408936e-02) (154, 9.26257893443107604980e-02) (155, 2.67513319849967956543e-02) (156, 3.74271497130393981934e-02) (157, -3.67989540100097656250e-02) (158, 2.62681618332862854004e-02) (159, 6.64160400629043579102e-03) (160, -2.20308378338813781738e-02) (161, -5.66039048135280609131e-02) (162, -5.34350275993347167969e-02) (163, 2.14034914970397949219e-02) (164, -5.37430904805660247803e-02) (165, -2.16533541679382324219e-02) (166, -8.83859023451805114746e-02) (167, -5.42677938938140869141e-02) (168, 2.81885266304016113281e-04) (169, 6.86852857470512390137e-02) (170, -9.69058871269226074219e-02) (171, -3.47215831279754638672e-02) (172, 2.06915587186813354492e-02) (173, 9.96428802609443664551e-02) (174, 2.98653468489646911621e-02) (175, -8.20374116301536560059e-02) (176, 1.22276097536087036133e-02) (177, -5.80149851739406585693e-02) (178, -5.50766922533512115479e-02) (179, 