FANN_FLO_2.1
num_layers=3
learning_rate=0.700000
connection_rate=1.000000
network_type=0
learning_momentum=0.000000
training_algorithm=2
train_error_function=1
train_stop_function=0
cascade_output_change_fraction=0.010000
quickprop_decay=-0.000100
quickprop_mu=1.750000
rprop_increase_factor=1.200000
rprop_decrease_factor=0.500000
rprop_delta_min=0.000000
rprop_delta_max=50.000000
rprop_delta_zero=0.100000
cascade_output_stagnation_epochs=12
cascade_candidate_change_fraction=0.010000
cascade_candidate_stagnation_epochs=12
cascade_max_out_epochs=150
cascade_max_cand_epochs=150
cascade_num_candidate_groups=2
bit_fail_limit=3.49999994039535522461e-01
cascade_candidate_limit=1.00000000000000000000e+03
cascade_weight_multiplier=4.00000005960464477539e-01
cascade_activation_functions_count=10
cascade_activation_functions=3 5 7 8 10 11 14 15 16 17 
cascade_activation_steepnesses_count=4
cascade_activation_steepnesses=2.50000000000000000000e-01 5.00000000000000000000e-01 7.50000000000000000000e-01 1.00000000000000000000e+00 
layer_sizes=257 129 4 
scale_included=0
neurons (num_inputs, activation_function, activation_steepness)=(0, 0, 0.00000000000000000000e+00) (0, 0, 0.00000000000000000000e+00) (0, 0, 0.00000000000000000000e+00) (0, 0, 0.00000000000000000000e+00) (0, 0, 0.00000000000000000000e+00) (0, 0, 0.00000000000000000000e+00) (0, 0, 0.00000000000000000000e+00) (0, 0, 0.00000000000000000000e+00) (0, 0, 0.00000000000000000000e+00) (0, 0, 0.00000000000000000000e+00) (0, 0, 0.00000000000000000000e+00) (0, 0, 0.00000000000000000000e+00) (0, 0, 0.00000000000000000000e+00) (0, 0, 0.00000000000000000000e+00) (0, 0, 0.00000000000000000000e+00) (0, 0, 0.00000000000000000000e+00) (0, 0, 0.00000000000000000000e+00) (0, 0, 0.00000000000000000000e+00) (0, 0, 0.00000000000000000000e+00) (0, 0, 0.00000000000000000000e+00) (0, 0, 0.00000000000000000000e+00) (0, 0, 0.00000000000000000000e+00) (0, 0, 0.00000000000000000000e+00) (0, 0, 0.00000000000000000000e+00) (0, 0, 0.00000000000000000000e+00) (0, 0, 0.00000000000000000000e+00) (0, 0, 0.00000000000000000000e+00) (0, 0, 0.00000000000000000000e+00) (0, 0, 0.00000000000000000000e+00) (0, 0, 0.00000000000000000000e+00) (0, 0, 0.00000000000000000000e+00) (0, 0, 0.00000000000000000000e+00) (0, 0, 0.00000000000000000000e+00) (0, 0, 0.00000000000000000000e+00) (0, 0, 0.00000000000000000000e+00) (0, 0, 0.00000000000000000000e+00) (0, 0, 0.00000000000000000000e+00) (0, 0, 0.00000000000000000000e+00) (0, 0, 0.00000000000000000000e+00) (0, 0, 0.00000000000000000000e+00) (0, 0, 0.00000000000000000000e+00) (0, 0, 0.00000000000000000000e+00) (0, 0, 0.00000000000000000000e+00) (0, 0, 0.00000000000000000000e+00) (0, 0, 0.00000000000000000000e+00) (0, 0, 0.00000000000000000000e+00) (0, 0, 0.00000000000000000000e+00) (0, 0, 0.00000000000000000000e+00) (0, 0, 0.00000000000000000000e+00) (0, 0, 0.00000000000000000000e+00) (0, 0, 0.00000000000000000000e+00) (0, 0, 0.00000000000000000000e+00) (0, 0, 0.00000000000000000000e+00) (0, 0, 0.00000000000000000000e+00) (0, 0, 0.00000000000000000000e+00) (0, 0, 0.00000000000000000000e+00) (0, 0, 0.00000000000000000000e+00) (0, 0, 0.00000000000000000000e+00) (0, 0, 0.00000000000000000000e+00) (0, 0, 0.00000000000000000000e+00) (0, 0, 0.00000000000000000000e+00) (0, 0, 0.00000000000000000000e+00) (0, 0, 0.00000000000000000000e+00) (0, 0, 0.00000000000000000000e+00) (0, 0, 0.00000000000000000000e+00) (0, 0, 0.00000000000000000000e+00) (0, 0, 0.00000000000000000000e+00) (0, 0, 0.00000000000000000000e+00) (0, 0, 0.00000000000000000000e+00) (0, 0, 0.00000000000000000000e+00) (0, 0, 0.00000000000000000000e+00) (0, 0, 0.00000000000000000000e+00) (0, 0, 0.00000000000000000000e+00) (0, 0, 0.00000000000000000000e+00) (0, 0, 0.00000000000000000000e+00) (0, 0, 0.00000000000000000000e+00) (0, 0, 0.00000000000000000000e+00) (0, 0, 0.00000000000000000000e+00) (0, 0, 0.00000000000000000000e+00) (0, 0, 0.00000000000000000000e+00) (0, 0, 0.00000000000000000000e+00) (0, 0, 0.00000000000000000000e+00) (0, 0, 0.00000000000000000000e+00) (0, 0, 0.00000000000000000000e+00) (0, 0, 0.00000000000000000000e+00) (0, 0, 0.00000000000000000000e+00) (0, 0, 0.00000000000000000000e+00) (0, 0, 0.00000000000000000000e+00) (0, 0, 0.00000000000000000000e+00) (0, 0, 0.00000000000000000000e+00) (0, 0, 0.00000000000000000000e+00) (0, 0, 0.00000000000000000000e+00) (0, 0, 0.00000000000000000000e+00) (0, 0, 0.00000000000000000000e+00) (0, 0, 0.00000000000000000000e+00) (0, 0, 0.00000000000000000000e+00) (0, 0, 0.00000000000000000000e+00) (0, 0, 0.00000000000000000000e+00) (0, 0, 0.00000000000000000000e+00) (0, 0, 0.00000000000000000000e+00) (0, 0, 0.00000000000000000000e+00) (0, 0, 0.00000000000000000000e+00) (0, 0, 0.00000000000000000000e+00) (0, 0, 0.00000000000000000000e+00) (0, 0, 0.00000000000000000000e+00) (0, 0, 0.00000000000000000000e+00) (0, 0, 0.00000000000000000000e+00) (0, 0, 0.00000000000000000000e+00) (0, 0, 0.00000000000000000000e+00) (0, 0, 0.00000000000000000000e+00) (0, 0, 0.00000000000000000000e+00) (0, 0, 0.00000000000000000000e+00) (0, 0, 0.00000000000000000000e+00) (0, 0, 0.00000000000000000000e+00) (0, 0, 0.00000000000000000000e+00) (0, 0, 0.00000000000000000000e+00) (0, 0, 0.00000000000000000000e+00) (0, 0, 0.00000000000000000000e+00) (0, 0, 0.00000000000000000000e+00) (0, 0, 0.00000000000000000000e+00) (0, 0, 0.00000000000000000000e+00) (0, 0, 0.00000000000000000000e+00) (0, 0, 0.00000000000000000000e+00) (0, 0, 0.00000000000000000000e+00) (0, 0, 0.00000000000000000000e+00) (0, 0, 0.00000000000000000000e+00) (0, 0, 0.00000000000000000000e+00) (0, 0, 0.00000000000000000000e+00) (0, 0, 0.00000000000000000000e+00) (0, 0, 0.00000000000000000000e+00) (0, 0, 0.00000000000000000000e+00) (0, 0, 0.00000000000000000000e+00) (0, 0, 0.00000000000000000000e+00) (0, 0, 0.00000000000000000000e+00) (0, 0, 0.00000000000000000000e+00) (0, 0, 0.00000000000000000000e+00) (0, 0, 0.00000000000000000000e+00) (0, 0, 0.00000000000000000000e+00) (0, 0, 0.00000000000000000000e+00) (0, 0, 0.00000000000000000000e+00) (0, 0, 0.00000000000000000000e+00) (0, 0, 0.00000000000000000000e+00) (0, 0, 0.00000000000000000000e+00) (0, 0, 0.00000000000000000000e+00) (0, 0, 0.00000000000000000000e+00) (0, 0, 0.00000000000000000000e+00) (0, 0, 0.00000000000000000000e+00) (0, 0, 0.00000000000000000000e+00) (0, 0, 0.00000000000000000000e+00) (0, 0, 0.00000000000000000000e+00) (0, 0, 0.00000000000000000000e+00) (0, 0, 0.00000000000000000000e+00) (0, 0, 0.00000000000000000000e+00) (0, 0, 0.00000000000000000000e+00) (0, 0, 0.00000000000000000000e+00) (0, 0, 0.00000000000000000000e+00) (0, 0, 0.00000000000000000000e+00) (0, 0, 0.00000000000000000000e+00) (0, 0, 0.00000000000000000000e+00) (0, 0, 0.00000000000000000000e+00) (0, 0, 0.00000000000000000000e+00) (0, 0, 0.00000000000000000000e+00) (0, 0, 0.00000000000000000000e+00) (0, 0, 0.00000000000000000000e+00) (0, 0, 0.00000000000000000000e+00) (0, 0, 0.00000000000000000000e+00) (0, 0, 0.00000000000000000000e+00) (0, 0, 0.00000000000000000000e+00) (0, 0, 0.00000000000000000000e+00) (0, 0, 0.00000000000000000000e+00) (0, 0, 0.00000000000000000000e+00) (0, 0, 0.00000000000000000000e+00) (0, 0, 0.00000000000000000000e+00) (0, 0, 0.00000000000000000000e+00) (0, 0, 0.00000000000000000000e+00) (0, 0, 0.00000000000000000000e+00) (0, 0, 0.00000000000000000000e+00) (0, 0, 0.00000000000000000000e+00) (0, 0, 0.00000000000000000000e+00) (0, 0, 0.00000000000000000000e+00) (0, 0, 0.00000000000000000000e+00) (0, 0, 0.00000000000000000000e+00) (0, 0, 0.00000000000000000000e+00) (0, 0, 0.00000000000000000000e+00) (0, 0, 0.00000000000000000000e+00) (0, 0, 0.00000000000000000000e+00) (0, 0, 0.00000000000000000000e+00) (0, 0, 0.00000000000000000000e+00) (0, 0, 0.00000000000000000000e+00) (0, 0, 0.00000000000000000000e+00) (0, 0, 0.00000000000000000000e+00) (0, 0, 0.00000000000000000000e+00) (0, 0, 0.00000000000000000000e+00) (0, 0, 0.00000000000000000000e+00) (0, 0, 0.00000000000000000000e+00) (0, 0, 0.00000000000000000000e+00) (0, 0, 0.00000000000000000000e+00) (0, 0, 0.00000000000000000000e+00) (0, 0, 0.00000000000000000000e+00) (0, 0, 0.00000000000000000000e+00) (0, 0, 0.00000000000000000000e+00) (0, 0, 0.00000000000000000000e+00) (0, 0, 0.00000000000000000000e+00) (0, 0, 0.00000000000000000000e+00) (0, 0, 0.00000000000000000000e+00) (0, 0, 0.00000000000000000000e+00) (0, 0, 0.00000000000000000000e+00) (0, 0, 0.00000000000000000000e+00) (0, 0, 0.00000000000000000000e+00) (0, 0, 0.00000000000000000000e+00) (0, 0, 0.00000000000000000000e+00) (0, 0, 0.00000000000000000000e+00) (0, 0, 0.00000000000000000000e+00) (0, 0, 0.00000000000000000000e+00) (0, 0, 0.00000000000000000000e+00) (0, 0, 0.00000000000000000000e+00) (0, 0, 0.00000000000000000000e+00) (0, 0, 0.00000000000000000000e+00) (0, 0, 0.00000000000000000000e+00) (0, 0, 0.00000000000000000000e+00) (0, 0, 0.00000000000000000000e+00) (0, 0, 0.00000000000000000000e+00) (0, 0, 0.00000000000000000000e+00) (0, 0, 0.00000000000000000000e+00) (0, 0, 0.00000000000000000000e+00) (0, 0, 0.00000000000000000000e+00) (0, 0, 0.00000000000000000000e+00) (0, 0, 0.00000000000000000000e+00) (0, 0, 0.00000000000000000000e+00) (0, 0, 0.00000000000000000000e+00) (0, 0, 0.00000000000000000000e+00) (0, 0, 0.00000000000000000000e+00) (0, 0, 0.00000000000000000000e+00) (0, 0, 0.00000000000000000000e+00) (0, 0, 0.00000000000000000000e+00) (0, 0, 0.00000000000000000000e+00) (0, 0, 0.00000000000000000000e+00) (0, 0, 0.00000000000000000000e+00) (0, 0, 0.00000000000000000000e+00) (0, 0, 0.00000000000000000000e+00) (0, 0, 0.00000000000000000000e+00) (0, 0, 0.00000000000000000000e+00) (0, 0, 0.00000000000000000000e+00) (0, 0, 0.00000000000000000000e+00) (0, 0, 0.00000000000000000000e+00) (0, 0, 0.00000000000000000000e+00) (0, 0, 0.00000000000000000000e+00) (0, 0, 0.00000000000000000000e+00) (0, 0, 0.00000000000000000000e+00) (0, 0, 0.00000000000000000000e+00) (0, 0, 0.00000000000000000000e+00) (0, 0, 0.00000000000000000000e+00) (0, 0, 0.00000000000000000000e+00) (0, 0, 0.00000000000000000000e+00) (0, 0, 0.00000000000000000000e+00) (0, 0, 0.00000000000000000000e+00) (0, 0, 0.00000000000000000000e+00) (257, 4, 5.00000000000000000000e-01) (257, 4, 5.00000000000000000000e-01) (257, 4, 5.00000000000000000000e-01) (257, 4, 5.00000000000000000000e-01) (257, 4, 5.00000000000000000000e-01) (257, 4, 5.00000000000000000000e-01) (257, 4, 5.00000000000000000000e-01) (257, 4, 5.00000000000000000000e-01) (257, 4, 5.00000000000000000000e-01) (257, 4, 5.00000000000000000000e-01) (257, 4, 5.00000000000000000000e-01) (257, 4, 5.00000000000000000000e-01) (257, 4, 5.00000000000000000000e-01) (257, 4, 5.00000000000000000000e-01) (257, 4, 5.00000000000000000000e-01) (257, 4, 5.00000000000000000000e-01) (257, 4, 5.00000000000000000000e-01) (257, 4, 5.00000000000000000000e-01) (257, 4, 5.00000000000000000000e-01) (257, 4, 5.00000000000000000000e-01) (257, 4, 5.00000000000000000000e-01) (257, 4, 5.00000000000000000000e-01) (257, 4, 5.00000000000000000000e-01) (257, 4, 5.00000000000000000000e-01) (257, 4, 5.00000000000000000000e-01) (257, 4, 5.00000000000000000000e-01) (257, 4, 5.00000000000000000000e-01) (257, 4, 5.00000000000000000000e-01) (257, 4, 5.00000000000000000000e-01) (257, 4, 5.00000000000000000000e-01) (257, 4, 5.00000000000000000000e-01) (257, 4, 5.00000000000000000000e-01) (257, 4, 5.00000000000000000000e-01) (257, 4, 5.00000000000000000000e-01) (257, 4, 5.00000000000000000000e-01) (257, 4, 5.00000000000000000000e-01) (257, 4, 5.00000000000000000000e-01) (257, 4, 5.00000000000000000000e-01) (257, 4, 5.00000000000000000000e-01) (257, 4, 5.00000000000000000000e-01) (257, 4, 5.00000000000000000000e-01) (257, 4, 5.00000000000000000000e-01) (257, 4, 5.00000000000000000000e-01) (257, 4, 5.00000000000000000000e-01) (257, 4, 5.00000000000000000000e-01) (257, 4, 5.00000000000000000000e-01) (257, 4, 5.00000000000000000000e-01) (257, 4, 5.00000000000000000000e-01) (257, 4, 5.00000000000000000000e-01) (257, 4, 5.00000000000000000000e-01) (257, 4, 5.00000000000000000000e-01) (257, 4, 5.00000000000000000000e-01) (257, 4, 5.00000000000000000000e-01) (257, 4, 5.00000000000000000000e-01) (257, 4, 5.00000000000000000000e-01) (257, 4, 5.00000000000000000000e-01) (257, 4, 5.00000000000000000000e-01) (257, 4, 5.00000000000000000000e-01) (257, 4, 5.00000000000000000000e-01) (257, 4, 5.00000000000000000000e-01) (257, 4, 5.00000000000000000000e-01) (257, 4, 5.00000000000000000000e-01) (257, 4, 5.00000000000000000000e-01) (257, 4, 5.00000000000000000000e-01) (257, 4, 5.00000000000000000000e-01) (257, 4, 5.00000000000000000000e-01) (257, 4, 5.00000000000000000000e-01) (257, 4, 5.00000000000000000000e-01) (257, 4, 5.00000000000000000000e-01) (257, 4, 5.00000000000000000000e-01) (257, 4, 5.00000000000000000000e-01) (257, 4, 5.00000000000000000000e-01) (257, 4, 5.00000000000000000000e-01) (257, 4, 5.00000000000000000000e-01) (257, 4, 5.00000000000000000000e-01) (257, 4, 5.00000000000000000000e-01) (257, 4, 5.00000000000000000000e-01) (257, 4, 5.00000000000000000000e-01) (257, 4, 5.00000000000000000000e-01) (257, 4, 5.00000000000000000000e-01) (257, 4, 5.00000000000000000000e-01) (257, 4, 5.00000000000000000000e-01) (257, 4, 5.00000000000000000000e-01) (257, 4, 5.00000000000000000000e-01) (257, 4, 5.00000000000000000000e-01) (257, 4, 5.00000000000000000000e-01) (257, 4, 5.00000000000000000000e-01) (257, 4, 5.00000000000000000000e-01) (257, 4, 5.00000000000000000000e-01) (257, 4, 5.00000000000000000000e-01) (257, 4, 5.00000000000000000000e-01) (257, 4, 5.00000000000000000000e-01) (257, 4, 5.00000000000000000000e-01) (257, 4, 5.00000000000000000000e-01) (257, 4, 5.00000000000000000000e-01) (257, 4, 5.00000000000000000000e-01) (257, 4, 5.00000000000000000000e-01) (257, 4, 5.00000000000000000000e-01) (257, 4, 5.00000000000000000000e-01) (257, 4, 5.00000000000000000000e-01) (257, 4, 5.00000000000000000000e-01) (257, 4, 5.00000000000000000000e-01) (257, 4, 5.00000000000000000000e-01) (257, 4, 5.00000000000000000000e-01) (257, 4, 5.00000000000000000000e-01) (257, 4, 5.00000000000000000000e-01) (257, 4, 5.00000000000000000000e-01) (257, 4, 5.00000000000000000000e-01) (257, 4, 5.00000000000000000000e-01) (257, 4, 5.00000000000000000000e-01) (257, 4, 5.00000000000000000000e-01) (257, 4, 5.00000000000000000000e-01) (257, 4, 5.00000000000000000000e-01) (257, 4, 5.00000000000000000000e-01) (257, 4, 5.00000000000000000000e-01) (257, 4, 5.00000000000000000000e-01) (257, 4, 5.00000000000000000000e-01) (257, 4, 5.00000000000000000000e-01) (257, 4, 5.00000000000000000000e-01) (257, 4, 5.00000000000000000000e-01) (257, 4, 5.00000000000000000000e-01) (257, 4, 5.00000000000000000000e-01) (257, 4, 5.00000000000000000000e-01) (257, 4, 5.00000000000000000000e-01) (257, 4, 5.00000000000000000000e-01) (257, 4, 5.00000000000000000000e-01) (257, 4, 5.00000000000000000000e-01) (257, 4, 5.00000000000000000000e-01) (0, 0, 0.00000000000000000000e+00) (129, 4, 5.00000000000000000000e-01) (129, 4, 5.00000000000000000000e-01) (129, 4, 5.00000000000000000000e-01) (0, 0, 0.00000000000000000000e+00) 
connections (connected_to_neuron, weight)=(0, -5.25003634393215179443e-02) (1, 7.91664496064186096191e-02) (2, -7.62881338596343994141e-02) (3, -8.08036327362060546875e-03) (4, 6.06317594647407531738e-02) (5, 1.98017805814743041992e-02) (6, 6.26124367117881774902e-02) (7, 6.67160749435424804688e-03) (8, -5.40794655680656433105e-02) (9, 6.49114921689033508301e-02) (10, 6.70988634228706359863e-02) (11, -4.65103201568126678467e-02) (12, 2.99306586384773254395e-02) (13, -4.09476719796657562256e-02) (14, -1.87527164816856384277e-02) (15, 7.21807554364204406738e-02) (16, -2.05156952142715454102e-03) (17, -5.30525222420692443848e-02) (18, -1.64945423603057861328e-03) (19, 2.56283357739448547363e-02) (20, 8.96972492337226867676e-02) (21, 3.92765626311302185059e-02) (22, -2.15961337089538574219e-02) (23, 2.12587714195251464844e-02) (24, -7.22431018948554992676e-02) (25, 5.70326671004295349121e-02) (26, -7.93638527393341064453e-02) (27, 4.32014539837837219238e-02) (28, -8.75186473131179809570e-02) (29, 8.49410220980644226074e-02) (30, 2.83129885792732238770e-02) (31, -4.00190129876136779785e-02) (32, 6.41074851155281066895e-02) (33, 5.20248636603355407715e-02) (34, 5.19006326794624328613e-02) (35, 2.47392281889915466309e-02) (36, -2.81733572483062744141e-02) (37, 1.45130604505538940430e-02) (38, -6.85891658067703247070e-02) (39, 1.77471786737442016602e-02) (40, -2.05754488706588745117e-02) (41, 9.85096916556358337402e-02) (42, 7.12368562817573547363e-02) (43, -9.06447917222976684570e-02) (44, -4.24379706382751464844e-02) (45, -4.75158579647541046143e-02) (46, 8.15359726548194885254e-02) (47, 5.55104687809944152832e-02) (48, -5.68374991416931152344e-04) (49, -2.01134756207466125488e-02) (50, -1.88611969351768493652e-02) (51, -1.08711272478103637695e-02) (52, -8.08369144797325134277e-02) (53, 5.95426633954048156738e-02) (54, -8.96123573184013366699e-02) (55, -5.30800186097621917725e-02) (56, 1.65753364562988281250e-02) (57, -6.89762085676193237305e-02) (58, 9.01214554905891418457e-02) (59, 2.90566757321357727051e-02) (60, -8.40351879596710205078e-02) (61, 1.84344425797462463379e-02) (62, 8.90376642346382141113e-02) (63, 8.00722911953926086426e-02) (64, -2.95407027006149291992e-02) (65, 4.09382954239845275879e-02) (66, 4.81151044368743896484e-03) (67, 4.22859415411949157715e-02) (68, -4.45486381649971008301e-02) (69, 3.62223461270332336426e-02) (70, -3.99668812751770019531e-02) (71, 3.48759219050407409668e-02) (72, 3.47320511937141418457e-02) (73, -6.87300190329551696777e-02) (74, 4.42311242222785949707e-02) (75, 9.22940745949745178223e-02) (76, -1.62458792328834533691e-02) (77, 2.57670953869819641113e-02) (78, 4.78045418858528137207e-02) (79, 8.31857398152351379395e-02) (80, -9.43463817238807678223e-02) (81, -7.10566565394401550293e-02) (82, -2.76853889226913452148e-02) (83, -7.51832872629165649414e-02) (84, 8.84860083460807800293e-02) (85, -1.72977373003959655762e-02) (86, -2.82633081078529357910e-02) (87, 5.06134331226348876953e-03) (88, 1.37260556221008300781e-02) (89, -3.81418652832508087158e-02) (90, -6.58819749951362609863e-02) (91, 2.96908691525459289551e-02) (92, 8.02925899624824523926e-02) (93, -7.68443048000335693359e-02) (94, 9.76315885782241821289e-03) (95, -4.92481254041194915771e-02) (96, 6.40939995646476745605e-02) (97, -8.54253321886062622070e-02) (98, 9.30378213524818420410e-02) (99, -8.04546400904655456543e-02) (100, 5.07970228791236877441e-02) (101, -4.69290576875209808350e-02) (102, 5.44212684035301208496e-02) (103, -1.44709348678588867188e-02) (104, -1.56590789556503295898e-02) (105, -1.34760141372680664062e-03) (106, -2.21768543124198913574e-02) (107, 6.80950507521629333496e-02) (108, -7.55805075168609619141e-02) (109, -7.43723139166831970215e-02) (110, 5.12807890772819519043e-02) (111, -6.99268803000450134277e-02) (112, -4.54289726912975311279e-02) (113, -7.64046013355255126953e-02) (114, -4.51101735234260559082e-02) (115, -5.69429695606231689453e-02) (116, 6.29766285419464111328e-03) (117, 2.66265198588371276855e-02) (118, 4.81183752417564392090e-02) (119, -7.99762904644012451172e-02) (120, 8.84846523404121398926e-02) (121, 8.22364017367362976074e-02) (122, 4.97145727276802062988e-02) (123, 6.87772408127784729004e-02) (124, -9.46079045534133911133e-02) (125, -4.05222736299037933350e-02) (126, -8.04708898067474365234e-02) (127, 6.94860890507698059082e-02) (128, -2.59476080536842346191e-02) (129, -8.74330624938011169434e-02) (130, 8.90314653515815734863e-02) (131, -7.51505866646766662598e-02) (132, -3.43621224164962768555e-02) (133, 4.34527322649955749512e-02) (134, 1.03784799575805664062e-02) (135, 4.99788001179695129395e-02) (136, -5.78948743641376495361e-02) (137, 8.82016196846961975098e-02) (138, 1.80738568305969238281e-02) (139, -3.34753841161727905273e-02) (140, -8.61706957221031188965e-02) (141, -3.06453555822372436523e-02) (142, -3.40226292610168457031e-03) (143, -3.15996631979942321777e-02) (144, -7.04996287822723388672e-03) (145, 5.14875724911689758301e-02) (146, 1.14573612809181213379e-02) (147, 9.92477014660835266113e-02) (148, -2.18859165906906127930e-02) (149, -4.04242649674415588379e-02) (150, -8.07285830378532409668e-02) (151, -3.34012582898139953613e-02) (152, -5.81878684461116790771e-02) (153, 6.89859911799430847168e-02) (154, -6.46240264177322387695e-02) (155, -5.27957677841186523438e-02) (156, -7.15362802147865295410e-02) (157, -4.50949072837829589844e-02) (158, -8.33096802234649658203e-02) (159, 2.51611322164535522461e-03) (160, -3.25279682874679565430e-02) (161, -9.42782238125801086426e-02) (162, 2.73655280470848083496e-02) (163, 3.31099107861518859863e-02) (164, 4.91745099425315856934e-02) (165, -6.22559934854507446289e-02) (166, -1.69112831354141235352e-02) (167, 9.12796333432197570801e-02) (168, -7.40543678402900695801e-02) (169, -9.88374352455139160156e-02) (170, -4.21957485377788543701e-02) (171, -6.02250620722770690918e-02) (172, -2.94827967882156372070e-02) (173, 5.44019863009452819824e-02) (174, 8.17527621984481811523e-03) (175, 6.34672567248344421387e-02) (176, 5.88954985141754150391e-03) (177, -8.03673639893531799316e-02) (178, 6.27149417996406555176e-02) (179, 8.40036347508430480957e-02) (180, -2.07916274666786193848e-02) (181, 8.19863751530647277832e-02) (182, -4.93976250290870666504e-02) (183, 2.10205093026161193848e-02) (184, 5.09723499417304992676e-02) (185, -1.40216499567031860352e-02) (186, 6.82247355580329895020e-02) (187, 7.94360712170600891113e-02) (188, 4.08834442496299743652e-02) (189, 8.49150642752647399902e-02) (190, -1.80478096008300781250e-02) (191, -9.16445180773735046387e-02) (192, 9.06368568539619445801e-02) (193, -9.06822830438613891602e-02) (194, 4.14653941988945007324e-02) (195, 3.98113504052162170410e-02) (196, -5.29382750391960144043e-02) (197, -7.54458978772163391113e-02) (198, 3.10909822583198547363e-02) (199, -2.69926413893699645996e-02) (200, -7.42833316326141357422e-02) (201, 8.88952389359474182129e-02) (202, 1.27822980284690856934e-02) (203, -3.76612693071365356445e-03) (204, 4.32972237467765808105e-02) (205, -7.90424272418022155762e-02) (206, -4.02988791465759277344e-02) (207, -5.08132316172122955322e-02) (208, -5.94097934663295745850e-02) (209, -7.75839239358901977539e-02) (210, -6.68095946311950683594e-02) (211, 1.97985917329788208008e-02) (212, -9.55975651741027832031e-02) (213, -1.62072181701660156250e-02) (214, -5.91809004545211791992e-02) (215, 5.53747937083244323730e-02) (216, 6.97711333632469177246e-02) (217, -9.09561589360237121582e-02) (218, 3.48108634352684020996e-02) (219, 1.06545835733413696289e-02) (220, 9.39589068293571472168e-02) (221, -8.32369402050971984863e-02) (222, 1.90100669860839843750e-02) (223, 8.45957472920417785645e-02) (224, -7.39192217588424682617e-02) (225, -3.95245440304279327393e-02) (226, 2.44071036577224731445e-02) (227, -2.68574953079223632812e-02) (228, -1.49704366922378540039e-02) (229, -4.45019118487834930420e-02) (230, 4.61498573422431945801e-02) (231, 1.07462257146835327148e-02) (232, -5.56066855788230895996e-02) (233, -4.10678386688232421875e-02) (234, -9.30198952555656433105e-02) (235, 8.76905396580696105957e-02) (236, -2.01102644205093383789e-02) (237, -3.33187729120254516602e-02) (238, -6.31226971745491027832e-02) (239, 2.04799398779869079590e-02) (240, -1.09027028083801269531e-02) (241, -2.99322903156280517578e-02) (242, -5.97214736044406890869e-02) (243, -6.50025904178619384766e-03) (244, 5.38604930043220520020e-02) (245, -1.89023762941360473633e-02) (246, -5.11254705488681793213e-02) (247, 2.36316174268722534180e-02) (248, -9.85853374004364013672e-03) (249, 8.36854055523872375488e-02) (250, -6.57137930393218994141e-02) (251, -1.58996209502220153809e-02) (252, -9.95515361428260803223e-02) (253, 5.32962754368782043457e-02) (254, -3.13038676977157592773e-02) (255, -7.34707564115524291992e-02) (256, -8.62282663583755493164e-02) (0, 9.31032374501228332520e-02) (1, -3.28257679939270019531e-04) (2, -1.19870156049728393555e-03) (3, -5.13986833393573760986e-02) (4, -5.41783906519412994385e-02) (5, -9.04524773359298706055e-02) (6, -7.00537115335464477539e-03) (7, 4.75376844406127929688e-03) (8, -8.34723711013793945312e-02) (9, -1.93148329854011535645e-02) (10, 8.46434906125068664551e-02) (11, -1.67911425232887268066e-02) (12, 1.75624713301658630371e-02) (13, 5.12343645095825195312e-03) (14, 7.23061636090278625488e-02) (15, 8.76301899552345275879e-02) (16, 4.54019680619239807129e-02) (17, -3.41941118240356445312e-02) (18, 4.14906814694404602051e-02) (19, -7.35004022717475891113e-02) (20, 1.46804228425025939941e-02) (21, -3.48777025938034057617e-02) (22, 1.66410580277442932129e-02) (23, -1.63417309522628784180e-03) (24, -5.91486692428588867188e-04) (25, -9.92585644125938415527e-02) (26, -1.18570774793624877930e-03) (27, -4.72952090203762054443e-02) (28, -3.05624380707740783691e-02) (29, 2.53435298800468444824e-02) (30, -3.35234776139259338379e-02) (31, -3.74592095613479614258e-02) (32, -7.49847218394279479980e-02) (33, 6.52778223156929016113e-02) (34, 1.11421123147010803223e-02) (35, -2.91631072759628295898e-02) (36, 7.48253539204597473145e-02) (37, -9.58632528781890869141e-02) (38, 7.55906626582145690918e-02) (39, 9.13529768586158752441e-02) (40, -1.51780843734741210938e-02) (41, 6.02341666817665100098e-02) (42, -2.54381671547889709473e-02) (43, -9.76156145334243774414e-02) (44, -3.46423983573913574219e-02) (45, -5.31320087611675262451e-02) (46, 9.00145843625068664551e-02) (47, -8.92404317855834960938e-02) (48, 1.26738771796226501465e-02) (49, 3.15052345395088195801e-02) (50, -6.27408325672149658203e-02) (51, -7.26456940174102783203e-02) (52, 9.66275408864021301270e-02) (53, 5.39002344012260437012e-02) (54, 2.57201269268989562988e-02) (55, -3.96393984556198120117e-03) (56, 5.46416714787483215332e-02) (57, -7.54655823111534118652e-02) (58, 4.87408563494682312012e-02) (59, -7.59207680821418762207e-02) (60, 4.98779490590095520020e-02) (61, -8.47826302051544189453e-02) (62, -1.33799761533737182617e-02) (63, 7.48932287096977233887e-02) (64, 8.04952010512351989746e-02) (65, 9.77621451020240783691e-02) (66, -5.42698875069618225098e-02) (67, 5.53205534815788269043e-02) (68, -9.81011167168617248535e-02) (69, -7.86792263388633728027e-02) (70, 4.66735288500785827637e-02) (71, -1.32791996002197265625e-02) (72, 8.15549418330192565918e-02) (73, -7.87646397948265075684e-02) (74, -1.08948126435279846191e-02) (75, -5.30874654650688171387e-02) (76, -3.18966507911682128906e-02) (77, -2.08802372217178344727e-02) (78, -4.23278920352458953857e-02) (79, 8.07772353291511535645e-02) (80, -8.93749967217445373535e-02) (81, -5.06872683763504028320e-03) (82, -9.18684676289558410645e-02) (83, -9.27474498748779296875e-02) (84, -5.11684976518154144287e-02) (85, 3.38516607880592346191e-02) (86, 3.28860431909561157227e-03) (87, -9.65268313884735107422e-02) (88, 5.83860799670219421387e-02) (89, -4.79705519974231719971e-02) (90, -7.24475979804992675781e-02) (91, 8.26402753591537475586e-03) (92, -3.27531769871711730957e-02) (93, 1.41724199056625366211e-02) (94, -1.68427452445030212402e-02) (95, -5.22579811513423919678e-02) (96, 1.19345635175704956055e-02) (97, 2.88873687386512756348e-02) (98, -9.69374328851699829102e-02) (99, 1.38334482908248901367e-02) (100, 5.02081438899040222168e-02) (101, 4.97360900044441223145e-02) (102, -9.94457527995109558105e-02) (103, 3.17630842328071594238e-02) (104, 7.09714516997337341309e-02) (105, -1.03405565023422241211e-02) (106, 7.86756053566932678223e-02) (107, -6.09251968562602996826e-02) (108, 6.87791928648948669434e-02) (109, -6.36522918939590454102e-02) (110, -8.01479592919349670410e-02) (111, 7.94041976332664489746e-02) (112, 3.12789902091026306152e-02) (113, -7.20164254307746887207e-02) (114, 8.66567566990852355957e-02) (115, 8.01104977726936340332e-02) (116, 6.18352368474006652832e-02) (117, -1.00546404719352722168e-02) (118, 8.35836604237556457520e-02) (119, 2.02213153243064880371e-02) (120, 4.19748052954673767090e-02) (121, -8.88639464974403381348e-02) (122, -7.15146511793136596680e-02) (123, -9.07783657312393188477e-02) (124, 2.53084972500801086426e-02) (125, 1.16425976157188415527e-02) (126, -4.30363491177558898926e-02) (127, -6.27569481730461120605e-02) (128, -5.94700351357460021973e-02) (129, -3.99737767875194549561e-02) (130, 5.10765090584754943848e-02) (131, 9.07381102442741394043e-02) (132, -9.02376845479011535645e-02) (133, 5.16307577490806579590e-02) (134, 2.25011855363845825195e-02) (135, 8.07337835431098937988e-02) (136, -5.87098039686679840088e-02) (137, 1.17678940296173095703e-03) (138, -8.01914185285568237305e-02) (139, -8.99306088685989379883e-02) (140, 3.75244989991188049316e-02) (141, -6.03393837809562683105e-02) (142, 8.94736126065254211426e-02) (143, -3.11965122818946838379e-02) (144, -3.23558077216148376465e-02) (145, 7.61303529143333435059e-02) (146, -5.10860197246074676514e-02) (147, -7.05205649137496948242e-02) (148, -3.39242964982986450195e-02) (149, -6.75023645162582397461e-02) (150, 4.97007444500923156738e-02) (151, -9.19494852423667907715e-02) (152, -5.63663057982921600342e-02) (153, 7.81861022114753723145e-02) (154, -8.27278494834899902344e-02) (155, 6.89421817660331726074e-02) (156, -1.01712942123413085938e-02) (157, -2.57641971111297607422e-02) (158, -9.38147678971290588379e-02) (159, 3.03586795926094055176e-02) (160, 3.42620238661766052246e-02) (161, 5.72617426514625549316e-02) (162, 2.10967808961868286133e-02) (163, 4.40243408083915710449e-02) (164, 8.89249145984649658203e-03) (165, -5.64020387828350067139e-02) (166, 2.47581154108047485352e-02) (167, 5.01826927065849304199e-02) (168, 4.47747483849525451660e-02) (169, 4.45666983723640441895e-02) (170, 6.02520778775215148926e-02) (171, -1.77007466554641723633e-02) (172, 8.42273160815238952637e-02) (173, 4.97256889939308166504e-02) (174, 5.11027500033378601074e-02) (175, -4.81284968554973602295e-02) (176, 2.58560404181480407715e-02) (177, -9.99832823872566223145e-02) (178, -1.86490640044212341309e-02) (179, 9.19317528605461120605e-02) (180, -6.74856454133987426758e-02) (181, -6.89483135938644409180e-02) (182, 9.99822691082954406738e-02) (183, -2.38519459962844848633e-02) (184, -9.07622128725051879883e-02) (185, -8.27455893158912658691e-02) (186, -5.49097657203674316406e-02) (187, -9.33505594730377197266e-04) (188, -8.50979238748550415039e-03) (189, -4.87245321273803710938e-02) (190, -7.05748349428176879883e-02) (191, -7.42477625608444213867e-02) (192, -9.14627984166145324707e-02) (193, 5.05219474434852600098e-02) (194, 6.97765871882438659668e-02) (195, 1.74296945333480834961e-02) (196, 9.41199138760566711426e-02) (197, -5.46531379222869873047e-03) (198, -3.23876142501831054688e-02) (199, 3.88946607708930969238e-02) (200, -6.08986206352710723877e-02) (201, -7.21355229616165161133e-02) (202, -7.88060948252677917480e-02) (203, -7.66713172197341918945e-02) (204, 7.75901749730110168457e-02) (205, 7.22966417670249938965e-02) (206, -2.47998088598251342773e-02) (207, 3.44619899988174438477e-03) (208, 7.23133757710456848145e-02) (209, 5.65511211752891540527e-02) (210, -4.62205708026885986328e-03) (211, -9.51722785830497741699e-02) (212, 8.76028016209602355957e-02) (213, -4.63978946208953857422e-03) (214, -1.90242230892181396484e-02) (215, 9.68405976891517639160e-02) (216, 1.26146227121353149414e-02) (217, 2.60660126805305480957e-02) (218, -4.09290939569473266602e-03) (219, -9.58951711654663085938e-02) (220, 7.73414745926856994629e-02) (221, 2.53322646021842956543e-02) (222, -7.01429322361946105957e-02) (223, 8.58786776661872863770e-02) (224, -2.41457968950271606445e-02) (225, 9.96336415410041809082e-02) (226, 3.30837815999984741211e-03) (227, -3.00258919596672058105e-02) (228, -5.83166629076004028320e-03) (229, 7.09207728505134582520e-02) (230, -9.11312401294708251953e-02) (231, 3.32697108387947082520e-02) (232, 9.87852439284324645996e-02) (233, -6.99373334646224975586e-02) (234, 5.65984025597572326660e-02) (235, 7.63754025101661682129e-02) (236, -9.76406857371330261230e-02) (237, -6.82014226913452148438e-02) (238, -2.01783925294876098633e-02) (239, 7.46726915240287780762e-02) (240, 8.83497074246406555176e-02) (241, 7.51995518803596496582e-02) (242, 7.95004144310951232910e-02) (243, 7.59525075554847717285e-02) (244, -2.94402316212654113770e-02) (245, -3.95238101482391357422e-02) (246, 7.27931186556816101074e-02) (247, 8.31743851304054260254e-02) (248, 8.65421965718269348145e-02) (249, -3.12997996807098388672e-02) (250, 8.72792229056358337402e-02) (251, 6.38836696743965148926e-02) (252, 9.40324738621711730957e-02) (253, -8.28637108206748962402e-02) (254, 4.97623607516288757324e-02) (255, -3.01133319735527038574e-02) (256, -8.32300633192062377930e-02) (0, -4.69292663037776947021e-02) (1, 3.98607775568962097168e-02) (2, 1.09382718801498413086e-02) (3, -7.60084986686706542969e-02) (4, 4.87295463681221008301e-02) (5, -5.57920187711715698242e-02) (6, -7.72232562303543090820e-02) (7, 7.87922069430351257324e-02) (8, -9.91936177015304565430e-02) (9, 9.91521552205085754395e-02) (10, 8.11515226960182189941e-02) (11, -6.73950314521789550781e-02) (12, -2.10262387990951538086e-02) (13, 5.58241978287696838379e-02) (14, -7.90453329682350158691e-02) (15, -4.58266809582710266113e-02) (16, 3.53246107697486877441e-02) (17, 9.69071909785270690918e-02) (18, 2.47330889105796813965e-02) (19, 9.58007946610450744629e-02) (20, 6.97002932429313659668e-02) (21, 7.90747255086898803711e-03) (22, 8.23429897427558898926e-02) (23, -6.15995079278945922852e-02) (24, -4.81329858303070068359e-03) (25, 4.62266877293586730957e-02) (26, -6.75670504570007324219e-02) (27, 1.23229846358299255371e-02) (28, -4.01096045970916748047e-03) (29, 2.31961905956268310547e-03) (30, 2.90929153561592102051e-02) (31, 4.90597710013389587402e-02) (32, -5.78196123242378234863e-02) (33, -5.99688105285167694092e-02) (34, 7.30512812733650207520e-02) (35, 9.09099206328392028809e-02) (36, -1.57608240842819213867e-02) (37, 9.58280339837074279785e-02) (38, 6.97021260857582092285e-02) (39, -1.49544402956962585449e-02) (40, 9.49801877140998840332e-02) (41, 5.08536472916603088379e-02) (42, 1.76505222916603088379e-02) (43, -2.60460525751113891602e-02) (44, 6.67784363031387329102e-03) (45, 3.86051908135414123535e-02) (46, 2.81272605061531066895e-02) (47, -5.79975508153438568115e-02) (48, 3.55123803019523620605e-02) (49, -4.71396446228027343750e-02) (50, -6.21967501938343048096e-02) (51, 5.21266460418701171875e-03) (52, 6.07678368687629699707e-02) (53, -7.98537582159042358398e-02) (54, 4.36131581664085388184e-02) (55, -4.40454669296741485596e-02) (56, 6.63729235529899597168e-02) (57, 7.60461166501045227051e-02) (58, 6.82775303721427917480e-02) (59, -3.76380383968353271484e-02) (60, -2.16342732310295104980e-02) (61, -2.62955576181411743164e-03) (62, -8.85782688856124877930e-02) (63, 2.05461159348487854004e-02) (64, 3.74016389250755310059e-02) (65, 8.44730213284492492676e-02) (66, 1.14560350775718688965e-02) (67, -7.83591940999031066895e-02) (68, 8.03010538220405578613e-02) (69, -1.88418328762054443359e-02) (70, 6.68636709451675415039e-03) (71, 7.52812251448631286621e-02) (72, -6.79881870746612548828e-02) (73, -7.56631121039390563965e-02) (74, -5.07648289203643798828e-02) (75, 3.86896654963493347168e-02) (76, 6.29420801997184753418e-02) (77, 7.73624405264854431152e-02) (78, 8.06921198964118957520e-02) (79, -1.54554843902587890625e-03) (80, -6.97772055864334106445e-02) (81, -8.15046429634094238281e-02) (82, -9.63328853249549865723e-02) (83, 9.09906253218650817871e-02) (84, -6.13583959639072418213e-02) (85, 4.72802594304084777832e-02) (86, -5.30548356473445892334e-02) (87, -9.49854776263236999512e-02) (88, 2.33263745903968811035e-02) (89, -8.47773179411888122559e-02) (90, -3.26235145330429077148e-02) (91, -9.83079075813293457031e-02) (92, 1.25931277871131896973e-02) (93, -2.12017819285392761230e-02) (94, 2.22382098436355590820e-02) (95, -5.00052385032176971436e-02) (96, -3.67287695407867431641e-02) (97, -6.63057565689086914062e-02) (98, -2.83644273877143859863e-02) (99, -5.64277283847332000732e-02) (100, 1.48524194955825805664e-02) (101, 7.83219411969184875488e-02) (102, -8.11465084552764892578e-02) (103, 4.68642190098762512207e-02) (104, -9.73411723971366882324e-02) (105, -3.19113284349441528320e-02) (106, -1.44461169838905334473e-02) (107, 6.56009092926979064941e-02) (108, -5.45488968491554260254e-02) (109, -3.37540060281753540039e-02) (110, -3.59446480870246887207e-02) (111, -2.43261009454727172852e-02) (112, -1.52586549520492553711e-02) (113, -3.22775319218635559082e-02) (114, -3.33354622125625610352e-02) (115, 2.33829468488693237305e-02) (116, -8.49972665309906005859e-02) (117, 1.36096924543380737305e-02) (118, 2.83974781632423400879e-02) (119, 3.83291170001029968262e-02) (120, 2.88323834538459777832e-02) (121, 9.57739576697349548340e-02) (122, 4.00212034583091735840e-02) (123, -5.85744865238666534424e-02) (124, -2.54278182983398437500e-02) (125, -3.77405844628810882568e-02) (126, -8.57972353696823120117e-03) (127, 3.78434136509895324707e-02) (128, -4.04633581638336181641e-03) (129, 6.30558505654335021973e-02) (130, 8.14156904816627502441e-02) (131, -8.91939178109169006348e-02) (132, 4.13777902722358703613e-02) (133, -9.97308194637298583984e-02) (134, 5.76703026890754699707e-02) (135, 4.40366193652153015137e-02) (136, -3.16421464085578918457e-02) (137, -5.67758083343505859375e-02) (138, 9.63751971721649169922e-03) (139, 1.38089507818222045898e-02) (140, 9.47017967700958251953e-03) (141, 7.36928656697273254395e-02) (142, 8.94828513264656066895e-02) (143, 9.42115262150764465332e-02) (144, -5.85846565663814544678e-02) (145, -4.38526049256324768066e-02) (146, 1.75944790244102478027e-02) (147, -4.35819216072559356689e-02) (148, 6.97570964694023132324e-02) (149, -5.40080443024635314941e-02) (150, 9.47471931576728820801e-02) (151, -1.41052156686782836914e-03) (152, -5.82340769469738006592e-02) (153, 3.47683951258659362793e-02) (154, 4.00149896740913391113e-02) (155, 1.63381099700927734375e-02) (156, 9.70278009772300720215e-02) (157, -6.85647279024124145508e-02) (158, -4.58184778690338134766e-02) (159, -7.01852142810821533203e-03) (160, 9.44911316037178039551e-02) (161, -6.44027888774871826172e-02) (162, 3.78755480051040649414e-03) (163, 3.58689054846763610840e-02) (164, -6.41335994005203247070e-02) (165, -3.85421402752399444580e-02) (166, -2.00944691896438598633e-02) (167, 4.22425568103790283203e-03) (168, 4.68204915523529052734e-03) (169, 8.95430520176887512207e-02) (170, -8.19667875766754150391e-02) (171, -8.58477652072906494141e-02) (172, 6.32359310984611511230e-02) (173, -9.24839302897453308105e-02) (174, -9.16362404823303222656e-02) (175, -9.53487381339073181152e-02) (176, -3.63365337252616882324e-02) (177, 2.59582474827766418457e-02) (178, -3.89306545257568359375e-02) (179, -6.65794461965560913086e-02) (180, 7.19502046704292297363e-02) (181, -4.41834703087806701660e-02) (182, 3.20100411772727966309e-02) (183, -8.62838774919509887695e-02) (184, 9.05849263072013854980e-02) (185, -2.79749780893325805664e-02) (186, 3.00542190670967102051e-02) (187, 8.76127406954765319824e-02) (188, 3.46030294895172119141e-03) (189, 8.42357501387596130371e-02) (190, -1.94057971239089965820e-02) (191, -2.04858183860778808594e-03) (192, -8.01670327782630920410e-02) (193, 8.43817666172981262207e-02) (194, -6.61796778440475463867e-02) (195, -4.43006344139575958252e-02) (196, -5.41603788733482360840e-02) (197, 1.37258544564247131348e-02) (198, 5.99236115813255310059e-02) (199, 5.05216792225837707520e-02) (200, 3.26889753341674804688e-03) (201, 7.79568329453468322754e-02) (202, 6.46739080548286437988e-02) (203, -3.34951728582382202148e-02) (204, 8.54728892445564270020e-02) (205, 7.30376765131950378418e-02) (206, -2.88439095020294189453e-02) (207, -5.08636347949504852295e-02) (208, -1.00408494472503662109e-03) (209, 3.22254374623298645020e-02) (210, -1.74430757761001586914e-02) (211, -2.90538817644119262695e-02) (212, 8.80419686436653137207e-02) (213, -8.54330360889434814453e-02) (214, -1.53377652168273925781e-02) (215, 7.86268934607505798340e-02) (216, -1.34080126881599426270e-02) (217, -8.52835401892662048340e-02) (218, 6.62396177649497985840e-02) (219, 9.00522843003273010254e-02) (220, 9.89522263407707214355e-02) (221, -5.31661771237850189209e-02) (222, -1.19962990283966064453e-02) (223, -8.12148153781890869141e-02) (224, -6.87844157218933105469e-02) (225, 2.18240246176719665527e-02) (226, -2.55154520273208618164e-02) (227, -2.29447931051254272461e-02) (228, -6.44501149654388427734e-02) (229, -6.55918419361114501953e-02) (230, -7.24231228232383728027e-02) (231, 3.88187840580940246582e-02) (232, -8.76350179314613342285e-02) (233, 9.22507867217063903809e-02) (234, -9.46763977408409118652e-02) (235, 9.78378877043724060059e-02) (236, 6.52884617447853088379e-02) (237, -2.35203057527542114258e-02) (238, -5.30257485806941986084e-02) (239, -3.57156246900558471680e-02) (240, -9.12948697805404663086e-02) (241, 2.95311883091926574707e-02) (242, 3.52304801344871520996e-02) (243, 9.67471078038215637207e-02) (244, 4.40981462597846984863e-02) (245, -8.01072791218757629395e-02) (246, 7.53739848732948303223e-02) (247, -6.93098679184913635254e-02) (248, -6.53908178210258483887e-02) (249, 4.16136160492897033691e-02) (250, -7.92575851082801818848e-02) (251, -6.64386004209518432617e-02) (252, 8.84474292397499084473e-02) (253, 8.74612480401992797852e-03) (254, -4.76534143090248107910e-02) (255, -8.03369879722595214844e-02) (256, -6.94298446178436279297e-02) (0, 2.68311277031898498535e-02) (1, -3.28177958726882934570e-03) (2, -3.38799655437469482422e-02) (3, 6.12392947077751159668e-02) (4, 2.42951065301895141602e-02) (5, -9.50611829757690429688e-02) (6, 7.36042782664299011230e-02) (7, 1.65458917617797851562e-02) (8, -8.97375792264938354492e-02) (9, 7.14421644806861877441e-02) (10, -1.81656479835510253906e-02) (11, -1.32578760385513305664e-02) (12, -8.15835893154144287109e-02) (13, 4.61187288165092468262e-02) (14, -4.55274432897567749023e-03) (15, 4.79475930333137512207e-02) (16, -1.86507850885391235352e-02) (17, -7.80565291643142700195e-03) (18, -7.95426964759826660156e-03) (19, 1.24193727970123291016e-03) (20, -3.24316620826721191406e-02) (21, 2.27358564734458923340e-02) (22, 3.58511283993721008301e-02) (23, -9.08180549740791320801e-02) (24, 4.34782728552818298340e-02) (25, 6.94125220179557800293e-02) (26, 9.76293757557868957520e-02) (27, -4.77756038308143615723e-02) (28, -7.82409012317657470703e-02) (29, -8.27076062560081481934e-02) (30, -1.72054469585418701172e-02) (31, 4.85902354121208190918e-02) (32, 1.40106230974197387695e-02) (33, 4.89145889878273010254e-02) (34, 9.82952117919921875000e-03) (35, -6.16942830383777618408e-02) (36, 5.38534000515937805176e-02) (37, -1.65662020444869995117e-02) (38, 5.48515990376472473145e-02) (39, 6.41158297657966613770e-02) (40, -4.51240353286266326904e-02) (41, -6.33140504360198974609e-02) (42, -4.91420514881610870361e-02) (43, -2.67076194286346435547e-02) (44, 8.28046873211860656738e-02) (45, 4.63052019476890563965e-02) (46, -7.87600278854370117188e-02) (47, -3.58461067080497741699e-02) (48, -6.15004450082778930664e-02) (49, 1.32856965065002441406e-02) (50, 6.53958246111869812012e-02) (51, 6.06789439916610717773e-03) (52, -6.39784336090087890625e-02) (53, 1.24694406986236572266e-03) (54, 1.52498334646224975586e-02) (55, 7.94998481869697570801e-02) (56, -2.93405503034591674805e-02) (57, 1.28792151808738708496e-02) (58, -6.82757645845413208008e-02) (59, -7.58144259452819824219e-03) (60, 3.01716253161430358887e-02) (61, 1.45187973976135253906e-02) (62, -5.89912086725234985352e-02) (63, -5.58177642524242401123e-02) (64, -3.65666151046752929688e-02) (65, 5.08383139967918395996e-02) (66, -1.75120458006858825684e-02) (67, -8.27132165431976318359e-02) (68, -6.57278820872306823730e-02) (69, -6.26604408025741577148e-02) (70, 8.14026072621345520020e-02) (71, -1.08519122004508972168e-02) (72, -2.59744822978973388672e-02) (73, -6.77394270896911621094e-02) (74, 6.24404624104499816895e-02) (75, -4.31698039174079895020e-02) (76, 7.85657837986946105957e-02) (77, 8.36804434657096862793e-02) (78, 2.09840908646583557129e-02) (79, -8.29346701502799987793e-02) (80, -3.03386151790618896484e-03) (81, -1.36200934648513793945e-02) (82, 2.31332182884216308594e-02) (83, 3.29877063632011413574e-02) (84, 8.76268520951271057129e-02) (85, -6.16169385612010955811e-02) (86, 1.24875456094741821289e-02) (87, -4.17136959731578826904e-02) (88, 5.12622818350791931152e-02) (89, 4.42117825150489807129e-02) (90, 5.07048591971397399902e-02) (91, -1.85661017894744873047e-02) (92, -4.12694215774536132812e-02) (93, 9.17136594653129577637e-02) (94, 2.56161317229270935059e-02) (95, 2.21639648079872131348e-02) (96, 4.25519719719886779785e-02) (97, -9.18959155678749084473e-02) (98, 3.94507572054862976074e-02) (99, 7.68240764737129211426e-02) (100, -5.45563511550426483154e-02) (101, 2.08533629775047302246e-02) (102, -3.40278297662734985352e-02) (103, 1.94691643118858337402e-02) (104, 5.31139448285102844238e-02) (105, -7.15873688459396362305e-02) (106, 7.62993618845939636230e-02) (107, 3.16797122359275817871e-02) (108, -8.79069268703460693359e-02) (109, -2.71655619144439697266e-03) (110, 4.87450435757637023926e-02) (111, 9.05921310186386108398e-03) (112, 8.36633518338203430176e-02) (113, -2.81217396259307861328e-02) (114, -5.79530894756317138672e-02) (115, 7.12902024388313293457e-02) (116, 1.02613195776939392090e-02) (117, 5.45344576239585876465e-02) (118, -7.04234987497329711914e-02) (119, -3.84763963520526885986e-02) (120, -1.25376135110855102539e-03) (121, 8.02813693881034851074e-02) (122, 4.29575070738792419434e-02) (123, 5.74768260121345520020e-02) (124, 7.19950273633003234863e-02) (125, -3.14263552427291870117e-02) (126, -2.03592181205749511719e-02) (127, 1.45469754934310913086e-02) (128, -2.33222693204879760742e-02) (129, -8.09084698557853698730e-02) (130, -8.62892717123031616211e-03) (131, 2.21213847398757934570e-02) (132, 3.99448946118354797363e-02) (133, 5.73432371020317077637e-02) (134, -5.84094598889350891113e-02) (135, -6.94116204977035522461e-03) (136, 8.57558771967887878418e-02) (137, -8.21100994944572448730e-02) (138, -7.52614513039588928223e-02) (139, 9.78489443659782409668e-02) (140, 1.51733532547950744629e-02) (141, 7.34835937619209289551e-02) (142, 6.90815597772598266602e-03) (143, -1.16328895092010498047e-03) (144, -5.46381585299968719482e-02) (145, 4.89550605416297912598e-02) (146, -2.98730880022048950195e-02) (147, 5.56231662631034851074e-02) (148, 3.48951667547225952148e-03) (149, -2.96577811241149902344e-04) (150, -8.28532353043556213379e-02) (151, -9.77642461657524108887e-02) (152, -2.00152173638343811035e-02) (153, 6.01042732596397399902e-02) (154, 5.97125813364982604980e-02) (155, -4.80202026665210723877e-02) (156, -7.13220909237861633301e-02) (157, -6.06466419994831085205e-02) (158, 6.65267780423164367676e-02) (159, 5.35563379526138305664e-03) (160, -4.15551066398620605469e-02) (161, -4.21021543443202972412e-02) (162, -7.25229904055595397949e-02) (163, 9.83897969126701354980e-02) (164, -8.47589150071144104004e-02) (165, -3.09324413537979125977e-02) (166, -8.55137407779693603516e-03) (167, -9.90030393004417419434e-02) (168, -1.30425468087196350098e-02) (169, 1.61871761083602905273e-02) (170, 9.88459065556526184082e-02) (171, -9.78691950440406799316e-02) (172, -1.03292390704154968262e-02) (173, 5.75406849384307861328e-03) (174, 9.67517495155334472656e-04) (175, 3.50326076149940490723e-02) (176, -4.52908761799335479736e-02) (177, 7.10944309830665588379e-02) (178, -9.34423506259918212891e-03) (179, 5.81986382603645324707e-02) (180, -2.92021557688713073730e-02) (181, 7.80253112316131591797e-03) (182, 6.04344084858894348145e-02) (183, 5.07826283574104309082e-02) (184, -3.20932045578956604004e-02) (185, 2.01469808816909790039e-02) (186, -9.72375720739364624023e-02) (187, -3.41529399156570434570e-03) (188, 5.95003440976142883301e-02) (189, 6.92892149090766906738e-02) (190, -9.80596542358398437500e-02) (191, -8.20547714829444885254e-02) (192, -7.28129372000694274902e-02) (193, -7.05826431512832641602e-02) (194, -8.36649835109710693359e-02) (195, -5.75718507170677185059e-02) (196, -1.51509046554565429688e-03) (197, 7.78365135192871093750e-03) (198, -5.65748885273933410645e-02) (199, 8.54423716664314270020e-02) (200, -7.60291740298271179199e-02) (201, -5.77289834618568420410e-02) (202, 8.75731781125068664551e-02) (203, 1.36415809392929077148e-02) (204, 4.80250790715217590332e-02) (205, -1.14593133330345153809e-02) (206, -5.13258166611194610596e-02) (207, -9.72657948732376098633e-02) (208, -4.03648875653743743896e-02) (209, 3.93299534916877746582e-02) (210, 6.09328523278236389160e-02) (211, 3.04329618811607360840e-02) (212, -5.28675206005573272705e-02) (213, 2.13672518730163574219e-02) (214, -1.87844187021255493164e-02) (215, 1.50392800569534301758e-02) (216, -5.84857687354087829590e-02) (217, -1.60219818353652954102e-02) (218, -8.83760154247283935547e-02) (219, -9.89854335784912109375e-02) (220, -4.67327795922756195068e-02) (221, -8.64356681704521179199e-02) (222, -8.10402035713195800781e-02) (223, -1.95457190275192260742e-02) (224, -5.70183098316192626953e-02) (225, -6.47051781415939331055e-02) (226, 2.28824391961097717285e-02) (227, 4.14666011929512023926e-02) (228, 4.30784747004508972168e-02) (229, 6.63075521588325500488e-02) (230, 2.69089564681053161621e-02) (231, 6.70493021607398986816e-02) (232, -9.14214402437210083008e-02) (233, 1.44821256399154663086e-02) (234, -1.93091183900833129883e-02) (235, 5.66036477684974670410e-02) (236, -9.69771817326545715332e-02) (237, 2.93650701642036437988e-02) (238, 5.93378618359565734863e-02) (239, -3.73420640826225280762e-02) (240, -3.13049852848052978516e-02) (241, 2.02707052230834960938e-02) (242, 9.30908992886543273926e-02) (243, 1.58274993300437927246e-02) (244, -5.83620406687259674072e-02) (245, -2.56935209035873413086e-02) (246, -6.91332221031188964844e-02) (247, -1.68478041887283325195e-02) (248, 5.82844987511634826660e-02) (249, -5.75092360377311706543e-02) (250, -1.58332362771034240723e-02) (251, -8.84482860565185546875e-02) (252, -4.39449027180671691895e-02) (253, 3.12656164169311523438e-03) (254, -7.99399614334106445312e-03) (255, -9.63211059570312500000e-04) (256, 3.84213998913764953613e-02) (0, -8.51115658879280090332e-02) (1, -5.94966188073158264160e-02) (2, -1.85001343488693237305e-02) (3, 8.11959877610206604004e-02) (4, 6.74123540520668029785e-02) (5, -5.14508448541164398193e-02) (6, 8.97745564579963684082e-02) (7, -1.81055217981338500977e-02) (8, 2.92400345206260681152e-02) (9, 4.63782027363777160645e-02) (10, -1.50827020406723022461e-02) (11, -4.13948968052864074707e-02) (12, 5.71604818105697631836e-03) (13, 4.75752428174018859863e-02) (14, 2.73001268506050109863e-02) (15, -7.40132480859756469727e-02) (16, 4.06661257147789001465e-02) (17, -5.68723902106285095215e-02) (18, -3.23752909898757934570e-02) (19, -8.50273892283439636230e-02) (20, -2.60056108236312866211e-02) (21, 5.07769063115119934082e-02) (22, 7.32570961117744445801e-02) (23, 1.64851546287536621094e-02) (24, -6.50563314557075500488e-02) (25, 8.48088338971138000488e-02) (26, 7.25402459502220153809e-02) (27, 3.80702391266822814941e-02) (28, -2.31851786375045776367e-02) (29, -2.84229665994644165039e-02) (30, -2.35083773732185363770e-02) (31, -8.29674303531646728516e-03) (32, 1.20804160833358764648e-02) (33, 5.79914823174476623535e-02) (34, -2.71007567644119262695e-02) (35, -2.05072313547134399414e-02) (36, -9.34593603014945983887e-02) (37, -3.73262092471122741699e-02) (38, 6.13872483372688293457e-02) (39, 3.57806757092475891113e-02) (40, -9.09480154514312744141e-02) (41, -5.36954514682292938232e-02) (42, 9.43857803940773010254e-02) (43, 1.47680267691612243652e-02) (44, 9.38797816634178161621e-02) (45, 2.16858983039855957031e-02) (46, 4.07547876238822937012e-02) (47, 3.45459058880805969238e-02) (48, 6.48135021328926086426e-02) (49, -9.16205048561096191406e-02) (50, 4.95185330510139465332e-02) (51, -6.11921027302742004395e-02) (52, 5.91564103960990905762e-02) (53, 2.27756276726722717285e-02) (54, 5.52930459380149841309e-02) (55, 9.41000804305076599121e-02) (56, 7.58445262908935546875e-03) (57, 2.78332903981208801270e-02) (58, 3.21703180670738220215e-02) (59, 8.43992903828620910645e-02) (60, 9.94103327393531799316e-02) (61, -9.13380607962608337402e-02) (62, -2.38974541425704956055e-02) (63, 1.14907473325729370117e-02) (64, 6.66534379124641418457e-02) (65, 4.90017905831336975098e-02) (66, 9.09835174679756164551e-02) (67, 7.31940641999244689941e-02) (68, -8.83244201540946960449e-02) (69, 5.23707792162895202637e-02) (70, 8.97474586963653564453e-03) (71, -7.92724341154098510742e-02) (72, 9.86753180623054504395e-02) (73, 3.36052477359771728516e-03) (74, 3.54956015944480895996e-02) (75, 9.25551131367683410645e-02) (76, -7.49535709619522094727e-02) (77, -2.37496122717857360840e-02) (78, 2.71010324358940124512e-02) (79, 8.98599401116371154785e-02) (80, -1.53701156377792358398e-02) (81, -2.33804509043693542480e-02) (82, -7.13321715593338012695e-02) (83, -5.62137104570865631104e-02) (84, 9.93951782584190368652e-02) (85, 8.39608833193778991699e-02) (86, -6.21136315166950225830e-02) (87, 6.97962939739227294922e-03) (88, 1.17941871285438537598e-02) (89, 7.00566843152046203613e-02) (90, -8.62108170986175537109e-03) (91, 1.12045183777809143066e-02) (92, 7.87186250090599060059e-02) (93, 6.74814656376838684082e-02) (94, -7.73047208786010742188e-02) (95, 4.53720465302467346191e-02) (96, 1.64832472801208496094e-02) (97, -8.63212049007415771484e-02) (98, 1.85661166906356811523e-02) (99, 2.81588360667228698730e-02) (100, 6.60495832562446594238e-02) (101, -7.24591389298439025879e-02) (102, 4.88863959908485412598e-02) (103, 6.47248849272727966309e-02) (104, 3.09013798832893371582e-02) (105, -1.56180113554000854492e-02) (106, 5.72799965739250183105e-02) (107, 5.59478178620338439941e-02) (108, 6.06323704123497009277e-02) (109, -1.56189799308776855469e-02) (110, 4.58077415823936462402e-02) (111, -5.47377429902553558350e-02) (112, 6.10005781054496765137e-02) (113, 7.44755938649177551270e-02) (114, -1.09514445066452026367e-02) (115, 6.03957548737525939941e-02) (116, 5.84364607930183410645e-02) (117, 2.69349291920661926270e-02) (118, -3.26246097683906555176e-02) (119, -2.97693535685539245605e-02) (120, -3.00839543342590332031e-03) (121, 5.87543174624443054199e-02) (122, 8.14351662993431091309e-02) (123, -2.42897719144821166992e-02) (124, 2.62357667088508605957e-02) (125, -9.58695560693740844727e-02) (126, -7.89177268743515014648e-02) (127, -5.72809763252735137939e-02) (128, -8.21907594799995422363e-02) (129, 3.96483913064002990723e-02) (130, 7.08778575062751770020e-02) (131, 8.38588103652000427246e-02) (132, 6.71892538666725158691e-02) (133, 1.97642594575881958008e-02) (134, 4.85836938023567199707e-02) (135, -1.90936028957366943359e-03) (136, -9.58537533879280090332e-02) (137, 5.86370378732681274414e-03) (138, -4.59615476429462432861e-02) (139, 6.47786334156990051270e-02) (140, 9.02447178959846496582e-02) (141, 9.98462066054344177246e-02) (142, -8.99591147899627685547e-02) (143, 5.12452945113182067871e-02) (144, 7.43217840790748596191e-02) (145, -9.10565257072448730469e-04) (146, 1.16410478949546813965e-02) (147, 3.27582433819770812988e-02) (148, -7.39756450057029724121e-02) (149, 7.90164396166801452637e-02) (150, -9.70111042261123657227e-02) (151, 2.30159536004066467285e-02) (152, 3.77707555890083312988e-02) (153, 8.44240710139274597168e-02) (154, 9.87261906266212463379e-02) (155, -3.59934866428375244141e-02) (156, 8.85545089840888977051e-02) (157, -8.01915377378463745117e-02) (158, 6.72553479671478271484e-03) (159, -9.36362519860267639160e-02) (160, 5.94568476080894470215e-02) (161, -2.23966091871261596680e-02) (162, 9.02225598692893981934e-02) (163, 2.66460999846458435059e-02) (164, 9.73676517605781555176e-02) (165, 3.88062670826911926270e-02) (166, -7.52632617950439453125e-02) (167, -9.84861105680465698242e-02) (168, -5.53300343453884124756e-02) (169, -2.12248042225837707520e-02) (170, 6.62925168871879577637e-02) (171, -6.50853067636489868164e-02) (172, -2.13785991072654724121e-02) (173, 7.63334110379219055176e-02) (174, 8.61599817872047424316e-02) (175, -4.70568127930164337158e-02) (176, -2.45771631598472595215e-02) (177, -2.19897925853729248047e-03) (178, 8.57014283537864685059e-02) (179, 1.44718587398529052734e-03) (180, -2.31825411319732666016e-02) (181, 8.86903330683708190918e-02) (182, -7.55368471145629882812e-02) (183, -8.54118019342422485352e-02) (184, 7.31144025921821594238e-02) (185, -7.68106654286384582520e-02) (186, -2.14052870869636535645e-02) (187, 6.16689100861549377441e-02) (188, -5.70022091269493103027e-02) (189, 8.53202566504478454590e-02) (190, 6.80326595902442932129e-02) (191, -9.75453555583953857422e-02) (192, -3.70763540267944335938e-02) (193, 5.82552179694175720215e-02) (194, 2.91007384657859802246e-02) (195, -3.97087037563323974609e-02) (196, -2.93850898742675781250e-03) (197, 5.38374856114387512207e-02) (198, -3.81948128342628479004e-02) (199, 4.17314693331718444824e-02) (200, -6.73873126506805419922e-02) (201, -7.19022899866104125977e-02) (202, 7.66461566090583801270e-02) (203, 1.12340822815895080566e-02) (204, -9.55688953399658203125e-02) (205, 6.28061369061470031738e-02) (206, 6.41772821545600891113e-02) (207, -2.01460570096969604492e-02) (208, -3.93928475677967071533e-02) (209, 4.98787090182304382324e-02) (210, 8.13011452555656433105e-02) (211, 3.74246165156364440918e-02) (212, 3.85690405964851379395e-02) (213, -9.42357182502746582031e-02) (214, 5.20128086209297180176e-02) (215, 1.16834416985511779785e-02) (216, -7.10463821887969970703e-02) (217, -6.93924725055694580078e-02) (218, -2.66476571559906005859e-02) (219, -2.80485898256301879883e-02) (220, -8.40722173452377319336e-02) (221, -5.86149990558624267578e-02) (222, -2.55939438939094543457e-02) (223, -2.11485698819160461426e-02) (224, 9.96402278542518615723e-02) (225, -9.64931994676589965820e-02) (226, 3.91427353024482727051e-02) (227, -3.29828262329101562500e-03) (228, 5.73442950844764709473e-02) (229, -9.90520864725112915039e-02) (230, -6.15668259561061859131e-02) (231, 8.99569764733314514160e-02) (232, -7.09543749690055847168e-02) (233, -8.49206745624542236328e-02) (234, 1.19106471538543701172e-03) (235, -6.65232688188552856445e-02) (236, 7.78854563832283020020e-02) (237, -3.46316620707511901855e-02) (238, 1.33306756615638732910e-02) (239, -6.15073889493942260742e-02) (240, -8.47529545426368713379e-02) (241, -5.36818802356719970703e-03) (242, 7.59172216057777404785e-02) (243, 5.38160875439643859863e-02) (244, 3.96095216274261474609e-04) (245, 2.79300287365913391113e-02) (246, -3.45004796981811523438e-02) (247, 2.93497219681739807129e-02) (248, 5.85375651717185974121e-02) (249, 3.88518646359443664551e-02) (250, -9.86988618969917297363e-02) (251, 7.44653418660163879395e-02) (252, 8.02368596196174621582e-02) (253, -2.42928043007850646973e-02) (254, -4.66832183301448822021e-02) (255, 7.98770859837532043457e-02) (256, -2.07860022783279418945e-02) (0, 9.24595072865486145020e-02) (1, -2.34211906790733337402e-02) (2, -6.34417086839675903320e-02) (3, 9.34074297547340393066e-02) (4, 1.50119811296463012695e-02) (5, -7.34847337007522583008e-02) (6, -7.75469467043876647949e-02) (7, 3.00913080573081970215e-02) (8, 2.77063325047492980957e-02) (9, -4.40702140331268310547e-02) (10, 7.97675549983978271484e-03) (11, 9.30746719241142272949e-02) (12, 6.92604705691337585449e-02) (13, 4.64693680405616760254e-02) (14, -9.16782915592193603516e-02) (15, -3.61077263951301574707e-02) (16, 2.23865956068038940430e-02) (17, 6.21377900242805480957e-02) (18, 6.42883852124214172363e-02) (19, -4.96833696961402893066e-02) (20, -7.23626837134361267090e-02) (21, -6.36189430952072143555e-03) (22, -9.11458060145378112793e-02) (23, 6.64891824126243591309e-02) (24, -5.06076216697692871094e-03) (25, 8.33195522427558898926e-02) (26, 4.67260554432868957520e-02) (27, 7.06464424729347229004e-02) (28, -6.33636713027954101562e-02) (29, 2.66031399369239807129e-02) (30, -5.01395650207996368408e-02) (31, -7.09041580557823181152e-02) (32, -9.68180522322654724121e-02) (33, -1.35812684893608093262e-02) (34, -7.74967297911643981934e-02) (35, 1.81939378380775451660e-02) (36, 1.29339918494224548340e-02) (37, -5.50436750054359436035e-02) (38, -5.17147593200206756592e-02) (39, -5.93596771359443664551e-02) (40, 8.86105000972747802734e-04) (41, 5.62619939446449279785e-02) (42, -6.62850141525268554688e-02) (43, -2.98534259200096130371e-02) (44, 2.73136794567108154297e-03) (45, -5.79633004963397979736e-02) (46, 3.40388491749763488770e-02) (47, -7.48820379376411437988e-02) (48, -9.58255082368850708008e-02) (49, -1.67277455329895019531e-03) (50, -2.45654135942459106445e-02) (51, -6.81881904602050781250e-02) (52, 9.19653251767158508301e-02) (53, -1.57112106680870056152e-02) (54, 9.83010008931159973145e-02) (55, -1.30954235792160034180e-02) (56, -3.23916599154472351074e-02) (57, 4.50270399451255798340e-02) (58, -4.24489937722682952881e-02) (59, 4.24467027187347412109e-03) (60, -2.83698141574859619141e-02) (61, 7.41144269704818725586e-03) (62, 3.33405211567878723145e-02) (63, -2.51878648996353149414e-02) (64, 9.38301756978034973145e-02) (65, 5.58437928557395935059e-02) (66, 9.30060818791389465332e-02) (67, 6.76417350769042968750e-03) (68, -9.91998836398124694824e-02) (69, -5.87086938321590423584e-02) (70, 4.74044904112815856934e-02) (71, 1.68623030185699462891e-03) (72, 9.75533053278923034668e-02) (73, 8.11194851994514465332e-02) (74, 7.18327984213829040527e-02) (75, 2.84671783447265625000e-04) (76, -7.68438205122947692871e-02) (77, 5.87163865566253662109e-03) (78, 2.54026278853416442871e-02) (79, -7.26693272590637207031e-02) (80, -9.58011299371719360352e-02) (81, -9.91627797484397888184e-02) (82, -4.08575199544429779053e-02) (83, 9.61642041802406311035e-02) (84, -1.48739889264106750488e-02) (85, -4.25565242767333984375e-02) (86, -1.69312283396720886230e-02) (87, 5.27343526482582092285e-02) (88, -9.75294858217239379883e-02) (89, 4.06197831034660339355e-02) (90, -4.30209748446941375732e-02) (91, -2.58993059396743774414e-02) (92, -5.19687756896018981934e-02) (93, 9.03195366263389587402e-02) (94, 4.89128306508064270020e-02) (95, -5.81386014819145202637e-02) (96, 4.61633279919624328613e-02) (97, 4.19189110398292541504e-02) (98, 4.86255660653114318848e-02) (99, 4.69634607434272766113e-02) (100, 8.32102224230766296387e-02) (101, -3.96993756294250488281e-03) (102, -5.13503290712833404541e-02) (103, 8.07635262608528137207e-02) (104, -2.28504538536071777344e-02) (105, -7.95175358653068542480e-02) (106, -1.89518034458160400391e-02) (107, 3.05727124214172363281e-04) (108, 2.63541117310523986816e-02) (109, -9.35491770505905151367e-02) (110, 2.76364013552665710449e-02) (111, 3.05529907345771789551e-02) (112, -9.27119478583335876465e-02) (113, 8.67788866162300109863e-02) (114, 2.67171934247016906738e-02) (115, -7.58593529462814331055e-03) (116, -5.57776428759098052979e-02) (117, -9.02140438556671142578e-02) (118, -5.48515878617763519287e-02) (119, -5.33071309328079223633e-02) (120, 5.04057481884956359863e-02) (121, 2.12744623422622680664e-03) (122, 2.07935720682144165039e-02) (123, 9.84369590878486633301e-02) (124, -7.55301862955093383789e-03) (125, -3.02935987710952758789e-02) (126, -5.97016364336013793945e-02) (127, -6.13896884024143218994e-02) (128, -8.83746892213821411133e-02) (129, 8.89239385724067687988e-02) (130, 8.55737552046775817871e-02) (131, 9.48355272412300109863e-02) (132, -1.50460079312324523926e-02) (133, -6.57765716314315795898e-02) (134, 7.55990520119667053223e-02) (135, 6.21035322546958923340e-02) (136, -4.52941022813320159912e-02) (137, -4.33527603745460510254e-02) (138, -3.75907383859157562256e-02) (139, 8.10600146651268005371e-02) (140, -3.69019359350204467773e-02) (141, 9.00456681847572326660e-02) (142, 1.16129964590072631836e-02) (143, -2.96138823032379150391e-02) (144, 7.68245533108711242676e-02) (145, -6.16698190569877624512e-02) (146, 6.28001764416694641113e-02) (147, -7.89530947804450988770e-02) (148, -5.18838576972484588623e-02) (149, -9.20514017343521118164e-02) (150, -3.22602242231369018555e-02) (151, 9.85218808054924011230e-02) (152, 1.00760310888290405273e-02) (153, 8.85333493351936340332e-02) (154, 9.69588533043861389160e-02) (155, -9.74769815802574157715e-02) (156, -4.17602546513080596924e-02) (157, -6.27427846193313598633e-02) (158, -5.88666684925556182861e-02) (159, -3.01349386572837829590e-02) (160, -7.38188549876213073730e-02) (161, -7.32929036021232604980e-02) (162, -3.52994203567504882812e-02) (163, 1.11351385712623596191e-02) (164, -3.90694737434387207031e-02) (165, -5.97003735601902008057e-02) (166, -2.67613306641578674316e-02) (167, 1.56364291906356811523e-02) (168, -3.05313616991043090820e-03) (169, 3.56479361653327941895e-02) (170, -3.30355763435363769531e-03) (171, 6.00449368357658386230e-02) (172, 2.56936028599739074707e-02) (173, -9.16905626654624938965e-02) (174, -6.95689469575881958008e-02) (175, 2.51813977956771850586e-03) (176, -5.33603802323341369629e-02) (177, 9.32312384247779846191e-02) (178, 2.35650539398193359375e-02) (179, -5.24424016475677490234e-03) (180, -9.88201722502708435059e-02) (181, 9.13048312067985534668e-02) (182, -6.72235339879989624023e-03) (183, 1.12558752298355102539e-02) (184, 7.98381641507148742676e-02) (185, -9.76350903511047363281e-03) (186, 1.37788876891136169434e-02) (187, -6.19220845401287078857e-02) (188, 2.74937078356742858887e-02) (189, 5.49122169613838195801e-02) (190, 7.94297456741333007812e-03) (191, 5.36748394370079040527e-02) (192, 8.16193148493766784668e-02) (193, 7.26435557007789611816e-02) (194, -3.51900160312652587891e-02) (195, -5.74501603841781616211e-02) (196, -8.70568156242370605469e-02) (197, 3.80486622452735900879e-02) (198, 5.81862702965736389160e-02) (199, 9.89005714654922485352e-03) (200, -2.63034105300903320312e-02) (201, -4.51172962784767150879e-02) (202, -3.00650149583816528320e-02) (203, 9.93901863694190979004e-02) (204, -3.68078574538230895996e-02) (205, 3.66032123565673828125e-04) (206, 1.90833956003189086914e-03) (207, 9.83176380395889282227e-03) (208, -6.40273094177246093750e-03) (209, -7.45266154408454895020e-02) (210, -9.54124778509140014648e-02) (211, -5.22290170192718505859e-03) (212, -8.32217931747436523438e-02) (213, -2.13482975959777832031e-03) (214, -9.39670279622077941895e-02) (215, 9.66163799166679382324e-02) (216, 8.81016626954078674316e-02) (217, 1.98118537664413452148e-02) (218, -6.53057098388671875000e-02) (219, 1.55953615903854370117e-02) (220, -2.52759233117103576660e-02) (221, 4.26372662186622619629e-02) (222, -3.07297930121421813965e-02) (223, -4.36566136777400970459e-02) (224, 1.52808204293251037598e-02) (225, 3.40801849961280822754e-02) (226, -1.10676884651184082031e-03) (227, 2.82239988446235656738e-02) (228, -2.78711542487144470215e-02) (229, -4.29205000400543212891e-02) (230, -6.18859417736530303955e-02) (231, 4.58254292607307434082e-02) (232, 1.19621977210044860840e-02) (233, 8.04904848337173461914e-03) (234, 4.52156290411949157715e-02) (235, 7.51543566584587097168e-02) (236, -9.15849208831787109375e-02) (237, -5.28760366141796112061e-02) (238, -1.50138884782791137695e-02) (239, 2.01234966516494750977e-03) (240, -2.74026542901992797852e-02) (241, -1.04263648390769958496e-02) (242, 9.67894569039344787598e-02) (243, -1.06244385242462158203e-02) (244, 8.74387994408607482910e-02) (245, -9.71775799989700317383e-02) (246, -1.40080600976943969727e-02) (247, 7.55404606461524963379e-02) (248, 2.26342827081680297852e-02) (249, 2.06862315535545349121e-02) (250, -8.86417925357818603516e-03) (251, 9.73583534359931945801e-02) (252, -3.66764962673187255859e-02) (253, 6.04060366749763488770e-02) (254, -4.62982468307018280029e-02) (255, 7.86043331027030944824e-02) (256, -5.51377981901168823242e-03) (0, 5.25949820876121520996e-02) (1, 6.82833045721054077148e-03) (2, 6.66150525212287902832e-02) (3, -9.03255194425582885742e-02) (4, 4.49423864483833312988e-02) (5, 1.24405026435852050781e-02) (6, 2.16366872191429138184e-02) (7, -4.70085628330707550049e-02) (8, -4.23438809812068939209e-02) (9, -3.20896506309509277344e-03) (10, -3.85934822261333465576e-02) (11, 4.78009134531021118164e-03) (12, 8.17771479487419128418e-02) (13, 6.34188726544380187988e-02) (14, 7.73774459958076477051e-02) (15, -2.86492258310317993164e-02) (16, 6.02083280682563781738e-02) (17, -3.32470089197158813477e-02) (18, -4.12104204297065734863e-02) (19, 6.30307421088218688965e-02) (20, 5.27449324727058410645e-02) (21, -6.56699538230895996094e-02) (22, -1.43349692225456237793e-02) (23, -2.65688300132751464844e-02) (24, 2.54658535122871398926e-02) (25, -1.69766098260879516602e-02) (26, 3.67546752095222473145e-02) (27, -1.41281038522720336914e-02) (28, 3.67251411080360412598e-02) (29, 1.53589993715286254883e-02) (30, 8.03581103682518005371e-02) (31, -1.06798782944679260254e-02) (32, -7.78126642107963562012e-02) (33, 4.69731763005256652832e-02) (34, -1.00539624691009521484e-03) (35, 6.71297386288642883301e-02) (36, -4.05863337218761444092e-02) (37, -7.93687105178833007812e-02) (38, -7.98788368701934814453e-02) (39, 1.70697942376136779785e-02) (40, 1.74223184585571289062e-02) (41, -1.84723138809204101562e-02) (42, -7.81501233577728271484e-02) (43, -8.00535082817077636719e-04) (44, -5.50534501671791076660e-02) (45, 9.92273166775703430176e-02) (46, 7.05502405762672424316e-02) (47, -9.48451310396194458008e-02) (48, -3.40196937322616577148e-02) (49, -7.06601738929748535156e-02) (50, 6.81856200098991394043e-02) (51, -8.12747627496719360352e-02) (52, -3.63301336765289306641e-02) (53, -4.61493544280529022217e-02) (54, -7.84359127283096313477e-03) (55, 8.91357287764549255371e-02) (56, 3.68740335106849670410e-02) (57, -7.10889175534248352051e-02) (58, -2.49923840165138244629e-02) (59, -2.64008268713951110840e-02) (60, 4.42700758576393127441e-02) (61, -4.46342714130878448486e-02) (62, 6.29192963242530822754e-02) (63, 6.64574131369590759277e-02) (64, -9.76611077785491943359e-02) (65, -3.80861051380634307861e-02) (66, 3.35871502757072448730e-02) (67, -3.82474362850189208984e-02) (68, -1.74548178911209106445e-02) (69, 5.37083223462104797363e-02) (70, 7.88223519921302795410e-02) (71, 9.99675020575523376465e-02) (72, -6.47640079259872436523e-02) (73, -9.93277728557586669922e-02) (74, -8.33034515380859375000e-04) (75, -1.98174566030502319336e-02) (76, 9.98995378613471984863e-02) (77, -3.02827879786491394043e-02) (78, -1.46625787019729614258e-02) (79, -3.41201499104499816895e-02) (80, -9.42967832088470458984e-04) (81, -4.64769676327705383301e-02) (82, -1.53949111700057983398e-02) (83, 6.27269074320793151855e-02) (84, 7.37367570400238037109e-03) (85, 7.67615064978599548340e-02) (86, 5.18626198172569274902e-02) (87, -5.57522885501384735107e-02) (88, -9.43274199962615966797e-02) (89, -7.31297507882118225098e-02) (90, 1.78468823432922363281e-02) (91, 4.99426648020744323730e-02) (92, -1.77640244364738464355e-02) (93, -1.92338302731513977051e-02) (94, 1.64000764489173889160e-02) (95, -1.54251307249069213867e-02) (96, 4.26800623536109924316e-02) (97, -5.00127784907817840576e-02) (98, 4.63274344801902770996e-02) (99, -7.47747570276260375977e-02) (100, -9.63044688105583190918e-02) (101, 2.51497849822044372559e-02) (102, -7.48072564601898193359e-02) (103, -6.10684715211391448975e-02) (104, 2.58220210671424865723e-02) (105, 2.43597179651260375977e-02) (106, 1.91140770912170410156e-02) (107, 2.57215574383735656738e-02) (108, 9.40769240260124206543e-02) (109, -9.55485105514526367188e-02) (110, 9.16014239192008972168e-02) (111, -6.86605274677276611328e-03) (112, -4.20254729688167572021e-02) (113, -2.37934961915016174316e-02) (114, -4.41391542553901672363e-02) (115, 6.53482154011726379395e-02) (116, -4.70319874584674835205e-02) (117, -9.22765284776687622070e-02) (118, -9.04040858149528503418e-02) (119, -4.13594059646129608154e-02) (120, -6.54062777757644653320e-02) (121, 2.74427905678749084473e-02) (122, -9.14167389273643493652e-02) (123, 1.68296918272972106934e-02) (124, -9.17910411953926086426e-02) (125, 2.49833315610885620117e-02) (126, -9.85954329371452331543e-02) (127, 5.08890226483345031738e-02) (128, 7.49705508351325988770e-02) (129, 4.77320030331611633301e-02) (130, 7.61142745614051818848e-02) (131, 7.86660984158515930176e-02) (132, -2.71182060241699218750e-02) (133, -9.86929908394813537598e-02) (134, -8.24023783206939697266e-02) (135, 9.87038090825080871582e-02) (136, 2.56667211651802062988e-02) (137, 3.67117002606391906738e-02) (138, 2.44253724813461303711e-02) (139, 1.97436437010765075684e-02) (140, 4.11631837487220764160e-02) (141, 1.60267949104309082031e-02) (142, -8.71224105358123779297e-02) (143, 9.91377159953117370605e-02) (144, 9.22333076596260070801e-02) (145, -3.12615558505058288574e-02) (146, 6.44859150052070617676e-02) (147, -5.47986924648284912109e-02) (148, -2.35380828380584716797e-02) (149, 7.40818455815315246582e-02) (150, 3.84189933538436889648e-03) (151, 1.10556334257125854492e-02) (152, 1.52462720870971679688e-03) (153, 1.24251618981361389160e-02) (154, -7.21146613359451293945e-02) (155, 9.73359495401382446289e-03) (156, -6.25915005803108215332e-02) (157, -7.07100927829742431641e-02) (158, -3.93773876130580902100e-02) (159, -8.76209363341331481934e-02) (160, 7.70219042897224426270e-02) (161, -6.32631182670593261719e-02) (162, 9.10451486706733703613e-02) (163, -5.00962994992733001709e-02) (164, -6.19561038911342620850e-02) (165, -9.13572311401367187500e-02) (166, -5.13924844563007354736e-02) (167, 6.37106224894523620605e-02) (168, 4.53544631600379943848e-02) (169, 7.30328932404518127441e-02) (170, -1.65457352995872497559e-02) (171, -1.34823471307754516602e-02) (172, -1.09403207898139953613e-02) (173, -3.66814434528350830078e-03) (174, -1.43446400761604309082e-02) (175, -1.87070220708847045898e-02) (176, 6.50702938437461853027e-02) (177, -4.98587265610694885254e-02) (178, 2.64942869544029235840e-02) (179, -5.84677830338478088379e-02) (180, -7.57768899202346801758e-02) (181, -6.96638077497482299805e-02) (182, 5.25878593325614929199e-02) (183, 2.57477387785911560059e-02) (184, 4.27613481879234313965e-02) (185, 8.04731920361518859863e-02) (186, -6.45186752080917358398e-02) (187, 8.01698639988899230957e-02) (188, -9.02369022369384765625e-02) (189, -3.89605760574340820312e-03) (190, 9.25489142537117004395e-02) (191, 8.67850109934806823730e-02) (192, 3.28408256173133850098e-02) (193, 8.35940763354301452637e-02) (194, -6.33112862706184387207e-02) (195, 7.08847269415855407715e-02) (196, 9.22368541359901428223e-02) (197, -1.47037655115127563477e-02) (198, 3.45953479409217834473e-02) (199, 3.75913158059120178223e-02) (200, -4.16708849370479583740e-02) (201, -8.19503888487815856934e-02) (202, -7.58910402655601501465e-02) (203, 4.73887994885444641113e-02) (204, 1.43814682960510253906e-02) (205, 9.76431369781494140625e-03) (206, -7.13182166218757629395e-02) (207, -2.05482244491577148438e-02) (208, 5.99055960774421691895e-02) (209, 5.51760718226432800293e-02) (210, 2.09839940071105957031e-02) (211, 8.41287001967430114746e-02) (212, 8.55122581124305725098e-02) (213, -2.64281481504440307617e-02) (214, 9.87644493579864501953e-03) (215, 2.82736197113990783691e-02) (216, -4.59549501538276672363e-02) (217, 4.53577712178230285645e-02) (218, 8.44347476959228515625e-03) (219, -3.61918509006500244141e-02) (220, -5.85382916033267974854e-02) (221, 9.92394983768463134766e-04) (222, -4.94068376719951629639e-02) (223, 7.43025466799736022949e-02) (224, -1.54135376214981079102e-02) (225, -1.27181261777877807617e-02) (226, 4.51872572302818298340e-02) (227, -2.31766924262046813965e-02) (228, 7.25781098008155822754e-02) (229, -2.02173888683319091797e-02) (230, -8.55853781104087829590e-02) (231, -6.90927729010581970215e-02) (232, -2.16777622699737548828e-03) (233, -6.14764206111431121826e-02) (234, 7.82960280776023864746e-02) (235, -8.77863019704818725586e-02) (236, 4.82879057526588439941e-02) (237, -9.30221974849700927734e-02) (238, -8.33453238010406494141e-03) (239, 8.19349288940429687500e-03) (240, 6.21538832783699035645e-02) (241, -8.73505398631095886230e-02) (242, -7.67780095338821411133e-03) (243, 4.76661399006843566895e-02) (244, -1.37786790728569030762e-02) (245, -9.78013649582862854004e-02) (246, -2.40602493286132812500e-02) (247, 4.02663722634315490723e-02) (248, 4.75564077496528625488e-02) (249, 8.43832269310951232910e-02) (250, -9.59254875779151916504e-02) (251, 8.90181139111518859863e-02) (252, -1.46243870258331298828e-02) (253, -4.53323200345039367676e-02) (254, 6.33206441998481750488e-02) (255, 6.99620768427848815918e-02) (256, 4.19495627284049987793e-02) (0, 8.50790739059448242188e-03) (1, -5.32146170735359191895e-02) (2, 1.45276635885238647461e-02) (3, 8.82905200123786926270e-02) (4, -3.87999974191188812256e-02) (5, 4.54348996281623840332e-02) (6, -1.38772577047348022461e-02) (7, -2.76416540145874023438e-04) (8, 2.37309113144874572754e-02) (9, -1.66355818510055541992e-03) (10, -5.19885122776031494141e-02) (11, 3.07087227702140808105e-02) (12, 9.00019183754920959473e-02) (13, 5.62049821019172668457e-02) (14, -7.13740289211273193359e-03) (15, -9.73486229777336120605e-02) (16, -5.14728203415870666504e-02) (17, -5.94712607562541961670e-02) (18, -1.11273080110549926758e-02) (19, -4.92741838097572326660e-02) (20, 1.64684876799583435059e-02) (21, -7.08609372377395629883e-02) (22, 9.82822254300117492676e-02) (23, 8.51713120937347412109e-04) (24, -6.67864233255386352539e-02) (25, 8.73003378510475158691e-02) (26, 8.62273201346397399902e-02) (27, -1.21187418699264526367e-02) (28, 5.06209805607795715332e-02) (29, 5.61893954873085021973e-02) (30, -7.01691880822181701660e-02) (31, -4.08711098134517669678e-02) (32, -9.70252156257629394531e-02) (33, 4.43584844470024108887e-02) (34, -5.25805912911891937256e-02) (35, -3.58252078294754028320e-02) (36, -1.02066323161125183105e-02) (37, 3.35421636700630187988e-02) (38, 6.38983771204948425293e-02) (39, -8.64757224917411804199e-02) (40, -6.81214034557342529297e-02) (41, -8.80901440978050231934e-02) (42, 4.42330017685890197754e-02) (43, -7.81194940209388732910e-02) (44, 6.81148394942283630371e-02) (45, -6.29044026136398315430e-02) (46, -7.54681155085563659668e-02) (47, -8.33579823374748229980e-02) (48, -2.23756581544876098633e-02) (49, 1.34045854210853576660e-02) (50, -3.26321572065353393555e-02) (51, 9.40928384661674499512e-02) (52, 4.25436422228813171387e-02) (53, -3.43499407172203063965e-02) (54, -5.05545735359191894531e-03) (55, 7.57572129368782043457e-02) (56, -4.70496118068695068359e-02) (57, -1.88281312584877014160e-02) (58, -3.63615304231643676758e-02) (59, -9.64286327362060546875e-02) (60, -6.26387298107147216797e-02) (61, -6.53071701526641845703e-03) (62, -3.72997373342514038086e-02) (63, -5.96639513969421386719e-02) (64, -6.21722377836704254150e-02) (65, 1.01196616888046264648e-02) (66, 4.51083481311798095703e-03) (67, 2.76211276650428771973e-02) (68, -5.63381761312484741211e-02) (69, -3.15907895565032958984e-02) (70, 4.11454066634178161621e-02) (71, -2.44595780968666076660e-02) (72, -1.96809321641921997070e-02) (73, -1.46215856075286865234e-02) (74, -2.57907062768936157227e-03) (75, -5.15660904347896575928e-02) (76, 2.24740132689476013184e-02) (77, 2.19528228044509887695e-02) (78, -3.49240675568580627441e-02) (79, -9.99016463756561279297e-02) (80, -6.46426081657409667969e-02) (81, 3.24437692761421203613e-02) (82, 9.41911861300468444824e-02) (83, 7.79010429978370666504e-02) (84, 9.80938300490379333496e-02) (85, -1.08642727136611938477e-02) (86, 5.36582544445991516113e-02) (87, -4.89557795226573944092e-02) (88, 7.03076049685478210449e-02) (89, -8.27032700181007385254e-02) (90, -4.53844144940376281738e-02) (91, -9.23311412334442138672e-02) (92, 1.07660144567489624023e-02) (93, 1.73158496618270874023e-02) (94, -5.19950874149799346924e-02) (95, 4.85937818884849548340e-02) (96, -7.25644826889038085938e-02) (97, 5.25157526135444641113e-02) (98, -2.37850919365882873535e-02) (99, -2.89026573300361633301e-02) (100, -7.90750384330749511719e-02) (101, -8.26396793127059936523e-02) (102, 4.66377660632133483887e-02) (103, 1.24403089284896850586e-03) (104, 2.73872911930084228516e-03) (105, -5.59413060545921325684e-02) (106, 4.96779456734657287598e-02) (107, -7.47872591018676757812e-02) (108, 6.60115107893943786621e-02) (109, -8.52461308240890502930e-02) (110, -7.46888965368270874023e-02) (111, -9.86310914158821105957e-02) (112, 4.71976473927497863770e-02) (113, -8.04977118968963623047e-02) (114, 7.92699530720710754395e-02) (115, 4.52914759516716003418e-02) (116, 8.63800942897796630859e-03) (117, 3.29282060265541076660e-02) (118, 9.63357016444206237793e-02) (119, -2.10543870925903320312e-02) (120, 5.02249374985694885254e-02) (121, -4.90487217903137207031e-02) (122, -1.33855193853378295898e-02) (123, -3.90090458095073699951e-02) (124, 6.82671293616294860840e-02) (125, 3.46193984150886535645e-02) (126, -9.04152691364288330078e-02) (127, 9.57026556134223937988e-02) (128, -1.28648653626441955566e-02) (129, -1.42003595829010009766e-02) (130, -3.32000106573104858398e-02) (131, 8.06009769439697265625e-03) (132, 3.15996259450912475586e-03) (133, -8.65622535347938537598e-02) (134, -9.06958729028701782227e-02) (135, -9.41013172268867492676e-02) (136, -4.25035618245601654053e-02) (137, 5.89820668101310729980e-02) (138, -6.88885673880577087402e-02) (139, -7.64920487999916076660e-02) (140, 7.37359449267387390137e-02) (141, -4.35774698853492736816e-02) (142, -7.51231387257575988770e-02) (143, 2.09335908293724060059e-02) (144, -2.40751802921295166016e-02) (145, -9.58531871438026428223e-02) (146, -3.37749347090721130371e-02) (147, 8.45628306269645690918e-02) (148, 3.70750203728675842285e-02) (149, -3.74392420053482055664e-02) (150, -3.64915579557418823242e-02) (151, -1.27000436186790466309e-02) (152, 1.35120302438735961914e-02) (153, 5.01229241490364074707e-02) (154, 4.82909157872200012207e-02) (155, -1.82208418846130371094e-02) (156, -1.52576938271522521973e-02) (157, 5.78756406903266906738e-02) (158, -2.25182026624679565430e-02) (159, 7.18774423003196716309e-02) (160, -5.63247203826904296875e-02) (161, 4.42817881703376770020e-02) (162, -2.00624614953994750977e-02) (163, 4.68352511525154113770e-02) (164, 5.77195361256599426270e-02) (165, -1.07583329081535339355e-02) (166, 5.27339205145835876465e-02) (167, -8.47840234637260437012e-02) (168, -5.17762638628482818604e-02) (169, 8.38453546166419982910e-02) (170, -6.12760707736015319824e-02) (171, -7.80403241515159606934e-02) (172, -5.97321130335330963135e-02) (173, -3.63992005586624145508e-02) (174, 4.28932681679725646973e-02) (175, 1.61926969885826110840e-02) (176, -3.22523862123489379883e-02) (177, -9.08816754817962646484e-02) (178, 7.55533576011657714844e-04) (179, -9.51773747801780700684e-02) (180, -2.83209234476089477539e-02) (181, 6.42639771103858947754e-02) (182, -7.87741690874099731445e-03) (183, 8.51911082863807678223e-02) (184, 1.43869072198867797852e-02) (185, -5.95865100622177124023e-02) (186, -3.30297276377677917480e-02) (187, 9.91292074322700500488e-02) (188, 9.82891395688056945801e-02) (189, 4.44520786404609680176e-02) (190, 7.10066482424736022949e-02) (191, -5.80355934798717498779e-02) (192, -1.12661421298980712891e-02) (193, -4.90558110177516937256e-02) (194, 8.87996479868888854980e-02) (195, -5.35466074943542480469e-02) (196, 4.01858612895011901855e-02) (197, 4.15335670113563537598e-02) (198, -3.83306331932544708252e-02) (199, 8.84095951914787292480e-02) (200, 2.53789350390434265137e-02) (201, 3.93293797969818115234e-04) (202, -8.96307304501533508301e-02) (203, 6.56468197703361511230e-02) (204, 6.39941021800041198730e-02) (205, 5.32625392079353332520e-02) (206, -1.81604772806167602539e-02) (207, -6.82583004236221313477e-02) (208, 6.23808577656745910645e-02) (209, 8.25950577855110168457e-02) (210, -6.34356737136840820312e-02) (211, -6.59400522708892822266e-02) (212, 4.68590334057807922363e-02) (213, 2.86869034171104431152e-02) (214, -8.07489454746246337891e-02) (215, -3.87540720403194427490e-02) (216, 6.91004022955894470215e-02) (217, -1.37786716222763061523e-02) (218, -3.96248660981655120850e-02) (219, 6.73895254731178283691e-02) (220, -6.93266019225120544434e-02) (221, -6.86182156205177307129e-02) (222, -9.06460657715797424316e-02) (223, 1.94072574377059936523e-02) (224, -1.76740214228630065918e-02) (225, 9.81535837054252624512e-02) (226, 6.58606514334678649902e-02) (227, -7.74881690740585327148e-02) (228, 3.96871492266654968262e-02) (229, -7.24699795246124267578e-02) (230, -8.90785753726959228516e-02) (231, -3.49339246749877929688e-02) (232, 2.79233232140541076660e-02) (233, -7.87092968821525573730e-02) (234, -6.92871138453483581543e-02) (235, -8.08258354663848876953e-03) (236, 7.45532438158988952637e-02) (237, 1.25524029135704040527e-02) (238, 2.36591100692749023438e-02) (239, 3.69341000914573669434e-02) (240, -4.85254824161529541016e-03) (241, 6.02234378457069396973e-02) (242, 7.09940567612648010254e-02) (243, -5.79935126006603240967e-02) (244, -1.10896527767181396484e-02) (245, 9.02451053261756896973e-02) (246, 3.25242429971694946289e-03) (247, -4.19892482459545135498e-02) (248, -2.35335677862167358398e-02) (249, 6.36275634169578552246e-02) (250, -7.45997279882431030273e-02) (251, 7.13983923196792602539e-03) (252, 9.50093343853950500488e-02) (253, -6.52457922697067260742e-02) (254, -7.34529048204421997070e-02) (255, -2.26646810770034790039e-02) (256, -6.70922100543975830078e-02) (0, 9.24077555537223815918e-02) (1, -1.52841210365295410156e-04) (2, 7.25949481129646301270e-02) (3, -8.00622254610061645508e-02) (4, 1.07685774564743041992e-02) (5, -6.23389892280101776123e-02) (6, 4.78610917925834655762e-02) (7, 3.20592895150184631348e-02) (8, -3.16261053085327148438e-02) (9, -6.02214969694614410400e-02) (10, 6.61252439022064208984e-03) (11, 8.09263065457344055176e-02) (12, 6.34376183152198791504e-02) (13, -5.64533732831478118896e-02) (14, -2.39262431859970092773e-02) (15, 2.36610546708106994629e-02) (16, -8.54593217372894287109e-02) (17, 1.80802494287490844727e-02) (18, -8.74285995960235595703e-02) (19, -9.52142104506492614746e-02) (20, -7.86673277616500854492e-02) (21, -2.94178500771522521973e-02) (22, -1.87477692961692810059e-02) (23, 8.49602296948432922363e-02) (24, -4.01757657527923583984e-03) (25, 8.83920714259147644043e-02) (26, 7.99695774912834167480e-02) (27, 3.07366326451301574707e-02) (28, -8.50608348846435546875e-02) (29, -4.26951050758361816406e-02) (30, 6.36444166302680969238e-02) (31, -9.26530808210372924805e-02) (32, 5.71520403027534484863e-02) (33, 3.62393632531166076660e-02) (34, -7.27153122425079345703e-02) (35, -3.20793688297271728516e-02) (36, 7.39003643393516540527e-02) (37, 7.51457884907722473145e-02) (38, 9.99799147248268127441e-02) (39, -5.77257387340068817139e-02) (40, -8.50757136940956115723e-02) (41, 6.59243762493133544922e-03) (42, -7.67994374036788940430e-02) (43, 7.83619061112403869629e-02) (44, 5.01390770077705383301e-02) (45, -7.25671648979187011719e-04) (46, 2.02295929193496704102e-03) (47, 6.46797493100166320801e-02) (48, -8.26454311609268188477e-02) (49, 1.45943537354469299316e-02) (50, 6.94655403494834899902e-02) (51, -6.13127537071704864502e-02) (52, 8.51765051484107971191e-02) (53, -4.92822304368019104004e-02) (54, -7.63525217771530151367e-02) (55, -1.88410729169845581055e-02) (56, -6.08901642262935638428e-02) (57, -9.63829457759857177734e-02) (58, -8.81044343113899230957e-02) (59, -4.59509976208209991455e-02) (60, -3.90780530869960784912e-02) (61, 7.55399838089942932129e-02) (62, -3.86040806770324707031e-02) (63, -8.19260030984878540039e-02) (64, 1.17793455719947814941e-02) (65, -1.13193839788436889648e-02) (66, -1.40053704380989074707e-02) (67, -1.43202915787696838379e-02) (68, -3.61736044287681579590e-02) (69, -1.40254572033882141113e-02) (70, 2.79539749026298522949e-02) (71, -2.12493166327476501465e-02) (72, 9.25669744610786437988e-02) (73, 5.11545464396476745605e-02) (74, -4.28874194622039794922e-02) (75, 4.27060499787330627441e-02) (76, -4.95711378753185272217e-02) (77, 5.91355338692665100098e-02) (78, 7.38579034805297851562e-03) (79, -3.22165638208389282227e-02) (80, -2.62701064348220825195e-02) (81, -2.31486707925796508789e-02) (82, 6.47068023681640625000e-03) (83, -4.10936065018177032471e-02) (84, 2.75691077113151550293e-02) (85, 3.01181599497795104980e-02) (86, 4.00653257966041564941e-02) (87, 6.66789487004280090332e-02) (88, 3.37352231144905090332e-02) (89, 5.19608929753303527832e-02) (90, -7.92720615863800048828e-02) (91, 9.46571752429008483887e-02) (92, 2.75008752942085266113e-02) (93, -1.78761333227157592773e-02) (94, -8.72688367962837219238e-02) (95, -6.07197768986225128174e-02) (96, 7.08044841885566711426e-02) (97, -1.27420574426651000977e-03) (98, 2.49599367380142211914e-02) (99, -6.53691291809082031250e-02) (100, 8.47003385424613952637e-02) (101, -4.70860898494720458984e-02) (102, 1.33815556764602661133e-02) (103, 7.72673115134239196777e-02) (104, -9.59315523505210876465e-02) (105, 7.04941377043724060059e-02) (106, 1.99733600020408630371e-02) (107, -4.55026887357234954834e-02) (108, 2.96296700835227966309e-02) (109, -7.26408436894416809082e-02) (110, 2.22807526588439941406e-02) (111, -9.66404378414154052734e-02) (112, 4.21048700809478759766e-03) (113, -7.12485685944557189941e-02) (114, -3.77340428531169891357e-02) (115, -6.82204142212867736816e-02) (116, 5.88696077466011047363e-02) (117, -9.76687222719192504883e-02) (118, 9.84585359692573547363e-02) (119, -7.39519298076629638672e-03) (120, 5.42921796441078186035e-02) (121, -8.08135345578193664551e-02) (122, -1.27380266785621643066e-02) (123, -1.82069465517997741699e-02) (124, 1.31032615900039672852e-03) (125, -6.86198472976684570312e-06) (126, 2.10732817649841308594e-02) (127, -2.78851985931396484375e-02) (128, 9.87189486622810363770e-02) (129, -5.39667867124080657959e-02) (130, 6.74567371606826782227e-03) (131, 8.34192708134651184082e-02) (132, -1.05287134647369384766e-03) (133, -7.98727720975875854492e-02) (134, 6.06865957379341125488e-02) (135, 3.01557779312133789062e-03) (136, 9.06213596463203430176e-02) (137, -1.93400457501411437988e-02) (138, 5.75128868222236633301e-02) (139, 2.02510356903076171875e-02) (140, 8.01911205053329467773e-03) (141, -2.02063620090484619141e-02) (142, 2.36105918884277343750e-02) (143, -8.77704024314880371094e-02) (144, 8.54507833719253540039e-03) (145, 8.58765468001365661621e-02) (146, -5.59908151626586914062e-02) (147, -3.25853303074836730957e-02) (148, 8.82078334689140319824e-02) (149, -5.75322918593883514404e-02) (150, 6.00194856524467468262e-02) (151, 4.25000116229057312012e-02) (152, -3.83458249270915985107e-02) (153, -5.27185462415218353271e-02) (154, -7.57069364190101623535e-02) (155, 6.29645064473152160645e-02) (156, 4.72745969891548156738e-02) (157, 4.53663542866706848145e-02) (158, -6.49206936359405517578e-02) (159, 4.59935292601585388184e-02) (160, 9.13995578885078430176e-02) (161, 4.18249741196632385254e-02) (162, 2.94128134846687316895e-02) (163, -9.65331494808197021484e-03) (164, 6.19521960616111755371e-02) (165, -9.90059226751327514648e-03) (166, 9.33622643351554870605e-02) (167, 5.25735691189765930176e-02) (168, 7.07593634724617004395e-02) (169, 5.08751496672630310059e-02) (170, -2.71753966808319091797e-02) (171, -2.12215259671211242676e-02) (172, -6.93312138319015502930e-02) (173, 9.64351966977119445801e-02) (174, -8.99192690849304199219e-03) (175, 3.92138585448265075684e-02) (176, 8.23117569088935852051e-02) (177, 3.50172594189643859863e-02) (178, -9.33714658021926879883e-02) (179, 7.05195739865303039551e-02) (180, 7.74849727749824523926e-02) (181, 6.66480138897895812988e-02) (182, 1.30195841193199157715e-02) (183, -6.08608536422252655029e-02) (184, -8.60705301165580749512e-02) (185, 3.73126491904258728027e-02) (186, -9.78963524103164672852e-02) (187, 6.12040683627128601074e-02) (188, -1.73210054636001586914e-02) (189, -6.28170520067214965820e-02) (190, 7.19759613275527954102e-03) (191, -2.59214490652084350586e-02) (192, 7.90079310536384582520e-02) (193, -6.33895844221115112305e-02) (194, 6.44252374768257141113e-02) (195, 4.09601405262947082520e-02) (196, 2.67098173499107360840e-02) (197, 5.77874854207038879395e-02) (198, -6.46630674600601196289e-03) (199, -2.53082066774368286133e-03) (200, 8.66264104843139648438e-03) (201, 6.63582906126976013184e-02) (202, 7.62476548552513122559e-02) (203, 3.93314436078071594238e-02) (204, 6.27935007214546203613e-02) (205, -3.27442735433578491211e-02) (206, -2.14547067880630493164e-02) (207, 4.51052412390708923340e-02) (208, -9.77270081639289855957e-02) (209, -1.48261636495590209961e-02) (210, 1.56248211860656738281e-02) (211, 7.97579661011695861816e-02) (212, -4.81781549751758575439e-02) (213, -7.13555961847305297852e-02) (214, -8.11028927564620971680e-02) (215, -3.42486873269081115723e-02) (216, 6.59570619463920593262e-02) (217, -7.89992511272430419922e-02) (218, -7.30446279048919677734e-02) (219, -5.13639561831951141357e-02) (220, -4.18163016438484191895e-02) (221, 3.41529771685600280762e-02) (222, 2.27145925164222717285e-02) (223, -6.28083795309066772461e-02) (224, 7.07633867859840393066e-02) (225, -1.28601714968681335449e-02) (226, 7.81517550349235534668e-02) (227, -2.52679735422134399414e-03) (228, -5.50726801156997680664e-02) (229, -2.83145457506179809570e-02) (230, 9.49423834681510925293e-02) (231, 5.35899624228477478027e-02) (232, -6.19562566280364990234e-02) (233, 7.11900368332862854004e-02) (234, -7.07860291004180908203e-03) (235, -9.91627648472785949707e-02) (236, -6.15542307496070861816e-02) (237, 7.14666917920112609863e-02) (238, 4.59424778819084167480e-02) (239, -5.92812411487102508545e-02) (240, -4.33594770729541778564e-02) (241, -3.84327135980129241943e-02) (242, -7.95232802629470825195e-02) (243, 8.46236944198608398438e-03) (244, -9.78830456733703613281e-03) (245, -6.06261715292930603027e-02) (246, 7.42136910557746887207e-02) (247, -4.38312552869319915771e-02) (248, -3.96254174411296844482e-02) (249, -9.88309457898139953613e-02) (250, 4.80479001998901367188e-03) (251, 1.85582861304283142090e-02) (252, 3.53220328688621520996e-02) (253, -7.24806115031242370605e-02) (254, 5.57499006390571594238e-02) (255, 6.08541816473007202148e-03) (256, 1.46592110395431518555e-02) (0, 3.39016690850257873535e-02) (1, -9.64413806796073913574e-02) (2, 5.95865324139595031738e-02) (3, -9.44128856062889099121e-02) (4, 9.85010042786598205566e-02) (5, 1.31765007972717285156e-02) (6, -5.63691407442092895508e-02) (7, 6.96910545229911804199e-02) (8, -9.39021110534667968750e-02) (9, -5.55319078266620635986e-02) (10, -9.18631851673126220703e-02) (11, 7.75645896792411804199e-02) (12, 9.04105678200721740723e-02) (13, -5.11444211006164550781e-02) (14, -6.57949000597000122070e-02) (15, -4.80221472680568695068e-02) (16, -3.06676998734474182129e-02) (17, 4.26674708724021911621e-02) (18, 4.21895459294319152832e-02) (19, 8.70613008737564086914e-03) (20, 1.68811529874801635742e-02) (21, 9.83582958579063415527e-02) (22, 6.90807178616523742676e-02) (23, 1.80502086877822875977e-02) (24, 3.16308438777923583984e-03) (25, -1.23610049486160278320e-02) (26, -4.66277673840522766113e-02) (27, 3.06824818253517150879e-02) (28, -5.66110946238040924072e-02) (29, 5.94576522707939147949e-02) (30, -5.46583086252212524414e-02) (31, 7.72905722260475158691e-02) (32, 6.30162730813026428223e-02) (33, -9.50717777013778686523e-02) (34, 8.28776881098747253418e-02) (35, 6.15172758698463439941e-02) (36, 1.81047171354293823242e-02) (37, -7.34914541244506835938e-02) (38, 3.12083289027214050293e-02) (39, 2.42026075720787048340e-02) (40, -2.90233641862869262695e-02) (41, 3.93451526761054992676e-02) (42, 1.76719576120376586914e-03) (43, -3.86127941310405731201e-02) (44, 8.82007107138633728027e-02) (45, 3.59723046422004699707e-02) (46, 1.33650675415992736816e-02) (47, -4.24669794738292694092e-02) (48, -2.13602259755134582520e-02) (49, -4.44453917443752288818e-02) (50, 6.62391558289527893066e-02) (51, 9.55209210515022277832e-02) (52, -4.60870936512947082520e-02) (53, 3.53198722004890441895e-02) (54, 1.35711282491683959961e-02) (55, 5.70759996771812438965e-02) (56, -7.70411416888236999512e-02) (57, 6.69433549046516418457e-02) (58, -1.22415274381637573242e-02) (59, -3.36522310972213745117e-02) (60, 2.64010205864906311035e-02) (61, 3.31001654267311096191e-02) (62, -5.63616678118705749512e-02) (63, -1.05827078223228454590e-02) (64, 3.80283966660499572754e-02) (65, -7.34839811921119689941e-02) (66, -4.90654371678829193115e-02) (67, -4.38668802380561828613e-02) (68, -4.69754412770271301270e-02) (69, 8.21428969502449035645e-02) (70, 8.03357437252998352051e-02) (71, 2.40011960268020629883e-02) (72, 2.14880332350730895996e-02) (73, -1.78970694541931152344e-02) (74, 8.53883996605873107910e-02) (75, 9.68874990940093994141e-03) (76, -8.19247737526893615723e-02) (77, -1.24653428792953491211e-03) (78, 6.72217682003974914551e-02) (79, -3.28499823808670043945e-03) (80, 5.43080642819404602051e-02) (81, 3.34609225392341613770e-02) (82, -7.76407122611999511719e-03) (83, -9.17790234088897705078e-02) (84, -3.12192216515541076660e-02) (85, -9.41929444670677185059e-02) (86, 6.52969852089881896973e-02) (87, -8.26036185026168823242e-03) (88, 7.27504119277000427246e-02) (89, -4.69445474445819854736e-02) (90, 5.80874159932136535645e-02) (91, -8.48568975925445556641e-04) (92, 8.61556306481361389160e-02) (93, -9.82742607593536376953e-02) (94, 8.85687246918678283691e-02) (95, 2.41840258240699768066e-02) (96, -7.17582404613494873047e-02) (97, -6.04967102408409118652e-02) (98, 8.03171470761299133301e-02) (99, -1.87336802482604980469e-02) (100, -7.83538222312927246094e-02) (101, 6.06528744101524353027e-02) (102, -9.47324857115745544434e-02) (103, 4.31342199444770812988e-02) (104, -5.72442002594470977783e-02) (105, 9.06559154391288757324e-02) (106, -4.71770353615283966064e-02) (107, -3.91689725220203399658e-02) (108, -1.05906277894973754883e-02) (109, -7.99552649259567260742e-02) (110, 5.75460270047187805176e-02) (111, -5.62825500965118408203e-02) (112, 5.35056665539741516113e-02) (113, -5.02180419862270355225e-02) (114, -4.80615682899951934814e-02) (115, -7.77135640382766723633e-02) (116, -4.44109849631786346436e-02) (117, -8.27645957469940185547e-02) (118, 1.40260681509971618652e-02) (119, -7.16605633497238159180e-02) (120, -2.97091379761695861816e-02) (121, -2.78865247964859008789e-02) (122, 2.74908617138862609863e-02) (123, -4.35535125434398651123e-02) (124, -2.61607840657234191895e-02) (125, 1.60595923662185668945e-02) (126, 8.06305035948753356934e-02) (127, 2.08097696304321289062e-03) (128, 5.55628761649131774902e-02) (129, 6.09476491808891296387e-02) (130, 8.33472833037376403809e-02) (131, 7.72090628743171691895e-02) (132, 2.16005221009254455566e-02) (133, 8.86147990822792053223e-02) (134, 2.03432813286781311035e-02) (135, 6.43563196063041687012e-02) (136, 7.92707279324531555176e-02) (137, 7.31662586331367492676e-02) (138, -7.48126581311225891113e-02) (139, -3.13199013471603393555e-02) (140, 9.32109877467155456543e-02) (141, 8.27333852648735046387e-02) (142, 1.23975425958633422852e-02) (143, 4.67166379094123840332e-02) (144, -6.74846619367599487305e-02) (145, 6.43359795212745666504e-02) (146, 6.90030679106712341309e-02) (147, -1.18956491351127624512e-02) (148, 8.15713778138160705566e-02) (149, -1.69708579778671264648e-02) (150, 1.64437741041183471680e-02) (151, -4.81377542018890380859e-02) (152, 5.51426187157630920410e-02) (153, -5.60653507709503173828e-02) (154, 8.30873101949691772461e-03) (155, -7.10181593894958496094e-02) (156, 5.99942430853843688965e-02) (157, -1.10607594251632690430e-02) (158, 3.10628041625022888184e-02) (159, 1.55571252107620239258e-02) (160, -5.01131154596805572510e-02) (161, 1.44101008772850036621e-02) (162, -7.23381340503692626953e-03) (163, 7.14874044060707092285e-02) (164, 3.02489846944808959961e-03) (165, -8.68905335664749145508e-02) (166, 3.58437225222587585449e-02) (167, -1.77043825387954711914e-02) (168, 8.62757042050361633301e-02) (169, 6.10310509800910949707e-02) (170, 5.09757176041603088379e-02) (171, 7.94866904616355895996e-02) (172, 4.37644347548484802246e-02) (173, -3.66267412900924682617e-02) (174, 2.62033417820930480957e-02) (175, 7.62797668576240539551e-02) (176, -7.22907707095146179199e-02) (177, -4.79359924793243408203e-03) (178, -3.56158763170242309570e-02) (179, 